<?xml version="1.0"?>
<opencv_storage>
<cascade>
  <stageType>BOOST</stageType>
  <featureType>HAAR</featureType>
  <height>20</height>
  <width>20</width>
  <stageParams>
    <boostType>GAB</boostType>
    <minHitRate>9.9500000476837158e-01</minHitRate>
    <maxFalseAlarm>5.0000000000000000e-01</maxFalseAlarm>
    <weightTrimRate>9.4999999999999996e-01</weightTrimRate>
    <maxDepth>1</maxDepth>
    <maxWeakCount>100</maxWeakCount></stageParams>
  <featureParams>
    <maxCatCount>0</maxCatCount>
    <featSize>1</featSize>
    <mode>BASIC</mode></featureParams>
  <stageNum>10</stageNum>
  <stages>
    <!-- stage 0 -->
    <_>
      <maxWeakCount>5</maxWeakCount>
      <stageThreshold>-1.1481224298477173e+00</stageThreshold>
      <weakClassifiers>
        <_>
          <internalNodes>
            0 -1 90 4.4251540675759315e-03</internalNodes>
          <leafValues>
            -3.9386296272277832e-01 8.1110191345214844e-01</leafValues></_>
        <_>
          <internalNodes>
            0 -1 53 1.9018501043319702e-02</internalNodes>
          <leafValues>
            -5.3521776199340820e-01 7.2394734621047974e-01</leafValues></_>
        <_>
          <internalNodes>
            0 -1 12 6.3285017386078835e-03</internalNodes>
          <leafValues>
            -5.2728283405303955e-01 6.0546505451202393e-01</leafValues></_>
        <_>
          <internalNodes>
            0 -1 14 6.2602427788078785e-03</internalNodes>
          <leafValues>
            -3.1729406118392944e-01 6.0387891530990601e-01</leafValues></_>
        <_>
          <internalNodes>
            0 -1 113 1.7401007935404778e-03</internalNodes>
          <leafValues>
            -3.4190386533737183e-01 6.2553507089614868e-01</leafValues></_></weakClassifiers></_>
    <!-- stage 1 -->
    <_>
      <maxWeakCount>8</maxWeakCount>
      <stageThreshold>-1.2687540054321289e+00</stageThreshold>
      <weakClassifiers>
        <_>
          <internalNodes>
            0 -1 74 9.2655215412378311e-03</internalNodes>
          <leafValues>
            -4.2295429110527039e-01 6.7897039651870728e-01</leafValues></_>
        <_>
          <internalNodes>
            0 -1 13 -8.8484287261962891e-03</internalNodes>
          <leafValues>
            6.5492969751358032e-01 -4.3814980983734131e-01</leafValues></_>
        <_>
          <internalNodes>
            0 -1 20 -4.1063404642045498e-03</internalNodes>
          <leafValues>
            6.9113659858703613e-01 -3.3588755130767822e-01</leafValues></_>
        <_>
          <internalNodes>
            0 -1 39 1.3611637055873871e-02</internalNodes>
          <leafValues>
            2.8068724274635315e-01 -8.5673642158508301e-01</leafValues></_>
        <_>
          <internalNodes>
            0 -1 70 5.3993179462850094e-03</internalNodes>
          <leafValues>
            -5.3889715671539307e-01 3.3855450153350830e-01</leafValues></_>
        <_>
          <internalNodes>
            0 -1 113 2.3153233341872692e-03</internalNodes>
          <leafValues>
            -3.5411790013313293e-01 5.7613950967788696e-01</leafValues></_>
        <_>
          <internalNodes>
            0 -1 112 1.0903989896178246e-02</internalNodes>
          <leafValues>
            -2.6400229334831238e-01 6.0572332143783569e-01</leafValues></_>
        <_>
          <internalNodes>
            0 -1 83 -3.1679100356996059e-03</internalNodes>
          <leafValues>
            5.4101175069808960e-01 -2.8851172327995300e-01</leafValues></_></weakClassifiers></_>
    <!-- stage 2 -->
    <_>
      <maxWeakCount>10</maxWeakCount>
      <stageThreshold>-1.3681981563568115e+00</stageThreshold>
      <weakClassifiers>
        <_>
          <internalNodes>
            0 -1 3 3.6562275141477585e-02</internalNodes>
          <leafValues>
            -2.2655919194221497e-01 6.9558054208755493e-01</leafValues></_>
        <_>
          <internalNodes>
            0 -1 53 3.9319433271884918e-02</internalNodes>
          <leafValues>
            -3.0580198764801025e-01 6.1826878786087036e-01</leafValues></_>
        <_>
          <internalNodes>
            0 -1 103 2.2356165573000908e-03</internalNodes>
          <leafValues>
            -3.3526930212974548e-01 6.3053214550018311e-01</leafValues></_>
        <_>
          <internalNodes>
            0 -1 22 1.9930284470319748e-03</internalNodes>
          <leafValues>
            -4.4735434651374817e-01 4.8982998728752136e-01</leafValues></_>
        <_>
          <internalNodes>
            0 -1 21 -1.5558947809040546e-02</internalNodes>
          <leafValues>
            2.9808342456817627e-01 -4.8634642362594604e-01</leafValues></_>
        <_>
          <internalNodes>
            0 -1 114 -3.2335612922906876e-03</internalNodes>
          <leafValues>
            4.3846654891967773e-01 -3.4358638525009155e-01</leafValues></_>
        <_>
          <internalNodes>
            0 -1 97 2.5401953607797623e-03</internalNodes>
          <leafValues>
            -2.6963973045349121e-01 4.6352553367614746e-01</leafValues></_>
        <_>
          <internalNodes>
            0 -1 109 -2.6188548654317856e-03</internalNodes>
          <leafValues>
            5.4146939516067505e-01 -2.4588969349861145e-01</leafValues></_>
        <_>
          <internalNodes>
            0 -1 33 1.0167461633682251e-01</internalNodes>
          <leafValues>
            -1.9439865648746490e-01 6.6830271482467651e-01</leafValues></_>
        <_>
          <internalNodes>
            0 -1 78 1.6865687211975455e-03</internalNodes>
          <leafValues>
            -2.6651301980018616e-01 4.3632116913795471e-01</leafValues></_></weakClassifiers></_>
    <!-- stage 3 -->
    <_>
      <maxWeakCount>10</maxWeakCount>
      <stageThreshold>-9.4470739364624023e-01</stageThreshold>
      <weakClassifiers>
        <_>
          <internalNodes>
            0 -1 68 -1.3297458644956350e-03</internalNodes>
          <leafValues>
            6.5407609939575195e-01 -1.7543102800846100e-01</leafValues></_>
        <_>
          <internalNodes>
            0 -1 4 1.1684021353721619e-01</internalNodes>
          <leafValues>
            -2.8169348835945129e-01 5.7730734348297119e-01</leafValues></_>
        <_>
          <internalNodes>
            0 -1 41 6.5086497925221920e-03</internalNodes>
          <leafValues>
            2.1853511035442352e-01 -8.7083196640014648e-01</leafValues></_>
        <_>
          <internalNodes>
            0 -1 75 9.4899709802120924e-04</internalNodes>
          <leafValues>
            -6.9569659233093262e-01 2.0916934311389923e-01</leafValues></_>
        <_>
          <internalNodes>
            0 -1 53 2.8620056807994843e-02</internalNodes>
          <leafValues>
            -4.5286598801612854e-01 3.5302004218101501e-01</leafValues></_>
        <_>
          <internalNodes>
            0 -1 85 -2.4551237002015114e-03</internalNodes>
          <leafValues>
            4.4373962283134460e-01 -3.3184999227523804e-01</leafValues></_>
        <_>
          <internalNodes>
            0 -1 116 -2.7707593981176615e-03</internalNodes>
          <leafValues>
            4.6710053086280823e-01 -3.0606153607368469e-01</leafValues></_>
        <_>
          <internalNodes>
            0 -1 15 -2.1895345300436020e-02</internalNodes>
          <leafValues>
            -7.4760085344314575e-01 1.3119597733020782e-01</leafValues></_>
        <_>
          <internalNodes>
            0 -1 44 -3.6607548594474792e-02</internalNodes>
          <leafValues>
            -8.9777684211730957e-01 9.3480825424194336e-02</leafValues></_>
        <_>
          <internalNodes>
            0 -1 47 2.0030744373798370e-02</internalNodes>
          <leafValues>
            1.3855752348899841e-01 -7.1914148330688477e-01</leafValues></_></weakClassifiers></_>
    <!-- stage 4 -->
    <_>
      <maxWeakCount>15</maxWeakCount>
      <stageThreshold>-1.3549942970275879e+00</stageThreshold>
      <weakClassifiers>
        <_>
          <internalNodes>
            0 -1 49 1.7792589496821165e-03</internalNodes>
          <leafValues>
            -2.2142681479454041e-01 6.1605232954025269e-01</leafValues></_>
        <_>
          <internalNodes>
            0 -1 34 -4.0039573796093464e-03</internalNodes>
          <leafValues>
            6.1224269866943359e-01 -3.0878254771232605e-01</leafValues></_>
        <_>
          <internalNodes>
            0 -1 99 -1.0761342942714691e-02</internalNodes>
          <leafValues>
            4.5369851589202881e-01 -3.5957032442092896e-01</leafValues></_>
        <_>
          <internalNodes>
            0 -1 105 7.3172310367226601e-03</internalNodes>
          <leafValues>
            -3.3446541428565979e-01 4.7408857941627502e-01</leafValues></_>
        <_>
          <internalNodes>
            0 -1 7 -4.4866852462291718e-02</internalNodes>
          <leafValues>
            5.4227530956268311e-01 -2.7164486050605774e-01</leafValues></_>
        <_>
          <internalNodes>
            0 -1 57 -2.8386306017637253e-02</internalNodes>
          <leafValues>
            3.7945947051048279e-01 -3.0861586332321167e-01</leafValues></_>
        <_>
          <internalNodes>
            0 -1 76 -7.1879290044307709e-03</internalNodes>
          <leafValues>
            -7.3663336038589478e-01 1.6543592512607574e-01</leafValues></_>
        <_>
          <internalNodes>
            0 -1 124 -1.6592497704550624e-03</internalNodes>
          <leafValues>
            3.8435858488082886e-01 -2.9434064030647278e-01</leafValues></_>
        <_>
          <internalNodes>
            0 -1 97 4.0458785369992256e-03</internalNodes>
          <leafValues>
            -2.3528359830379486e-01 4.9795475602149963e-01</leafValues></_>
        <_>
          <internalNodes>
            0 -1 72 -2.3388874251395464e-03</internalNodes>
          <leafValues>
            5.2211397886276245e-01 -1.9163919985294342e-01</leafValues></_>
        <_>
          <internalNodes>
            0 -1 28 3.5923987161368132e-03</internalNodes>
          <leafValues>
            1.6460461914539337e-01 -7.0721042156219482e-01</leafValues></_>
        <_>
          <internalNodes>
            0 -1 58 9.1629307717084885e-03</internalNodes>
          <leafValues>
            -3.6478784680366516e-01 2.6940414309501648e-01</leafValues></_>
        <_>
          <internalNodes>
            0 -1 63 -1.3689167797565460e-02</internalNodes>
          <leafValues>
            -7.2950077056884766e-01 1.3653688132762909e-01</leafValues></_>
        <_>
          <internalNodes>
            0 -1 9 7.7580804936587811e-03</internalNodes>
          <leafValues>
            -2.3502837121486664e-01 4.0787634253501892e-01</leafValues></_>
        <_>
          <internalNodes>
            0 -1 123 1.7080347985029221e-02</internalNodes>
          <leafValues>
            -1.4344710111618042e-01 7.1775591373443604e-01</leafValues></_></weakClassifiers></_>
    <!-- stage 5 -->
    <_>
      <maxWeakCount>15</maxWeakCount>
      <stageThreshold>-1.1091316938400269e+00</stageThreshold>
      <weakClassifiers>
        <_>
          <internalNodes>
            0 -1 40 2.0036557689309120e-03</internalNodes>
          <leafValues>
            4.9596732854843140e-01 -5.0127744674682617e-01</leafValues></_>
        <_>
          <internalNodes>
            0 -1 11 5.4643684998154640e-03</internalNodes>
          <leafValues>
            -3.8637819886207581e-01 4.1025599837303162e-01</leafValues></_>
        <_>
          <internalNodes>
            0 -1 6 -4.4532831758260727e-02</internalNodes>
          <leafValues>
            4.5949313044548035e-01 -3.0176201462745667e-01</leafValues></_>
        <_>
          <internalNodes>
            0 -1 90 7.8236591070890427e-03</internalNodes>
          <leafValues>
            -3.8096836209297180e-01 3.8790103793144226e-01</leafValues></_>
        <_>
          <internalNodes>
            0 -1 69 -1.0720284655690193e-02</internalNodes>
          <leafValues>
            3.1372231245040894e-01 -4.0065407752990723e-01</leafValues></_>
        <_>
          <internalNodes>
            0 -1 73 2.5275256484746933e-03</internalNodes>
          <leafValues>
            -2.5451120734214783e-01 4.8604148626327515e-01</leafValues></_>
        <_>
          <internalNodes>
            0 -1 27 1.1490579694509506e-02</internalNodes>
          <leafValues>
            1.3435910642147064e-01 -7.9133075475692749e-01</leafValues></_>
        <_>
          <internalNodes>
            0 -1 120 -1.1665334459394217e-03</internalNodes>
          <leafValues>
            2.8276243805885315e-01 -3.5840719938278198e-01</leafValues></_>
        <_>
          <internalNodes>
            0 -1 26 3.3515384420752525e-03</internalNodes>
          <leafValues>
            1.3760273158550262e-01 -8.0817937850952148e-01</leafValues></_>
        <_>
          <internalNodes>
            0 -1 89 1.1501824483275414e-02</internalNodes>
          <leafValues>
            8.3500638604164124e-02 -8.7990671396255493e-01</leafValues></_>
        <_>
          <internalNodes>
            0 -1 46 -4.8966918140649796e-02</internalNodes>
          <leafValues>
            -8.3225774765014648e-01 1.1441833525896072e-01</leafValues></_>
        <_>
          <internalNodes>
            0 -1 59 1.2537941336631775e-02</internalNodes>
          <leafValues>
            -3.0375391244888306e-01 3.3170348405838013e-01</leafValues></_>
        <_>
          <internalNodes>
            0 -1 66 1.0407447116449475e-03</internalNodes>
          <leafValues>
            -2.1796400845050812e-01 3.8776734471321106e-01</leafValues></_>
        <_>
          <internalNodes>
            0 -1 54 4.9069607630372047e-03</internalNodes>
          <leafValues>
            1.5082079172134399e-01 -6.6178578138351440e-01</leafValues></_>
        <_>
          <internalNodes>
            0 -1 108 -5.7534715160727501e-03</internalNodes>
          <leafValues>
            -7.1454328298568726e-01 1.0527869313955307e-01</leafValues></_></weakClassifiers></_>
    <!-- stage 6 -->
    <_>
      <maxWeakCount>18</maxWeakCount>
      <stageThreshold>-1.2848755121231079e+00</stageThreshold>
      <weakClassifiers>
        <_>
          <internalNodes>
            0 -1 64 -1.8901173025369644e-03</internalNodes>
          <leafValues>
            5.9506112337112427e-01 -1.7794732749462128e-01</leafValues></_>
        <_>
          <internalNodes>
            0 -1 106 -2.3871934972703457e-03</internalNodes>
          <leafValues>
            -5.6312173604965210e-01 2.7365815639495850e-01</leafValues></_>
        <_>
          <internalNodes>
            0 -1 5 1.1701785773038864e-01</internalNodes>
          <leafValues>
            -2.7873718738555908e-01 4.6592882275581360e-01</leafValues></_>
        <_>
          <internalNodes>
            0 -1 10 -1.1126017197966576e-02</internalNodes>
          <leafValues>
            3.7527403235435486e-01 -3.1116154789924622e-01</leafValues></_>
        <_>
          <internalNodes>
            0 -1 91 2.2453423589468002e-03</internalNodes>
          <leafValues>
            -5.3378623723983765e-01 2.0523926615715027e-01</leafValues></_>
        <_>
          <internalNodes>
            0 -1 36 4.5163026079535484e-03</internalNodes>
          <leafValues>
            1.5403455495834351e-01 -7.7859067916870117e-01</leafValues></_>
        <_>
          <internalNodes>
            0 -1 25 4.3301209807395935e-03</internalNodes>
          <leafValues>
            -2.2709293663501740e-01 4.8775297403335571e-01</leafValues></_>
        <_>
          <internalNodes>
            0 -1 114 -3.3408398739993572e-03</internalNodes>
          <leafValues>
            3.5810986161231995e-01 -3.0469605326652527e-01</leafValues></_>
        <_>
          <internalNodes>
            0 -1 110 -1.6136553138494492e-02</internalNodes>
          <leafValues>
            -7.4359154701232910e-01 1.3608737289905548e-01</leafValues></_>
        <_>
          <internalNodes>
            0 -1 65 -5.7406807318329811e-03</internalNodes>
          <leafValues>
            -7.6247107982635498e-01 8.5986018180847168e-02</leafValues></_>
        <_>
          <internalNodes>
            0 -1 52 -2.2679499816149473e-03</internalNodes>
          <leafValues>
            2.2263917326927185e-01 -3.7005141377449036e-01</leafValues></_>
        <_>
          <internalNodes>
            0 -1 43 7.8473556786775589e-03</internalNodes>
          <leafValues>
            1.1696965992450714e-01 -6.1800694465637207e-01</leafValues></_>
        <_>
          <internalNodes>
            0 -1 54 -1.1650428175926208e-02</internalNodes>
          <leafValues>
            -7.2862017154693604e-01 8.6812674999237061e-02</leafValues></_>
        <_>
          <internalNodes>
            0 -1 60 1.7612498253583908e-02</internalNodes>
          <leafValues>
            -1.0216505080461502e-01 7.7345585823059082e-01</leafValues></_>
        <_>
          <internalNodes>
            0 -1 35 2.6231885422021151e-03</internalNodes>
          <leafValues>
            -2.1845531463623047e-01 4.2872214317321777e-01</leafValues></_>
        <_>
          <internalNodes>
            0 -1 92 1.9219464156776667e-03</internalNodes>
          <leafValues>
            -2.9572990536689758e-01 2.6999530196189880e-01</leafValues></_>
        <_>
          <internalNodes>
            0 -1 16 4.3843504972755909e-03</internalNodes>
          <leafValues>
            1.2916934490203857e-01 -6.3837838172912598e-01</leafValues></_>
        <_>
          <internalNodes>
            0 -1 111 -4.1082166135311127e-03</internalNodes>
          <leafValues>
            -6.3215076923370361e-01 1.1746063083410263e-01</leafValues></_></weakClassifiers></_>
    <!-- stage 7 -->
    <_>
      <maxWeakCount>17</maxWeakCount>
      <stageThreshold>-1.1563431024551392e+00</stageThreshold>
      <weakClassifiers>
        <_>
          <internalNodes>
            0 -1 87 6.6060916287824512e-04</internalNodes>
          <leafValues>
            -1.3823884725570679e-01 5.8217698335647583e-01</leafValues></_>
        <_>
          <internalNodes>
            0 -1 119 1.6845103353261948e-02</internalNodes>
          <leafValues>
            -1.4326556026935577e-01 6.5271985530853271e-01</leafValues></_>
        <_>
          <internalNodes>
            0 -1 67 -2.9432349838316441e-03</internalNodes>
          <leafValues>
            4.6004480123519897e-01 -2.6221925020217896e-01</leafValues></_>
        <_>
          <internalNodes>
            0 -1 0 8.2767061889171600e-02</internalNodes>
          <leafValues>
            -2.6440098881721497e-01 4.2377245426177979e-01</leafValues></_>
        <_>
          <internalNodes>
            0 -1 18 1.1433113366365433e-02</internalNodes>
          <leafValues>
            -1.7821575701236725e-01 5.4036390781402588e-01</leafValues></_>
        <_>
          <internalNodes>
            0 -1 31 1.4355571940541267e-02</internalNodes>
          <leafValues>
            -2.1623800694942474e-01 4.9368509650230408e-01</leafValues></_>
        <_>
          <internalNodes>
            0 -1 24 5.6294095702469349e-03</internalNodes>
          <leafValues>
            1.5814642608165741e-01 -7.5191152095794678e-01</leafValues></_>
        <_>
          <internalNodes>
            0 -1 84 1.0326670017093420e-03</internalNodes>
          <leafValues>
            -2.9902368783950806e-01 3.5720723867416382e-01</leafValues></_>
        <_>
          <internalNodes>
            0 -1 55 8.6750797927379608e-03</internalNodes>
          <leafValues>
            -2.1255992352962494e-01 4.7822102904319763e-01</leafValues></_>
        <_>
          <internalNodes>
            0 -1 107 2.3619907442480326e-03</internalNodes>
          <leafValues>
            1.1965143680572510e-01 -8.1951022148132324e-01</leafValues></_>
        <_>
          <internalNodes>
            0 -1 118 2.3024868220090866e-02</internalNodes>
          <leafValues>
            -2.3362508416175842e-01 4.3601739406585693e-01</leafValues></_>
        <_>
          <internalNodes>
            0 -1 62 4.8091076314449310e-03</internalNodes>
          <leafValues>
            1.3407655060291290e-01 -7.9684251546859741e-01</leafValues></_>
        <_>
          <internalNodes>
            0 -1 38 -4.2862355709075928e-02</internalNodes>
          <leafValues>
            -9.2376226186752319e-01 5.9713106602430344e-02</leafValues></_>
        <_>
          <internalNodes>
            0 -1 56 5.9719420969486237e-03</internalNodes>
          <leafValues>
            -1.9998972117900848e-01 4.7351315617561340e-01</leafValues></_>
        <_>
          <internalNodes>
            0 -1 95 -3.3945059403777122e-03</internalNodes>
          <leafValues>
            3.7422659993171692e-01 -1.8691031634807587e-01</leafValues></_>
        <_>
          <internalNodes>
            0 -1 102 -3.2939573284238577e-03</internalNodes>
          <leafValues>
            -6.8455755710601807e-01 1.1448135972023010e-01</leafValues></_>
        <_>
          <internalNodes>
            0 -1 82 -3.9524612948298454e-03</internalNodes>
          <leafValues>
            6.6519230604171753e-01 -1.2630444765090942e-01</leafValues></_></weakClassifiers></_>
    <!-- stage 8 -->
    <_>
      <maxWeakCount>19</maxWeakCount>
      <stageThreshold>-1.0446256399154663e+00</stageThreshold>
      <weakClassifiers>
        <_>
          <internalNodes>
            0 -1 20 -4.2328271083533764e-03</internalNodes>
          <leafValues>
            6.8643182516098022e-01 1.0213852860033512e-02</leafValues></_>
        <_>
          <internalNodes>
            0 -1 80 4.2840436100959778e-02</internalNodes>
          <leafValues>
            -2.4662439525127411e-01 4.5776766538619995e-01</leafValues></_>
        <_>
          <internalNodes>
            0 -1 115 -1.7313245916739106e-03</internalNodes>
          <leafValues>
            4.5280170440673828e-01 -2.9288858175277710e-01</leafValues></_>
        <_>
          <internalNodes>
            0 -1 88 -1.2725531123578548e-03</internalNodes>
          <leafValues>
            3.5561272501945496e-01 -2.9979604482650757e-01</leafValues></_>
        <_>
          <internalNodes>
            0 -1 32 -3.8019452244043350e-02</internalNodes>
          <leafValues>
            3.6821183562278748e-01 -2.8198382258415222e-01</leafValues></_>
        <_>
          <internalNodes>
            0 -1 109 -3.2658828422427177e-03</internalNodes>
          <leafValues>
            4.9879115819931030e-01 -2.1805198490619659e-01</leafValues></_>
        <_>
          <internalNodes>
            0 -1 122 -8.7067886488512158e-04</internalNodes>
          <leafValues>
            3.3080118894577026e-01 -2.3489202558994293e-01</leafValues></_>
        <_>
          <internalNodes>
            0 -1 48 -1.8519056029617786e-03</internalNodes>
          <leafValues>
            3.4086060523986816e-01 -2.2810354828834534e-01</leafValues></_>
        <_>
          <internalNodes>
            0 -1 19 4.2366772890090942e-02</internalNodes>
          <leafValues>
            -1.8123100697994232e-01 4.2239186167716980e-01</leafValues></_>
        <_>
          <internalNodes>
            0 -1 8 -3.9034914225339890e-03</internalNodes>
          <leafValues>
            3.2489788532257080e-01 -2.4427868425846100e-01</leafValues></_>
        <_>
          <internalNodes>
            0 -1 61 9.0802814811468124e-03</internalNodes>
          <leafValues>
            9.9727421998977661e-02 -8.2728874683380127e-01</leafValues></_>
        <_>
          <internalNodes>
            0 -1 77 1.1131414212286472e-03</internalNodes>
          <leafValues>
            -5.6808650493621826e-01 1.3736689090728760e-01</leafValues></_>
        <_>
          <internalNodes>
            0 -1 41 -8.7373247370123863e-03</internalNodes>
          <leafValues>
            -6.4921474456787109e-01 1.1443272978067398e-01</leafValues></_>
        <_>
          <internalNodes>
            0 -1 65 1.1761040426790714e-02</internalNodes>
          <leafValues>
            8.7819181382656097e-02 -7.2577673196792603e-01</leafValues></_>
        <_>
          <internalNodes>
            0 -1 71 -4.4321333989500999e-03</internalNodes>
          <leafValues>
            3.8957640528678894e-01 -1.9178101420402527e-01</leafValues></_>
        <_>
          <internalNodes>
            0 -1 2 2.5767169892787933e-02</internalNodes>
          <leafValues>
            -1.4309501647949219e-01 4.6383774280548096e-01</leafValues></_>
        <_>
          <internalNodes>
            0 -1 51 -7.7432300895452499e-03</internalNodes>
          <leafValues>
            2.2879372537136078e-01 -3.2736372947692871e-01</leafValues></_>
        <_>
          <internalNodes>
            0 -1 100 5.6009651161730289e-03</internalNodes>
          <leafValues>
            -1.5689924359321594e-01 4.9593091011047363e-01</leafValues></_>
        <_>
          <internalNodes>
            0 -1 37 6.7635918967425823e-03</internalNodes>
          <leafValues>
            1.2216989696025848e-01 -6.8586224317550659e-01</leafValues></_></weakClassifiers></_>
    <!-- stage 9 -->
    <_>
      <maxWeakCount>21</maxWeakCount>
      <stageThreshold>-1.0629745721817017e+00</stageThreshold>
      <weakClassifiers>
        <_>
          <internalNodes>
            0 -1 42 -8.0790482461452484e-03</internalNodes>
          <leafValues>
            -7.0909088850021362e-01 4.3853211402893066e-01</leafValues></_>
        <_>
          <internalNodes>
            0 -1 45 8.6609069257974625e-03</internalNodes>
          <leafValues>
            -2.5673276185989380e-01 5.1277655363082886e-01</leafValues></_>
        <_>
          <internalNodes>
            0 -1 29 -3.2892713788896799e-03</internalNodes>
          <leafValues>
            4.3967249989509583e-01 -2.4274533987045288e-01</leafValues></_>
        <_>
          <internalNodes>
            0 -1 117 -1.4625816605985165e-02</internalNodes>
          <leafValues>
            3.4529167413711548e-01 -2.9046219587326050e-01</leafValues></_>
        <_>
          <internalNodes>
            0 -1 1 3.6090835928916931e-02</internalNodes>
          <leafValues>
            -2.6205840706825256e-01 3.5116487741470337e-01</leafValues></_>
        <_>
          <internalNodes>
            0 -1 50 -1.4557933434844017e-02</internalNodes>
          <leafValues>
            -8.0934977531433105e-01 8.6278066039085388e-02</leafValues></_>
        <_>
          <internalNodes>
            0 -1 86 1.3020927086472511e-02</internalNodes>
          <leafValues>
            -4.0692517161369324e-01 2.0656730234622955e-01</leafValues></_>
        <_>
          <internalNodes>
            0 -1 81 -2.2903941571712494e-03</internalNodes>
          <leafValues>
            3.3079978823661804e-01 -2.6065310835838318e-01</leafValues></_>
        <_>
          <internalNodes>
            0 -1 89 2.9174224473536015e-03</internalNodes>
          <leafValues>
            1.2564595043659210e-01 -6.0983210802078247e-01</leafValues></_>
        <_>
          <internalNodes>
            0 -1 23 6.1837849207222462e-03</internalNodes>
          <leafValues>
            1.1737619340419769e-01 -5.7374292612075806e-01</leafValues></_>
        <_>
          <internalNodes>
            0 -1 104 -3.6620358005166054e-03</internalNodes>
          <leafValues>
            4.1033071279525757e-01 -1.8613268435001373e-01</leafValues></_>
        <_>
          <internalNodes>
            0 -1 30 1.2836500536650419e-03</internalNodes>
          <leafValues>
            -2.4007765948772430e-01 3.6427104473114014e-01</leafValues></_>
        <_>
          <internalNodes>
            0 -1 98 -7.1937167085707188e-03</internalNodes>
          <leafValues>
            3.8620591163635254e-01 -2.0358148217201233e-01</leafValues></_>
        <_>
          <internalNodes>
            0 -1 17 -2.5529270991683006e-02</internalNodes>
          <leafValues>
            -6.7170178890228271e-01 1.2839263677597046e-01</leafValues></_>
        <_>
          <internalNodes>
            0 -1 79 5.2041746675968170e-03</internalNodes>
          <leafValues>
            7.0076279342174530e-02 -8.1275516748428345e-01</leafValues></_>
        <_>
          <internalNodes>
            0 -1 41 4.4003771618008614e-03</internalNodes>
          <leafValues>
            1.0358855128288269e-01 -6.0627526044845581e-01</leafValues></_>
        <_>
          <internalNodes>
            0 -1 121 1.9245766103267670e-02</internalNodes>
          <leafValues>
            -1.9608116149902344e-01 3.5237559676170349e-01</leafValues></_>
        <_>
          <internalNodes>
            0 -1 93 -3.4759477712213993e-03</internalNodes>
          <leafValues>
            2.5688701868057251e-01 -3.1908330321311951e-01</leafValues></_>
        <_>
          <internalNodes>
            0 -1 94 3.0894365161657333e-02</internalNodes>
          <leafValues>
            -1.1132054030895233e-01 6.5400028228759766e-01</leafValues></_>
        <_>
          <internalNodes>
            0 -1 101 1.4350438490509987e-02</internalNodes>
          <leafValues>
            1.2741839885711670e-01 -5.8478051424026489e-01</leafValues></_>
        <_>
          <internalNodes>
            0 -1 96 -3.5971207544207573e-03</internalNodes>
          <leafValues>
            3.0950489640235901e-01 -2.4839434027671814e-01</leafValues></_></weakClassifiers></_></stages>
  <features>
    <_>
      <rects>
        <_>
          0 5 14 4 -1.</_>
        <_>
          7 5 7 4 2.</_></rects>
      <tilted>0</tilted></_>
    <_>
      <rects>
        <_>
          0 8 10 4 -1.</_>
        <_>
          5 8 5 4 2.</_></rects>
      <tilted>0</tilted></_>
    <_>
      <rects>
        <_>
          0 15 10 2 -1.</_>
        <_>
          5 15 5 2 2.</_></rects>
      <tilted>0</tilted></_>
    <_>
      <rects>
        <_>
          2 4 18 3 -1.</_>
        <_>
          8 4 6 3 3.</_></rects>
      <tilted>0</tilted></_>
    <_>
      <rects>
        <_>
          2 4 18 5 -1.</_>
        <_>
          8 4 6 5 3.</_></rects>
      <tilted>0</tilted></_>
    <_>
      <rects>
        <_>
          2 5 18 4 -1.</_>
        <_>
          8 5 6 4 3.</_></rects>
      <tilted>0</tilted></_>
    <_>
      <rects>
        <_>
          2 16 13 4 -1.</_>
        <_>
          2 18 13 2 2.</_></rects>
      <tilted>0</tilted></_>
    <_>
      <rects>
        <_>
          3 5 8 10 -1.</_>
        <_>
          3 5 4 5 2.</_>
        <_>
          7 10 4 5 2.</_></rects>
      <tilted>0</tilted></_>
    <_>
      <rects>
        <_>
          3 11 4 3 -1.</_>
        <_>
          5 11 2 3 2.</_></rects>
      <tilted>0</tilted></_>
    <_>
      <rects>
        <_>
          3 11 4 6 -1.</_>
        <_>
          3 11 2 3 2.</_>
        <_>
          5 14 2 3 2.</_></rects>
      <tilted>0</tilted></_>
    <_>
      <rects>
        <_>
          3 17 9 2 -1.</_>
        <_>
          3 18 9 1 2.</_></rects>
      <tilted>0</tilted></_>
    <_>
      <rects>
        <_>
          4 8 4 2 -1.</_>
        <_>
          6 8 2 2 2.</_></rects>
      <tilted>0</tilted></_>
    <_>
      <rects>
        <_>
          4 8 6 2 -1.</_>
        <_>
          6 8 2 2 3.</_></rects>
      <tilted>0</tilted></_>
    <_>
      <rects>
        <_>
          4 17 10 2 -1.</_>
        <_>
          4 18 10 1 2.</_></rects>
      <tilted>0</tilted></_>
    <_>
      <rects>
        <_>
          5 7 4 2 -1.</_>
        <_>
          7 7 2 2 2.</_></rects>
      <tilted>0</tilted></_>
    <_>
      <rects>
        <_>
          5 7 12 6 -1.</_>
        <_>
          5 9 12 2 3.</_></rects>
      <tilted>0</tilted></_>
    <_>
      <rects>
        <_>
          5 10 11 2 -1.</_>
        <_>
          5 11 11 1 2.</_></rects>
      <tilted>0</tilted></_>
    <_>
      <rects>
        <_>
          5 14 10 3 -1.</_>
        <_>
          10 14 5 3 2.</_></rects>
      <tilted>0</tilted></_>
    <_>
      <rects>
        <_>
          5 16 10 2 -1.</_>
        <_>
          5 16 5 1 2.</_>
        <_>
          10 17 5 1 2.</_></rects>
      <tilted>0</tilted></_>
    <_>
      <rects>
        <_>
          6 0 3 16 -1.</_>
        <_>
          6 8 3 8 2.</_></rects>
      <tilted>0</tilted></_>
    <_>
      <rects>
        <_>
          6 7 2 4 -1.</_>
        <_>
          6 7 1 2 2.</_>
        <_>
          7 9 1 2 2.</_></rects>
      <tilted>0</tilted></_>
    <_>
      <rects>
        <_>
          6 7 9 9 -1.</_>
        <_>
          9 7 3 9 3.</_></rects>
      <tilted>0</tilted></_>
    <_>
      <rects>
        <_>
          6 8 3 1 -1.</_>
        <_>
          7 8 1 1 3.</_></rects>
      <tilted>0</tilted></_>
    <_>
      <rects>
        <_>
          6 8 4 8 -1.</_>
        <_>
          8 8 2 8 2.</_></rects>
      <tilted>0</tilted></_>
    <_>
      <rects>
        <_>
          6 8 9 2 -1.</_>
        <_>
          9 8 3 2 3.</_></rects>
      <tilted>0</tilted></_>
    <_>
      <rects>
        <_>
          6 9 2 4 -1.</_>
        <_>
          6 9 1 2 2.</_>
        <_>
          7 11 1 2 2.</_></rects>
      <tilted>0</tilted></_>
    <_>
      <rects>
        <_>
          6 9 4 2 -1.</_>
        <_>
          6 10 4 1 2.</_></rects>
      <tilted>0</tilted></_>
    <_>
      <rects>
        <_>
          6 9 8 2 -1.</_>
        <_>
          10 9 4 2 2.</_></rects>
      <tilted>0</tilted></_>
    <_>
      <rects>
        <_>
          6 9 10 2 -1.</_>
        <_>
          6 10 10 1 2.</_></rects>
      <tilted>0</tilted></_>
    <_>
      <rects>
        <_>
          6 10 3 1 -1.</_>
        <_>
          7 10 1 1 3.</_></rects>
      <tilted>0</tilted></_>
    <_>
      <rects>
        <_>
          6 11 2 1 -1.</_>
        <_>
          7 11 1 1 2.</_></rects>
      <tilted>0</tilted></_>
    <_>
      <rects>
        <_>
          6 16 4 3 -1.</_>
        <_>
          6 17 4 1 3.</_></rects>
      <tilted>0</tilted></_>
    <_>
      <rects>
        <_>
          6 16 10 4 -1.</_>
        <_>
          6 18 10 2 2.</_></rects>
      <tilted>0</tilted></_>
    <_>
      <rects>
        <_>
          7 0 8 10 -1.</_>
        <_>
          7 5 8 5 2.</_></rects>
      <tilted>0</tilted></_>
    <_>
      <rects>
        <_>
          7 6 2 4 -1.</_>
        <_>
          7 6 1 2 2.</_>
        <_>
          8 8 1 2 2.</_></rects>
      <tilted>0</tilted></_>
    <_>
      <rects>
        <_>
          7 7 3 1 -1.</_>
        <_>
          8 7 1 1 3.</_></rects>
      <tilted>0</tilted></_>
    <_>
      <rects>
        <_>
          7 7 2 10 -1.</_>
        <_>
          7 12 2 5 2.</_></rects>
      <tilted>0</tilted></_>
    <_>
      <rects>
        <_>
          7 7 7 4 -1.</_>
        <_>
          7 9 7 2 2.</_></rects>
      <tilted>0</tilted></_>
    <_>
      <rects>
        <_>
          7 7 7 6 -1.</_>
        <_>
          7 10 7 3 2.</_></rects>
      <tilted>0</tilted></_>
    <_>
      <rects>
        <_>
          7 7 7 10 -1.</_>
        <_>
          7 12 7 5 2.</_></rects>
      <tilted>0</tilted></_>
    <_>
      <rects>
        <_>
          7 8 3 3 -1.</_>
        <_>
          7 9 3 1 3.</_></rects>
      <tilted>0</tilted></_>
    <_>
      <rects>
        <_>
          7 8 6 2 -1.</_>
        <_>
          10 8 3 2 2.</_></rects>
      <tilted>0</tilted></_>
    <_>
      <rects>
        <_>
          7 8 3 4 -1.</_>
        <_>
          7 10 3 2 2.</_></rects>
      <tilted>0</tilted></_>
    <_>
      <rects>
        <_>
          7 8 8 1 -1.</_>
        <_>
          11 8 4 1 2.</_></rects>
      <tilted>0</tilted></_>
    <_>
      <rects>
        <_>
          7 8 4 10 -1.</_>
        <_>
          7 13 4 5 2.</_></rects>
      <tilted>0</tilted></_>
    <_>
      <rects>
        <_>
          7 8 10 4 -1.</_>
        <_>
          7 8 5 2 2.</_>
        <_>
          12 10 5 2 2.</_></rects>
      <tilted>0</tilted></_>
    <_>
      <rects>
        <_>
          7 8 7 10 -1.</_>
        <_>
          7 13 7 5 2.</_></rects>
      <tilted>0</tilted></_>
    <_>
      <rects>
        <_>
          7 8 8 10 -1.</_>
        <_>
          7 13 8 5 2.</_></rects>
      <tilted>0</tilted></_>
    <_>
      <rects>
        <_>
          7 9 2 1 -1.</_>
        <_>
          8 9 1 1 2.</_></rects>
      <tilted>0</tilted></_>
    <_>
      <rects>
        <_>
          7 9 3 6 -1.</_>
        <_>
          7 11 3 2 3.</_></rects>
      <tilted>0</tilted></_>
    <_>
      <rects>
        <_>
          7 10 2 8 -1.</_>
        <_>
          7 14 2 4 2.</_></rects>
      <tilted>0</tilted></_>
    <_>
      <rects>
        <_>
          7 12 3 6 -1.</_>
        <_>
          7 14 3 2 3.</_></rects>
      <tilted>0</tilted></_>
    <_>
      <rects>
        <_>
          7 13 6 3 -1.</_>
        <_>
          7 14 6 1 3.</_></rects>
      <tilted>0</tilted></_>
    <_>
      <rects>
        <_>
          7 14 6 6 -1.</_>
        <_>
          7 16 6 2 3.</_></rects>
      <tilted>0</tilted></_>
    <_>
      <rects>
        <_>
          7 15 6 2 -1.</_>
        <_>
          9 15 2 2 3.</_></rects>
      <tilted>0</tilted></_>
    <_>
      <rects>
        <_>
          7 15 3 3 -1.</_>
        <_>
          7 16 3 1 3.</_></rects>
      <tilted>0</tilted></_>
    <_>
      <rects>
        <_>
          7 15 6 2 -1.</_>
        <_>
          7 15 3 1 2.</_>
        <_>
          10 16 3 1 2.</_></rects>
      <tilted>0</tilted></_>
    <_>
      <rects>
        <_>
          7 16 8 4 -1.</_>
        <_>
          7 18 8 2 2.</_></rects>
      <tilted>0</tilted></_>
    <_>
      <rects>
        <_>
          8 2 5 6 -1.</_>
        <_>
          8 4 5 2 3.</_></rects>
      <tilted>0</tilted></_>
    <_>
      <rects>
        <_>
          8 2 6 4 -1.</_>
        <_>
          8 4 6 2 2.</_></rects>
      <tilted>0</tilted></_>
    <_>
      <rects>
        <_>
          8 4 4 4 -1.</_>
        <_>
          8 4 2 2 2.</_>
        <_>
          10 6 2 2 2.</_></rects>
      <tilted>0</tilted></_>
    <_>
      <rects>
        <_>
          8 7 2 10 -1.</_>
        <_>
          8 12 2 5 2.</_></rects>
      <tilted>0</tilted></_>
    <_>
      <rects>
        <_>
          8 7 5 2 -1.</_>
        <_>
          8 8 5 1 2.</_></rects>
      <tilted>0</tilted></_>
    <_>
      <rects>
        <_>
          8 7 5 4 -1.</_>
        <_>
          8 9 5 2 2.</_></rects>
      <tilted>0</tilted></_>
    <_>
      <rects>
        <_>
          8 8 4 4 -1.</_>
        <_>
          8 8 2 2 2.</_>
        <_>
          10 10 2 2 2.</_></rects>
      <tilted>0</tilted></_>
    <_>
      <rects>
        <_>
          8 8 6 2 -1.</_>
        <_>
          11 8 3 2 2.</_></rects>
      <tilted>0</tilted></_>
    <_>
      <rects>
        <_>
          8 9 2 1 -1.</_>
        <_>
          9 9 1 1 2.</_></rects>
      <tilted>0</tilted></_>
    <_>
      <rects>
        <_>
          8 9 2 4 -1.</_>
        <_>
          8 9 1 2 2.</_>
        <_>
          9 11 1 2 2.</_></rects>
      <tilted>0</tilted></_>
    <_>
      <rects>
        <_>
          8 9 4 2 -1.</_>
        <_>
          8 9 2 1 2.</_>
        <_>
          10 10 2 1 2.</_></rects>
      <tilted>0</tilted></_>
    <_>
      <rects>
        <_>
          8 12 4 6 -1.</_>
        <_>
          8 14 4 2 3.</_></rects>
      <tilted>0</tilted></_>
    <_>
      <rects>
        <_>
          8 14 5 4 -1.</_>
        <_>
          8 16 5 2 2.</_></rects>
      <tilted>0</tilted></_>
    <_>
      <rects>
        <_>
          9 4 1 4 -1.</_>
        <_>
          9 6 1 2 2.</_></rects>
      <tilted>0</tilted></_>
    <_>
      <rects>
        <_>
          9 6 2 2 -1.</_>
        <_>
          9 6 1 1 2.</_>
        <_>
          10 7 1 1 2.</_></rects>
      <tilted>0</tilted></_>
    <_>
      <rects>
        <_>
          9 7 2 2 -1.</_>
        <_>
          9 7 1 1 2.</_>
        <_>
          10 8 1 1 2.</_></rects>
      <tilted>0</tilted></_>
    <_>
      <rects>
        <_>
          9 7 9 2 -1.</_>
        <_>
          12 7 3 2 3.</_></rects>
      <tilted>0</tilted></_>
    <_>
      <rects>
        <_>
          9 7 6 5 -1.</_>
        <_>
          12 7 3 5 2.</_></rects>
      <tilted>0</tilted></_>
    <_>
      <rects>
        <_>
          9 7 6 10 -1.</_>
        <_>
          12 7 3 10 2.</_></rects>
      <tilted>0</tilted></_>
    <_>
      <rects>
        <_>
          9 8 6 2 -1.</_>
        <_>
          12 8 3 2 2.</_></rects>
      <tilted>0</tilted></_>
    <_>
      <rects>
        <_>
          9 9 3 1 -1.</_>
        <_>
          10 9 1 1 3.</_></rects>
      <tilted>0</tilted></_>
    <_>
      <rects>
        <_>
          9 15 3 2 -1.</_>
        <_>
          10 15 1 2 3.</_></rects>
      <tilted>0</tilted></_>
    <_>
      <rects>
        <_>
          10 5 8 10 -1.</_>
        <_>
          10 5 4 5 2.</_>
        <_>
          14 10 4 5 2.</_></rects>
      <tilted>0</tilted></_>
    <_>
      <rects>
        <_>
          10 6 1 3 -1.</_>
        <_>
          10 7 1 1 3.</_></rects>
      <tilted>0</tilted></_>
    <_>
      <rects>
        <_>
          10 6 2 2 -1.</_>
        <_>
          10 6 1 1 2.</_>
        <_>
          11 7 1 1 2.</_></rects>
      <tilted>0</tilted></_>
    <_>
      <rects>
        <_>
          10 6 2 3 -1.</_>
        <_>
          10 7 2 1 3.</_></rects>
      <tilted>0</tilted></_>
    <_>
      <rects>
        <_>
          10 7 1 2 -1.</_>
        <_>
          10 8 1 1 2.</_></rects>
      <tilted>0</tilted></_>
    <_>
      <rects>
        <_>
          10 7 4 2 -1.</_>
        <_>
          10 7 2 1 2.</_>
        <_>
          12 8 2 1 2.</_></rects>
      <tilted>0</tilted></_>
    <_>
      <rects>
        <_>
          10 8 9 2 -1.</_>
        <_>
          13 8 3 2 3.</_></rects>
      <tilted>0</tilted></_>
    <_>
      <rects>
        <_>
          10 9 4 2 -1.</_>
        <_>
          10 9 2 1 2.</_>
        <_>
          12 10 2 1 2.</_></rects>
      <tilted>0</tilted></_>
    <_>
      <rects>
        <_>
          11 7 2 2 -1.</_>
        <_>
          11 7 1 1 2.</_>
        <_>
          12 8 1 1 2.</_></rects>
      <tilted>0</tilted></_>
    <_>
      <rects>
        <_>
          11 7 3 10 -1.</_>
        <_>
          11 12 3 5 2.</_></rects>
      <tilted>0</tilted></_>
    <_>
      <rects>
        <_>
          11 8 6 1 -1.</_>
        <_>
          13 8 2 1 3.</_></rects>
      <tilted>0</tilted></_>
    <_>
      <rects>
        <_>
          11 8 4 2 -1.</_>
        <_>
          13 8 2 2 2.</_></rects>
      <tilted>0</tilted></_>
    <_>
      <rects>
        <_>
          11 10 3 6 -1.</_>
        <_>
          11 12 3 2 3.</_></rects>
      <tilted>0</tilted></_>
    <_>
      <rects>
        <_>
          11 12 3 4 -1.</_>
        <_>
          11 14 3 2 2.</_></rects>
      <tilted>0</tilted></_>
    <_>
      <rects>
        <_>
          11 13 3 6 -1.</_>
        <_>
          11 15 3 2 3.</_></rects>
      <tilted>0</tilted></_>
    <_>
      <rects>
        <_>
          11 15 2 3 -1.</_>
        <_>
          11 16 2 1 3.</_></rects>
      <tilted>0</tilted></_>
    <_>
      <rects>
        <_>
          11 15 3 3 -1.</_>
        <_>
          11 16 3 1 3.</_></rects>
      <tilted>0</tilted></_>
    <_>
      <rects>
        <_>
          11 16 2 2 -1.</_>
        <_>
          11 17 2 1 2.</_></rects>
      <tilted>0</tilted></_>
    <_>
      <rects>
        <_>
          11 18 5 2 -1.</_>
        <_>
          11 19 5 1 2.</_></rects>
      <tilted>0</tilted></_>
    <_>
      <rects>
        <_>
          12 5 4 4 -1.</_>
        <_>
          14 5 2 4 2.</_></rects>
      <tilted>0</tilted></_>
    <_>
      <rects>
        <_>
          12 6 2 2 -1.</_>
        <_>
          13 6 1 2 2.</_></rects>
      <tilted>0</tilted></_>
    <_>
      <rects>
        <_>
          12 6 2 12 -1.</_>
        <_>
          12 10 2 4 3.</_></rects>
      <tilted>0</tilted></_>
    <_>
      <rects>
        <_>
          12 7 3 3 -1.</_>
        <_>
          12 8 3 1 3.</_></rects>
      <tilted>0</tilted></_>
    <_>
      <rects>
        <_>
          12 8 2 1 -1.</_>
        <_>
          13 8 1 1 2.</_></rects>
      <tilted>0</tilted></_>
    <_>
      <rects>
        <_>
          12 9 3 1 -1.</_>
        <_>
          13 9 1 1 3.</_></rects>
      <tilted>0</tilted></_>
    <_>
      <rects>
        <_>
          12 9 6 1 -1.</_>
        <_>
          14 9 2 1 3.</_></rects>
      <tilted>0</tilted></_>
    <_>
      <rects>
        <_>
          12 9 2 6 -1.</_>
        <_>
          12 11 2 2 3.</_></rects>
      <tilted>0</tilted></_>
    <_>
      <rects>
        <_>
          12 9 3 2 -1.</_>
        <_>
          12 10 3 1 2.</_></rects>
      <tilted>0</tilted></_>
    <_>
      <rects>
        <_>
          12 9 4 3 -1.</_>
        <_>
          12 10 4 1 3.</_></rects>
      <tilted>0</tilted></_>
    <_>
      <rects>
        <_>
          12 10 3 1 -1.</_>
        <_>
          13 10 1 1 3.</_></rects>
      <tilted>0</tilted></_>
    <_>
      <rects>
        <_>
          12 10 2 8 -1.</_>
        <_>
          12 14 2 4 2.</_></rects>
      <tilted>0</tilted></_>
    <_>
      <rects>
        <_>
          12 10 3 3 -1.</_>
        <_>
          12 11 3 1 3.</_></rects>
      <tilted>0</tilted></_>
    <_>
      <rects>
        <_>
          12 11 3 6 -1.</_>
        <_>
          13 11 1 6 3.</_></rects>
      <tilted>0</tilted></_>
    <_>
      <rects>
        <_>
          13 9 2 1 -1.</_>
        <_>
          14 9 1 1 2.</_></rects>
      <tilted>0</tilted></_>
    <_>
      <rects>
        <_>
          13 10 3 2 -1.</_>
        <_>
          14 10 1 2 3.</_></rects>
      <tilted>0</tilted></_>
    <_>
      <rects>
        <_>
          13 11 2 1 -1.</_>
        <_>
          14 11 1 1 2.</_></rects>
      <tilted>0</tilted></_>
    <_>
      <rects>
        <_>
          13 11 2 2 -1.</_>
        <_>
          14 11 1 2 2.</_></rects>
      <tilted>0</tilted></_>
    <_>
      <rects>
        <_>
          13 12 6 5 -1.</_>
        <_>
          15 12 2 5 3.</_></rects>
      <tilted>0</tilted></_>
    <_>
      <rects>
        <_>
          14 3 2 12 -1.</_>
        <_>
          14 9 2 6 2.</_></rects>
      <tilted>0</tilted></_>
    <_>
      <rects>
        <_>
          14 9 4 4 -1.</_>
        <_>
          14 9 2 2 2.</_>
        <_>
          16 11 2 2 2.</_></rects>
      <tilted>0</tilted></_>
    <_>
      <rects>
        <_>
          14 10 2 6 -1.</_>
        <_>
          14 10 1 3 2.</_>
        <_>
          15 13 1 3 2.</_></rects>
      <tilted>0</tilted></_>
    <_>
      <rects>
        <_>
          14 10 6 4 -1.</_>
        <_>
          16 10 2 4 3.</_></rects>
      <tilted>0</tilted></_>
    <_>
      <rects>
        <_>
          14 12 2 1 -1.</_>
        <_>
          15 12 1 1 2.</_></rects>
      <tilted>0</tilted></_>
    <_>
      <rects>
        <_>
          15 10 4 4 -1.</_>
        <_>
          15 10 2 2 2.</_>
        <_>
          17 12 2 2 2.</_></rects>
      <tilted>0</tilted></_>
    <_>
      <rects>
        <_>
          15 12 2 4 -1.</_>
        <_>
          15 12 1 2 2.</_>
        <_>
          16 14 1 2 2.</_></rects>
      <tilted>0</tilted></_></features></cascade>
</opencv_storage>
