<?xml version="1.0"?>
<opencv_storage>
<stage8>
  <maxWeakCount>16</maxWeakCount>
  <stageThreshold>-9.3579095602035522e-01</stageThreshold>
  <weakClassifiers>
    <_>
      <internalNodes>
        0 -1 84504 -2.1030535921454430e-02</internalNodes>
      <leafValues>
        6.4711272716522217e-01 -4.3270993977785110e-02</leafValues></_>
    <_>
      <internalNodes>
        0 -1 128131 7.4183929245918989e-04</internalNodes>
      <leafValues>
        -2.5597974658012390e-01 5.0456798076629639e-01</leafValues></_>
    <_>
      <internalNodes>
        0 -1 178241 1.6259485855698586e-02</internalNodes>
      <leafValues>
        -1.8736106157302856e-01 6.5514218807220459e-01</leafValues></_>
    <_>
      <internalNodes>
        0 -1 150569 5.0393841229379177e-04</internalNodes>
      <leafValues>
        -3.4815886616706848e-01 3.3608618378639221e-01</leafValues></_>
    <_>
      <internalNodes>
        0 -1 130355 4.3083652853965759e-03</internalNodes>
      <leafValues>
        -2.9327073693275452e-01 3.8623654842376709e-01</leafValues></_>
    <_>
      <internalNodes>
        0 -1 151037 7.4376692064106464e-03</internalNodes>
      <leafValues>
        -4.3115529417991638e-01 2.1570537984371185e-01</leafValues></_>
    <_>
      <internalNodes>
        0 -1 163919 -4.5560589060187340e-03</internalNodes>
      <leafValues>
        -6.2838488817214966e-01 1.6315308213233948e-01</leafValues></_>
    <_>
      <internalNodes>
        0 -1 118316 4.9412245862185955e-03</internalNodes>
      <leafValues>
        9.6116013824939728e-02 -7.1593970060348511e-01</leafValues></_>
    <_>
      <internalNodes>
        0 -1 99060 -3.4036706201732159e-03</internalNodes>
      <leafValues>
        -7.4560886621475220e-01 9.2238225042819977e-02</leafValues></_>
    <_>
      <internalNodes>
        0 -1 109177 2.0750530529767275e-03</internalNodes>
      <leafValues>
        1.2346640229225159e-01 -6.9320827722549438e-01</leafValues></_>
    <_>
      <internalNodes>
        0 -1 111508 2.1863449364900589e-03</internalNodes>
      <leafValues>
        -3.2595410943031311e-01 2.5107520818710327e-01</leafValues></_>
    <_>
      <internalNodes>
        0 -1 127201 5.9515298344194889e-03</internalNodes>
      <leafValues>
        8.6820773780345917e-02 -8.5800886154174805e-01</leafValues></_>
    <_>
      <internalNodes>
        0 -1 142022 -5.8839404955506325e-03</internalNodes>
      <leafValues>
        5.2873003482818604e-01 -1.7941364645957947e-01</leafValues></_>
    <_>
      <internalNodes>
        0 -1 134078 -3.2846240792423487e-03</internalNodes>
      <leafValues>
        4.4309344887733459e-01 -2.7607026696205139e-01</leafValues></_>
    <_>
      <internalNodes>
        0 -1 91343 -8.8296458125114441e-03</internalNodes>
      <leafValues>
        3.0910557508468628e-01 -2.5876316428184509e-01</leafValues></_>
    <_>
      <internalNodes>
        0 -1 120975 6.3543887808918953e-03</internalNodes>
      <leafValues>
        1.2210932374000549e-01 -7.5697839260101318e-01</leafValues></_></weakClassifiers></stage8>
</opencv_storage>
