<?xml version="1.0"?>
<opencv_storage>
<stage0>
  <maxWeakCount>5</maxWeakCount>
  <stageThreshold>-1.1481224298477173e+00</stageThreshold>
  <weakClassifiers>
    <_>
      <internalNodes>
        0 -1 64572 4.4251540675759315e-03</internalNodes>
      <leafValues>
        -3.9386296272277832e-01 8.1110191345214844e-01</leafValues></_>
    <_>
      <internalNodes>
        0 -1 49620 1.9018501043319702e-02</internalNodes>
      <leafValues>
        -5.3521776199340820e-01 7.2394734621047974e-01</leafValues></_>
    <_>
      <internalNodes>
        0 -1 32007 6.3285017386078835e-03</internalNodes>
      <leafValues>
        -5.2728283405303955e-01 6.0546505451202393e-01</leafValues></_>
    <_>
      <internalNodes>
        0 -1 37496 6.2602427788078785e-03</internalNodes>
      <leafValues>
        -3.1729406118392944e-01 6.0387891530990601e-01</leafValues></_>
    <_>
      <internalNodes>
        0 -1 70441 1.7401007935404778e-03</internalNodes>
      <leafValues>
        -3.4190386533737183e-01 6.2553507089614868e-01</leafValues></_></weakClassifiers></stage0>
</opencv_storage>
