<?xml version="1.0"?>
<opencv_storage>
<stage3>
  <maxWeakCount>10</maxWeakCount>
  <stageThreshold>-9.4470739364624023e-01</stageThreshold>
  <weakClassifiers>
    <_>
      <internalNodes>
        0 -1 53245 -1.3297458644956350e-03</internalNodes>
      <leafValues>
        6.5407609939575195e-01 -1.7543102800846100e-01</leafValues></_>
    <_>
      <internalNodes>
        0 -1 17550 1.1684021353721619e-01</internalNodes>
      <leafValues>
        -2.8169348835945129e-01 5.7730734348297119e-01</leafValues></_>
    <_>
      <internalNodes>
        0 -1 48301 6.5086497925221920e-03</internalNodes>
      <leafValues>
        2.1853511035442352e-01 -8.7083196640014648e-01</leafValues></_>
    <_>
      <internalNodes>
        0 -1 57013 9.4899709802120924e-04</internalNodes>
      <leafValues>
        -6.9569659233093262e-01 2.0916934311389923e-01</leafValues></_>
    <_>
      <internalNodes>
        0 -1 49620 2.8620056807994843e-02</internalNodes>
      <leafValues>
        -4.5286598801612854e-01 3.5302004218101501e-01</leafValues></_>
    <_>
      <internalNodes>
        0 -1 60833 -2.4551237002015114e-03</internalNodes>
      <leafValues>
        4.4373962283134460e-01 -3.3184999227523804e-01</leafValues></_>
    <_>
      <internalNodes>
        0 -1 70693 -2.7707593981176615e-03</internalNodes>
      <leafValues>
        4.6710053086280823e-01 -3.0606153607368469e-01</leafValues></_>
    <_>
      <internalNodes>
        0 -1 37760 -2.1895345300436020e-02</internalNodes>
      <leafValues>
        -7.4760085344314575e-01 1.3119597733020782e-01</leafValues></_>
    <_>
      <internalNodes>
        0 -1 48357 -3.6607548594474792e-02</internalNodes>
      <leafValues>
        -8.9777684211730957e-01 9.3480825424194336e-02</leafValues></_>
    <_>
      <internalNodes>
        0 -1 48450 2.0030744373798370e-02</internalNodes>
      <leafValues>
        1.3855752348899841e-01 -7.1914148330688477e-01</leafValues></_></weakClassifiers></stage3>
</opencv_storage>
