<?xml version="1.0"?>
<opencv_storage>
<stage6>
  <maxWeakCount>18</maxWeakCount>
  <stageThreshold>-1.2848755121231079e+00</stageThreshold>
  <weakClassifiers>
    <_>
      <internalNodes>
        0 -1 52979 -1.8901173025369644e-03</internalNodes>
      <leafValues>
        5.9506112337112427e-01 -1.7794732749462128e-01</leafValues></_>
    <_>
      <internalNodes>
        0 -1 67849 -2.3871934972703457e-03</internalNodes>
      <leafValues>
        -5.6312173604965210e-01 2.7365815639495850e-01</leafValues></_>
    <_>
      <internalNodes>
        0 -1 18071 1.1701785773038864e-01</internalNodes>
      <leafValues>
        -2.7873718738555908e-01 4.6592882275581360e-01</leafValues></_>
    <_>
      <internalNodes>
        0 -1 27970 -1.1126017197966576e-02</internalNodes>
      <leafValues>
        3.7527403235435486e-01 -3.1116154789924622e-01</leafValues></_>
    <_>
      <internalNodes>
        0 -1 64575 2.2453423589468002e-03</internalNodes>
      <leafValues>
        -5.3378623723983765e-01 2.0523926615715027e-01</leafValues></_>
    <_>
      <internalNodes>
        0 -1 47983 4.5163026079535484e-03</internalNodes>
      <leafValues>
        1.5403455495834351e-01 -7.7859067916870117e-01</leafValues></_>
    <_>
      <internalNodes>
        0 -1 43548 4.3301209807395935e-03</internalNodes>
      <leafValues>
        -2.2709293663501740e-01 4.8775297403335571e-01</leafValues></_>
    <_>
      <internalNodes>
        0 -1 70574 -3.3408398739993572e-03</internalNodes>
      <leafValues>
        3.5810986161231995e-01 -3.0469605326652527e-01</leafValues></_>
    <_>
      <internalNodes>
        0 -1 68005 -1.6136553138494492e-02</internalNodes>
      <leafValues>
        -7.4359154701232910e-01 1.3608737289905548e-01</leafValues></_>
    <_>
      <internalNodes>
        0 -1 53015 -5.7406807318329811e-03</internalNodes>
      <leafValues>
        -7.6247107982635498e-01 8.5986018180847168e-02</leafValues></_>
    <_>
      <internalNodes>
        0 -1 49472 -2.2679499816149473e-03</internalNodes>
      <leafValues>
        2.2263917326927185e-01 -3.7005141377449036e-01</leafValues></_>
    <_>
      <internalNodes>
        0 -1 48336 7.8473556786775589e-03</internalNodes>
      <leafValues>
        1.1696965992450714e-01 -6.1800694465637207e-01</leafValues></_>
    <_>
      <internalNodes>
        0 -1 49685 -1.1650428175926208e-02</internalNodes>
      <leafValues>
        -7.2862017154693604e-01 8.6812674999237061e-02</leafValues></_>
    <_>
      <internalNodes>
        0 -1 51692 1.7612498253583908e-02</internalNodes>
      <leafValues>
        -1.0216505080461502e-01 7.7345585823059082e-01</leafValues></_>
    <_>
      <internalNodes>
        0 -1 47922 2.6231885422021151e-03</internalNodes>
      <leafValues>
        -2.1845531463623047e-01 4.2872214317321777e-01</leafValues></_>
    <_>
      <internalNodes>
        0 -1 64971 1.9219464156776667e-03</internalNodes>
      <leafValues>
        -2.9572990536689758e-01 2.6999530196189880e-01</leafValues></_>
    <_>
      <internalNodes>
        0 -1 38655 4.3843504972755909e-03</internalNodes>
      <leafValues>
        1.2916934490203857e-01 -6.3837838172912598e-01</leafValues></_>
    <_>
      <internalNodes>
        0 -1 68024 -4.1082166135311127e-03</internalNodes>
      <leafValues>
        -6.3215076923370361e-01 1.1746063083410263e-01</leafValues></_></weakClassifiers></stage6>
</opencv_storage>
