<?xml version="1.0"?>
<opencv_storage>
<stage9>
  <maxWeakCount>21</maxWeakCount>
  <stageThreshold>-1.0629745721817017e+00</stageThreshold>
  <weakClassifiers>
    <_>
      <internalNodes>
        0 -1 48302 -8.0790482461452484e-03</internalNodes>
      <leafValues>
        -7.0909088850021362e-01 4.3853211402893066e-01</leafValues></_>
    <_>
      <internalNodes>
        0 -1 48383 8.6609069257974625e-03</internalNodes>
      <leafValues>
        -2.5673276185989380e-01 5.1277655363082886e-01</leafValues></_>
    <_>
      <internalNodes>
        0 -1 43809 -3.2892713788896799e-03</internalNodes>
      <leafValues>
        4.3967249989509583e-01 -2.4274533987045288e-01</leafValues></_>
    <_>
      <internalNodes>
        0 -1 70839 -1.4625816605985165e-02</internalNodes>
      <leafValues>
        3.4529167413711548e-01 -2.9046219587326050e-01</leafValues></_>
    <_>
      <internalNodes>
        0 -1 5027 3.6090835928916931e-02</internalNodes>
      <leafValues>
        -2.6205840706825256e-01 3.5116487741470337e-01</leafValues></_>
    <_>
      <internalNodes>
        0 -1 48795 -1.4557933434844017e-02</internalNodes>
      <leafValues>
        -8.0934977531433105e-01 8.6278066039085388e-02</leafValues></_>
    <_>
      <internalNodes>
        0 -1 61108 1.3020927086472511e-02</internalNodes>
      <leafValues>
        -4.0692517161369324e-01 2.0656730234622955e-01</leafValues></_>
    <_>
      <internalNodes>
        0 -1 60533 -2.2903941571712494e-03</internalNodes>
      <leafValues>
        3.3079978823661804e-01 -2.6065310835838318e-01</leafValues></_>
    <_>
      <internalNodes>
        0 -1 64430 2.9174224473536015e-03</internalNodes>
      <leafValues>
        1.2564595043659210e-01 -6.0983210802078247e-01</leafValues></_>
    <_>
      <internalNodes>
        0 -1 43295 6.1837849207222462e-03</internalNodes>
      <leafValues>
        1.1737619340419769e-01 -5.7374292612075806e-01</leafValues></_>
    <_>
      <internalNodes>
        0 -1 67808 -3.6620358005166054e-03</internalNodes>
      <leafValues>
        4.1033071279525757e-01 -1.8613268435001373e-01</leafValues></_>
    <_>
      <internalNodes>
        0 -1 44064 1.2836500536650419e-03</internalNodes>
      <leafValues>
        -2.4007765948772430e-01 3.6427104473114014e-01</leafValues></_>
    <_>
      <internalNodes>
        0 -1 65730 -7.1937167085707188e-03</internalNodes>
      <leafValues>
        3.8620591163635254e-01 -2.0358148217201233e-01</leafValues></_>
    <_>
      <internalNodes>
        0 -1 39420 -2.5529270991683006e-02</internalNodes>
      <leafValues>
        -6.7170178890228271e-01 1.2839263677597046e-01</leafValues></_>
    <_>
      <internalNodes>
        0 -1 58353 5.2041746675968170e-03</internalNodes>
      <leafValues>
        7.0076279342174530e-02 -8.1275516748428345e-01</leafValues></_>
    <_>
      <internalNodes>
        0 -1 48301 4.4003771618008614e-03</internalNodes>
      <leafValues>
        1.0358855128288269e-01 -6.0627526044845581e-01</leafValues></_>
    <_>
      <internalNodes>
        0 -1 72985 1.9245766103267670e-02</internalNodes>
      <leafValues>
        -1.9608116149902344e-01 3.5237559676170349e-01</leafValues></_>
    <_>
      <internalNodes>
        0 -1 65259 -3.4759477712213993e-03</internalNodes>
      <leafValues>
        2.5688701868057251e-01 -3.1908330321311951e-01</leafValues></_>
    <_>
      <internalNodes>
        0 -1 65379 3.0894365161657333e-02</internalNodes>
      <leafValues>
        -1.1132054030895233e-01 6.5400028228759766e-01</leafValues></_>
    <_>
      <internalNodes>
        0 -1 67312 1.4350438490509987e-02</internalNodes>
      <leafValues>
        1.2741839885711670e-01 -5.8478051424026489e-01</leafValues></_>
    <_>
      <internalNodes>
        0 -1 65565 -3.5971207544207573e-03</internalNodes>
      <leafValues>
        3.0950489640235901e-01 -2.4839434027671814e-01</leafValues></_></weakClassifiers></stage9>
</opencv_storage>
