<?xml version="1.0"?>
<opencv_storage>
<stage7>
  <maxWeakCount>17</maxWeakCount>
  <stageThreshold>-1.1563431024551392e+00</stageThreshold>
  <weakClassifiers>
    <_>
      <internalNodes>
        0 -1 61286 6.6060916287824512e-04</internalNodes>
      <leafValues>
        -1.3823884725570679e-01 5.8217698335647583e-01</leafValues></_>
    <_>
      <internalNodes>
        0 -1 72861 1.6845103353261948e-02</internalNodes>
      <leafValues>
        -1.4326556026935577e-01 6.5271985530853271e-01</leafValues></_>
    <_>
      <internalNodes>
        0 -1 53215 -2.9432349838316441e-03</internalNodes>
      <leafValues>
        4.6004480123519897e-01 -2.6221925020217896e-01</leafValues></_>
    <_>
      <internalNodes>
        0 -1 3626 8.2767061889171600e-02</internalNodes>
      <leafValues>
        -2.6440098881721497e-01 4.2377245426177979e-01</leafValues></_>
    <_>
      <internalNodes>
        0 -1 39673 1.1433113366365433e-02</internalNodes>
      <leafValues>
        -1.7821575701236725e-01 5.4036390781402588e-01</leafValues></_>
    <_>
      <internalNodes>
        0 -1 44967 1.4355571940541267e-02</internalNodes>
      <leafValues>
        -2.1623800694942474e-01 4.9368509650230408e-01</leafValues></_>
    <_>
      <internalNodes>
        0 -1 43312 5.6294095702469349e-03</internalNodes>
      <leafValues>
        1.5814642608165741e-01 -7.5191152095794678e-01</leafValues></_>
    <_>
      <internalNodes>
        0 -1 60788 1.0326670017093420e-03</internalNodes>
      <leafValues>
        -2.9902368783950806e-01 3.5720723867416382e-01</leafValues></_>
    <_>
      <internalNodes>
        0 -1 49696 8.6750797927379608e-03</internalNodes>
      <leafValues>
        -2.1255992352962494e-01 4.7822102904319763e-01</leafValues></_>
    <_>
      <internalNodes>
        0 -1 67877 2.3619907442480326e-03</internalNodes>
      <leafValues>
        1.1965143680572510e-01 -8.1951022148132324e-01</leafValues></_>
    <_>
      <internalNodes>
        0 -1 71923 2.3024868220090866e-02</internalNodes>
      <leafValues>
        -2.3362508416175842e-01 4.3601739406585693e-01</leafValues></_>
    <_>
      <internalNodes>
        0 -1 52813 4.8091076314449310e-03</internalNodes>
      <leafValues>
        1.3407655060291290e-01 -7.9684251546859741e-01</leafValues></_>
    <_>
      <internalNodes>
        0 -1 48150 -4.2862355709075928e-02</internalNodes>
      <leafValues>
        -9.2376226186752319e-01 5.9713106602430344e-02</leafValues></_>
    <_>
      <internalNodes>
        0 -1 49697 5.9719420969486237e-03</internalNodes>
      <leafValues>
        -1.9998972117900848e-01 4.7351315617561340e-01</leafValues></_>
    <_>
      <internalNodes>
        0 -1 65550 -3.3945059403777122e-03</internalNodes>
      <leafValues>
        3.7422659993171692e-01 -1.8691031634807587e-01</leafValues></_>
    <_>
      <internalNodes>
        0 -1 67534 -3.2939573284238577e-03</internalNodes>
      <leafValues>
        -6.8455755710601807e-01 1.1448135972023010e-01</leafValues></_>
    <_>
      <internalNodes>
        0 -1 60534 -3.9524612948298454e-03</internalNodes>
      <leafValues>
        6.6519230604171753e-01 -1.2630444765090942e-01</leafValues></_></weakClassifiers></stage7>
</opencv_storage>
