<?xml version="1.0"?>
<opencv_storage>
<stage2>
  <maxWeakCount>10</maxWeakCount>
  <stageThreshold>-1.3681981563568115e+00</stageThreshold>
  <weakClassifiers>
    <_>
      <internalNodes>
        0 -1 17540 3.6562275141477585e-02</internalNodes>
      <leafValues>
        -2.2655919194221497e-01 6.9558054208755493e-01</leafValues></_>
    <_>
      <internalNodes>
        0 -1 49620 3.9319433271884918e-02</internalNodes>
      <leafValues>
        -3.0580198764801025e-01 6.1826878786087036e-01</leafValues></_>
    <_>
      <internalNodes>
        0 -1 67630 2.2356165573000908e-03</internalNodes>
      <leafValues>
        -3.3526930212974548e-01 6.3053214550018311e-01</leafValues></_>
    <_>
      <internalNodes>
        0 -1 43227 1.9930284470319748e-03</internalNodes>
      <leafValues>
        -4.4735434651374817e-01 4.8982998728752136e-01</leafValues></_>
    <_>
      <internalNodes>
        0 -1 43017 -1.5558947809040546e-02</internalNodes>
      <leafValues>
        2.9808342456817627e-01 -4.8634642362594604e-01</leafValues></_>
    <_>
      <internalNodes>
        0 -1 70574 -3.2335612922906876e-03</internalNodes>
      <leafValues>
        4.3846654891967773e-01 -3.4358638525009155e-01</leafValues></_>
    <_>
      <internalNodes>
        0 -1 65616 2.5401953607797623e-03</internalNodes>
      <leafValues>
        -2.6963973045349121e-01 4.6352553367614746e-01</leafValues></_>
    <_>
      <internalNodes>
        0 -1 67958 -2.6188548654317856e-03</internalNodes>
      <leafValues>
        5.4146939516067505e-01 -2.4588969349861145e-01</leafValues></_>
    <_>
      <internalNodes>
        0 -1 45527 1.0167461633682251e-01</internalNodes>
      <leafValues>
        -1.9439865648746490e-01 6.6830271482467651e-01</leafValues></_>
    <_>
      <internalNodes>
        0 -1 57391 1.6865687211975455e-03</internalNodes>
      <leafValues>
        -2.6651301980018616e-01 4.3632116913795471e-01</leafValues></_></weakClassifiers></stage2>
</opencv_storage>
