<?xml version="1.0"?>
<opencv_storage>
<stage4>
  <maxWeakCount>15</maxWeakCount>
  <stageThreshold>-1.3549942970275879e+00</stageThreshold>
  <weakClassifiers>
    <_>
      <internalNodes>
        0 -1 48580 1.7792589496821165e-03</internalNodes>
      <leafValues>
        -2.2142681479454041e-01 6.1605232954025269e-01</leafValues></_>
    <_>
      <internalNodes>
        0 -1 47604 -4.0039573796093464e-03</internalNodes>
      <leafValues>
        6.1224269866943359e-01 -3.0878254771232605e-01</leafValues></_>
    <_>
      <internalNodes>
        0 -1 67098 -1.0761342942714691e-02</internalNodes>
      <leafValues>
        4.5369851589202881e-01 -3.5957032442092896e-01</leafValues></_>
    <_>
      <internalNodes>
        0 -1 67843 7.3172310367226601e-03</internalNodes>
      <leafValues>
        -3.3446541428565979e-01 4.7408857941627502e-01</leafValues></_>
    <_>
      <internalNodes>
        0 -1 24668 -4.4866852462291718e-02</internalNodes>
      <leafValues>
        5.4227530956268311e-01 -2.7164486050605774e-01</leafValues></_>
    <_>
      <internalNodes>
        0 -1 49839 -2.8386306017637253e-02</internalNodes>
      <leafValues>
        3.7945947051048279e-01 -3.0861586332321167e-01</leafValues></_>
    <_>
      <internalNodes>
        0 -1 57027 -7.1879290044307709e-03</internalNodes>
      <leafValues>
        -7.3663336038589478e-01 1.6543592512607574e-01</leafValues></_>
    <_>
      <internalNodes>
        0 -1 74914 -1.6592497704550624e-03</internalNodes>
      <leafValues>
        3.8435858488082886e-01 -2.9434064030647278e-01</leafValues></_>
    <_>
      <internalNodes>
        0 -1 65616 4.0458785369992256e-03</internalNodes>
      <leafValues>
        -2.3528359830379486e-01 4.9795475602149963e-01</leafValues></_>
    <_>
      <internalNodes>
        0 -1 56645 -2.3388874251395464e-03</internalNodes>
      <leafValues>
        5.2211397886276245e-01 -1.9163919985294342e-01</leafValues></_>
    <_>
      <internalNodes>
        0 -1 43767 3.5923987161368132e-03</internalNodes>
      <leafValues>
        1.6460461914539337e-01 -7.0721042156219482e-01</leafValues></_>
    <_>
      <internalNodes>
        0 -1 51088 9.1629307717084885e-03</internalNodes>
      <leafValues>
        -3.6478784680366516e-01 2.6940414309501648e-01</leafValues></_>
    <_>
      <internalNodes>
        0 -1 52817 -1.3689167797565460e-02</internalNodes>
      <leafValues>
        -7.2950077056884766e-01 1.3653688132762909e-01</leafValues></_>
    <_>
      <internalNodes>
        0 -1 26806 7.7580804936587811e-03</internalNodes>
      <leafValues>
        -2.3502837121486664e-01 4.0787634253501892e-01</leafValues></_>
    <_>
      <internalNodes>
        0 -1 74795 1.7080347985029221e-02</internalNodes>
      <leafValues>
        -1.4344710111618042e-01 7.1775591373443604e-01</leafValues></_></weakClassifiers></stage4>
</opencv_storage>
