<?xml version="1.0"?>
<opencv_storage>
<stage5>
  <maxWeakCount>5</maxWeakCount>
  <stageThreshold>-3.8476634025573730e-01</stageThreshold>
  <weakClassifiers>
    <_>
      <internalNodes>
        0 -1 41844 -4.5629255473613739e-03</internalNodes>
      <leafValues>
        6.0700899362564087e-01 -9.3700045347213745e-01</leafValues></_>
    <_>
      <internalNodes>
        0 -1 42624 -1.0148853063583374e-02</internalNodes>
      <leafValues>
        -9.6266949176788330e-01 3.7610176205635071e-01</leafValues></_>
    <_>
      <internalNodes>
        0 -1 3946 3.0238047242164612e-02</internalNodes>
      <leafValues>
        -5.0669437646865845e-01 6.5291249752044678e-01</leafValues></_>
    <_>
      <internalNodes>
        0 -1 63946 -7.8585301525890827e-04</internalNodes>
      <leafValues>
        3.4159034490585327e-01 -9.1155821084976196e-01</leafValues></_>
    <_>
      <internalNodes>
        0 -1 61087 -9.1524713207036257e-04</internalNodes>
      <leafValues>
        -9.3926084041595459e-01 3.4123641252517700e-01</leafValues></_></weakClassifiers></stage5>
</opencv_storage>
