<?xml version="1.0"?>
<opencv_storage>
<stage1>
  <maxWeakCount>14</maxWeakCount>
  <stageThreshold>-9.2691695690155029e-01</stageThreshold>
  <weakClassifiers>
    <_>
      <internalNodes>
        0 -1 61108 1.4186698943376541e-02</internalNodes>
      <leafValues>
        -1.3485114276409149e-01 7.5834655761718750e-01</leafValues></_>
    <_>
      <internalNodes>
        0 -1 25058 -2.2934064269065857e-02</internalNodes>
      <leafValues>
        8.3166229724884033e-01 -1.7703510820865631e-01</leafValues></_>
    <_>
      <internalNodes>
        0 -1 51638 1.5379196265712380e-03</internalNodes>
      <leafValues>
        -3.7230589985847473e-01 3.8868260383605957e-01</leafValues></_>
    <_>
      <internalNodes>
        0 -1 69258 1.0636366903781891e-02</internalNodes>
      <leafValues>
        -4.2539796233177185e-01 3.0586692690849304e-01</leafValues></_>
    <_>
      <internalNodes>
        0 -1 63969 -1.0132695315405726e-03</internalNodes>
      <leafValues>
        2.8293812274932861e-01 -4.5270937681198120e-01</leafValues></_>
    <_>
      <internalNodes>
        0 -1 65814 -1.7063233826775104e-04</internalNodes>
      <leafValues>
        2.8100076317787170e-01 -4.0713593363761902e-01</leafValues></_>
    <_>
      <internalNodes>
        0 -1 29872 3.0870027840137482e-03</internalNodes>
      <leafValues>
        -3.3750644326210022e-01 3.3373597264289856e-01</leafValues></_>
    <_>
      <internalNodes>
        0 -1 67674 6.3406268600374460e-04</internalNodes>
      <leafValues>
        -3.2151424884796143e-01 3.0897441506385803e-01</leafValues></_>
    <_>
      <internalNodes>
        0 -1 45745 1.0682342574000359e-02</internalNodes>
      <leafValues>
        -1.3510328531265259e-01 7.2441184520721436e-01</leafValues></_>
    <_>
      <internalNodes>
        0 -1 8281 -3.8576322793960571e-01</internalNodes>
      <leafValues>
        3.9454433321952820e-01 -2.5748476386070251e-01</leafValues></_>
    <_>
      <internalNodes>
        0 -1 38732 6.7089805379509926e-03</internalNodes>
      <leafValues>
        -2.1822929382324219e-01 4.9838215112686157e-01</leafValues></_>
    <_>
      <internalNodes>
        0 -1 73747 1.5000884886831045e-03</internalNodes>
      <leafValues>
        1.8343359231948853e-01 -5.1883816719055176e-01</leafValues></_>
    <_>
      <internalNodes>
        0 -1 70490 9.0486966073513031e-03</internalNodes>
      <leafValues>
        -1.9173789024353027e-01 4.7054281830787659e-01</leafValues></_>
    <_>
      <internalNodes>
        0 -1 73854 -4.6882327296771109e-04</internalNodes>
      <leafValues>
        2.5363191962242126e-01 -3.2539504766464233e-01</leafValues></_></weakClassifiers></stage1>
</opencv_storage>
