<?xml version="1.0"?>
<opencv_storage>
<cascade>
  <stageType>BOOST</stageType>
  <featureType>HAAR</featureType>
  <height>20</height>
  <width>20</width>
  <stageParams>
    <boostType>GAB</boostType>
    <minHitRate>9.9500000476837158e-01</minHitRate>
    <maxFalseAlarm>5.0000000000000000e-01</maxFalseAlarm>
    <weightTrimRate>9.4999999999999996e-01</weightTrimRate>
    <maxDepth>1</maxDepth>
    <maxWeakCount>100</maxWeakCount></stageParams>
  <featureParams>
    <maxCatCount>0</maxCatCount>
    <featSize>1</featSize>
    <mode>BASIC</mode></featureParams>
  <stageNum>10</stageNum>
  <stages>
    <!-- stage 0 -->
    <_>
      <maxWeakCount>4</maxWeakCount>
      <stageThreshold>-2.9967692494392395e-01</stageThreshold>
      <weakClassifiers>
        <_>
          <internalNodes>
            0 -1 30 1.1484196782112122e-01</internalNodes>
          <leafValues>
            -5.0341683626174927e-01 8.1603151559829712e-01</leafValues></_>
        <_>
          <internalNodes>
            0 -1 59 1.3913813745602965e-04</internalNodes>
          <leafValues>
            4.3496915698051453e-01 -9.8039466142654419e-01</leafValues></_>
        <_>
          <internalNodes>
            0 -1 7 7.4840687215328217e-02</internalNodes>
          <leafValues>
            -4.9082225561141968e-01 6.7183095216751099e-01</leafValues></_>
        <_>
          <internalNodes>
            0 -1 51 -1.8313285545445979e-04</internalNodes>
          <leafValues>
            -9.0306013822555542e-01 2.9843172430992126e-01</leafValues></_></weakClassifiers></_>
    <!-- stage 1 -->
    <_>
      <maxWeakCount>7</maxWeakCount>
      <stageThreshold>-9.5509648323059082e-01</stageThreshold>
      <weakClassifiers>
        <_>
          <internalNodes>
            0 -1 61 -3.3413490746170282e-04</internalNodes>
          <leafValues>
            -8.5542166233062744e-01 6.4458465576171875e-01</leafValues></_>
        <_>
          <internalNodes>
            0 -1 36 1.5487211942672729e-01</internalNodes>
          <leafValues>
            -5.0048387050628662e-01 7.5427150726318359e-01</leafValues></_>
        <_>
          <internalNodes>
            0 -1 54 2.5319727137684822e-04</internalNodes>
          <leafValues>
            3.8927266001701355e-01 -7.6868593692779541e-01</leafValues></_>
        <_>
          <internalNodes>
            0 -1 6 5.5572174489498138e-02</internalNodes>
          <leafValues>
            -3.8638490438461304e-01 6.0148400068283081e-01</leafValues></_>
        <_>
          <internalNodes>
            0 -1 53 -7.0573878474533558e-04</internalNodes>
          <leafValues>
            -9.5923960208892822e-01 1.8797655403614044e-01</leafValues></_>
        <_>
          <internalNodes>
            0 -1 20 -4.8813503235578537e-03</internalNodes>
          <leafValues>
            6.2730693817138672e-01 -3.2628384232521057e-01</leafValues></_>
        <_>
          <internalNodes>
            0 -1 24 -1.3947761908639222e-04</internalNodes>
          <leafValues>
            5.3622859716415405e-01 -4.3937620520591736e-01</leafValues></_></weakClassifiers></_>
    <!-- stage 2 -->
    <_>
      <maxWeakCount>8</maxWeakCount>
      <stageThreshold>-1.1830221414566040e+00</stageThreshold>
      <weakClassifiers>
        <_>
          <internalNodes>
            0 -1 5 9.0525016188621521e-02</internalNodes>
          <leafValues>
            -3.5540840029716492e-01 7.5100404024124146e-01</leafValues></_>
        <_>
          <internalNodes>
            0 -1 56 6.0881918761879206e-04</internalNodes>
          <leafValues>
            -5.4392784833908081e-01 4.6184766292572021e-01</leafValues></_>
        <_>
          <internalNodes>
            0 -1 55 5.9452216373756528e-04</internalNodes>
          <leafValues>
            2.2378917038440704e-01 -9.1374731063842773e-01</leafValues></_>
        <_>
          <internalNodes>
            0 -1 31 -5.4320213384926319e-03</internalNodes>
          <leafValues>
            6.8160897493362427e-01 -3.4110286831855774e-01</leafValues></_>
        <_>
          <internalNodes>
            0 -1 58 -4.3935899157077074e-04</internalNodes>
          <leafValues>
            -8.5173004865646362e-01 2.7082207798957825e-01</leafValues></_>
        <_>
          <internalNodes>
            0 -1 35 -5.4856156930327415e-03</internalNodes>
          <leafValues>
            5.0504660606384277e-01 -3.7389662861824036e-01</leafValues></_>
        <_>
          <internalNodes>
            0 -1 48 -3.4276479855179787e-03</internalNodes>
          <leafValues>
            5.8948284387588501e-01 -2.6352757215499878e-01</leafValues></_>
        <_>
          <internalNodes>
            0 -1 44 5.0412653945386410e-04</internalNodes>
          <leafValues>
            2.0022991299629211e-01 -7.9536020755767822e-01</leafValues></_></weakClassifiers></_>
    <!-- stage 3 -->
    <_>
      <maxWeakCount>7</maxWeakCount>
      <stageThreshold>-8.1855028867721558e-01</stageThreshold>
      <weakClassifiers>
        <_>
          <internalNodes>
            0 -1 26 2.3773419670760632e-03</internalNodes>
          <leafValues>
            -6.2541806697845459e-01 6.5149831771850586e-01</leafValues></_>
        <_>
          <internalNodes>
            0 -1 1 3.2889999449253082e-02</internalNodes>
          <leafValues>
            -3.5475632548332214e-01 6.6912055015563965e-01</leafValues></_>
        <_>
          <internalNodes>
            0 -1 19 -2.2702207788825035e-02</internalNodes>
          <leafValues>
            4.8503097891807556e-01 -4.0543863177299500e-01</leafValues></_>
        <_>
          <internalNodes>
            0 -1 60 -1.7598225895198993e-05</internalNodes>
          <leafValues>
            2.5133413076400757e-01 -8.3558493852615356e-01</leafValues></_>
        <_>
          <internalNodes>
            0 -1 59 -3.0193419661372900e-04</internalNodes>
          <leafValues>
            -6.4421731233596802e-01 3.0756869912147522e-01</leafValues></_>
        <_>
          <internalNodes>
            0 -1 79 -1.3406811049208045e-03</internalNodes>
          <leafValues>
            6.1435824632644653e-01 -3.3162119984626770e-01</leafValues></_>
        <_>
          <internalNodes>
            0 -1 32 2.4365990248043090e-04</internalNodes>
          <leafValues>
            -4.0974888205528259e-01 4.4686734676361084e-01</leafValues></_></weakClassifiers></_>
    <!-- stage 4 -->
    <_>
      <maxWeakCount>9</maxWeakCount>
      <stageThreshold>-7.1091449260711670e-01</stageThreshold>
      <weakClassifiers>
        <_>
          <internalNodes>
            0 -1 57 -5.4608227219432592e-04</internalNodes>
          <leafValues>
            -8.0519479513168335e-01 5.0095599889755249e-01</leafValues></_>
        <_>
          <internalNodes>
            0 -1 81 -2.3561626672744751e-02</internalNodes>
          <leafValues>
            6.3255035877227783e-01 -3.6560401320457458e-01</leafValues></_>
        <_>
          <internalNodes>
            0 -1 57 2.8120831120759249e-04</internalNodes>
          <leafValues>
            4.1525614261627197e-01 -6.9347381591796875e-01</leafValues></_>
        <_>
          <internalNodes>
            0 -1 73 9.8620097560342401e-05</internalNodes>
          <leafValues>
            -6.5366357564926147e-01 2.9442554712295532e-01</leafValues></_>
        <_>
          <internalNodes>
            0 -1 12 -1.3710057362914085e-02</internalNodes>
          <leafValues>
            5.7432091236114502e-01 -3.2269763946533203e-01</leafValues></_>
        <_>
          <internalNodes>
            0 -1 39 -3.8482798263430595e-03</internalNodes>
          <leafValues>
            4.8549059033393860e-01 -3.2080021500587463e-01</leafValues></_>
        <_>
          <internalNodes>
            0 -1 65 -3.3964330214075744e-04</internalNodes>
          <leafValues>
            -7.6475191116333008e-01 1.9101849198341370e-01</leafValues></_>
        <_>
          <internalNodes>
            0 -1 68 4.5254440919961780e-05</internalNodes>
          <leafValues>
            1.4967079460620880e-01 -8.4312373399734497e-01</leafValues></_>
        <_>
          <internalNodes>
            0 -1 67 -5.7990015193354338e-05</internalNodes>
          <leafValues>
            1.4878714084625244e-01 -9.1914010047912598e-01</leafValues></_></weakClassifiers></_>
    <!-- stage 5 -->
    <_>
      <maxWeakCount>9</maxWeakCount>
      <stageThreshold>-8.9402425289154053e-01</stageThreshold>
      <weakClassifiers>
        <_>
          <internalNodes>
            0 -1 50 3.9772409945726395e-04</internalNodes>
          <leafValues>
            -4.1530054807662964e-01 6.6187047958374023e-01</leafValues></_>
        <_>
          <internalNodes>
            0 -1 14 -5.3316010162234306e-03</internalNodes>
          <leafValues>
            6.7364180088043213e-01 -2.4566695094108582e-01</leafValues></_>
        <_>
          <internalNodes>
            0 -1 46 -5.8973757550120354e-03</internalNodes>
          <leafValues>
            5.3891003131866455e-01 -3.2146415114402771e-01</leafValues></_>
        <_>
          <internalNodes>
            0 -1 44 1.6758576384745538e-04</internalNodes>
          <leafValues>
            2.1149319410324097e-01 -7.3830020427703857e-01</leafValues></_>
        <_>
          <internalNodes>
            0 -1 28 -1.0031595826148987e-02</internalNodes>
          <leafValues>
            6.5455079078674316e-01 -2.4398197233676910e-01</leafValues></_>
        <_>
          <internalNodes>
            0 -1 9 7.0602372288703918e-02</internalNodes>
          <leafValues>
            -2.1642884612083435e-01 8.2290655374526978e-01</leafValues></_>
        <_>
          <internalNodes>
            0 -1 21 1.9618044607341290e-03</internalNodes>
          <leafValues>
            -2.8380584716796875e-01 5.0643855333328247e-01</leafValues></_>
        <_>
          <internalNodes>
            0 -1 74 -3.2542640110477805e-04</internalNodes>
          <leafValues>
            -7.1816164255142212e-01 2.0184305310249329e-01</leafValues></_>
        <_>
          <internalNodes>
            0 -1 82 2.8735643718391657e-04</internalNodes>
          <leafValues>
            -3.7095656991004944e-01 3.2390248775482178e-01</leafValues></_></weakClassifiers></_>
    <!-- stage 6 -->
    <_>
      <maxWeakCount>10</maxWeakCount>
      <stageThreshold>-5.8225363492965698e-01</stageThreshold>
      <weakClassifiers>
        <_>
          <internalNodes>
            0 -1 25 8.2352641038596630e-04</internalNodes>
          <leafValues>
            -2.9381442070007324e-01 6.3300490379333496e-01</leafValues></_>
        <_>
          <internalNodes>
            0 -1 44 -4.8174109542742372e-04</internalNodes>
          <leafValues>
            -9.1921275854110718e-01 2.4438720941543579e-01</leafValues></_>
        <_>
          <internalNodes>
            0 -1 22 -3.0772569589316845e-03</internalNodes>
          <leafValues>
            5.7675230503082275e-01 -3.3320012688636780e-01</leafValues></_>
        <_>
          <internalNodes>
            0 -1 77 7.3031382635235786e-03</internalNodes>
          <leafValues>
            -3.2069170475006104e-01 6.3406366109848022e-01</leafValues></_>
        <_>
          <internalNodes>
            0 -1 64 1.5542554319836199e-04</internalNodes>
          <leafValues>
            1.7846092581748962e-01 -8.2470345497131348e-01</leafValues></_>
        <_>
          <internalNodes>
            0 -1 37 -2.8412183746695518e-03</internalNodes>
          <leafValues>
            4.4939535856246948e-01 -3.2782009243965149e-01</leafValues></_>
        <_>
          <internalNodes>
            0 -1 66 -2.5504457880742848e-04</internalNodes>
          <leafValues>
            -7.9772448539733887e-01 1.8746964633464813e-01</leafValues></_>
        <_>
          <internalNodes>
            0 -1 63 -4.6423680032603443e-05</internalNodes>
          <leafValues>
            1.5543499588966370e-01 -8.0764174461364746e-01</leafValues></_>
        <_>
          <internalNodes>
            0 -1 10 2.2171426564455032e-02</internalNodes>
          <leafValues>
            -2.8477558493614197e-01 5.6003642082214355e-01</leafValues></_>
        <_>
          <internalNodes>
            0 -1 76 1.6537672490812838e-04</internalNodes>
          <leafValues>
            -3.3721429109573364e-01 3.7064787745475769e-01</leafValues></_></weakClassifiers></_>
    <!-- stage 7 -->
    <_>
      <maxWeakCount>12</maxWeakCount>
      <stageThreshold>-7.7451705932617188e-01</stageThreshold>
      <weakClassifiers>
        <_>
          <internalNodes>
            0 -1 43 -6.3907094299793243e-03</internalNodes>
          <leafValues>
            5.9183675050735474e-01 -3.8364779949188232e-01</leafValues></_>
        <_>
          <internalNodes>
            0 -1 0 7.6971642673015594e-02</internalNodes>
          <leafValues>
            -3.3838918805122375e-01 5.1353430747985840e-01</leafValues></_>
        <_>
          <internalNodes>
            0 -1 83 -3.7790602073073387e-03</internalNodes>
          <leafValues>
            4.1934382915496826e-01 -3.3258464932441711e-01</leafValues></_>
        <_>
          <internalNodes>
            0 -1 41 -1.8308088183403015e-02</internalNodes>
          <leafValues>
            5.4000389575958252e-01 -2.4084375798702240e-01</leafValues></_>
        <_>
          <internalNodes>
            0 -1 68 -4.2440521065145731e-04</internalNodes>
          <leafValues>
            -6.7756545543670654e-01 1.8698184192180634e-01</leafValues></_>
        <_>
          <internalNodes>
            0 -1 40 5.3957581985741854e-04</internalNodes>
          <leafValues>
            -2.6255321502685547e-01 5.2857273817062378e-01</leafValues></_>
        <_>
          <internalNodes>
            0 -1 23 -2.6367488317191601e-03</internalNodes>
          <leafValues>
            5.0239336490631104e-01 -2.9393920302391052e-01</leafValues></_>
        <_>
          <internalNodes>
            0 -1 53 9.4676033768337220e-05</internalNodes>
          <leafValues>
            2.1263122558593750e-01 -7.6747113466262817e-01</leafValues></_>
        <_>
          <internalNodes>
            0 -1 33 2.9688812792301178e-02</internalNodes>
          <leafValues>
            -2.1270798146724701e-01 7.8534322977066040e-01</leafValues></_>
        <_>
          <internalNodes>
            0 -1 72 -2.1221794668235816e-05</internalNodes>
          <leafValues>
            2.2784601151943207e-01 -6.0885399580001831e-01</leafValues></_>
        <_>
          <internalNodes>
            0 -1 34 5.0392630510032177e-04</internalNodes>
          <leafValues>
            -4.1698557138442993e-01 3.3189380168914795e-01</leafValues></_>
        <_>
          <internalNodes>
            0 -1 78 4.0464065386913717e-04</internalNodes>
          <leafValues>
            -3.0976518988609314e-01 4.0116807818412781e-01</leafValues></_></weakClassifiers></_>
    <!-- stage 8 -->
    <_>
      <maxWeakCount>13</maxWeakCount>
      <stageThreshold>-6.1325353384017944e-01</stageThreshold>
      <weakClassifiers>
        <_>
          <internalNodes>
            0 -1 17 6.1345803551375866e-03</internalNodes>
          <leafValues>
            -3.0921053886413574e-01 5.5133926868438721e-01</leafValues></_>
        <_>
          <internalNodes>
            0 -1 27 -5.2055574953556061e-02</internalNodes>
          <leafValues>
            8.0700933933258057e-01 -1.6242523491382599e-01</leafValues></_>
        <_>
          <internalNodes>
            0 -1 47 3.7891436368227005e-02</internalNodes>
          <leafValues>
            -1.4718969166278839e-01 8.1754982471466064e-01</leafValues></_>
        <_>
          <internalNodes>
            0 -1 42 -3.8093698094598949e-05</internalNodes>
          <leafValues>
            3.8270369172096252e-01 -3.5346522927284241e-01</leafValues></_>
        <_>
          <internalNodes>
            0 -1 8 -1.3134691119194031e-01</internalNodes>
          <leafValues>
            3.8118600845336914e-01 -3.2558578252792358e-01</leafValues></_>
        <_>
          <internalNodes>
            0 -1 80 8.6970655247569084e-03</internalNodes>
          <leafValues>
            -2.2932195663452148e-01 5.6421124935150146e-01</leafValues></_>
        <_>
          <internalNodes>
            0 -1 58 4.3860659934580326e-04</internalNodes>
          <leafValues>
            1.4141233265399933e-01 -9.8420214653015137e-01</leafValues></_>
        <_>
          <internalNodes>
            0 -1 55 -5.4437451763078570e-04</internalNodes>
          <leafValues>
            -5.6295824050903320e-01 1.8609249591827393e-01</leafValues></_>
        <_>
          <internalNodes>
            0 -1 49 -9.5407292246818542e-04</internalNodes>
          <leafValues>
            4.3005910515785217e-01 -2.8717601299285889e-01</leafValues></_>
        <_>
          <internalNodes>
            0 -1 38 2.3910924792289734e-03</internalNodes>
          <leafValues>
            -1.7962443828582764e-01 7.0860344171524048e-01</leafValues></_>
        <_>
          <internalNodes>
            0 -1 2 2.5525420904159546e-02</internalNodes>
          <leafValues>
            -1.3842608034610748e-01 7.4593520164489746e-01</leafValues></_>
        <_>
          <internalNodes>
            0 -1 75 2.1974403352942318e-04</internalNodes>
          <leafValues>
            -4.7409108281135559e-01 3.1534507870674133e-01</leafValues></_>
        <_>
          <internalNodes>
            0 -1 52 1.0999056394211948e-04</internalNodes>
          <leafValues>
            2.1235360205173492e-01 -6.5777122974395752e-01</leafValues></_></weakClassifiers></_>
    <!-- stage 9 -->
    <_>
      <maxWeakCount>13</maxWeakCount>
      <stageThreshold>-9.9316704273223877e-01</stageThreshold>
      <weakClassifiers>
        <_>
          <internalNodes>
            0 -1 69 1.5970278764143586e-04</internalNodes>
          <leafValues>
            -3.4285715222358704e-01 5.3913044929504395e-01</leafValues></_>
        <_>
          <internalNodes>
            0 -1 62 4.5269625261425972e-03</internalNodes>
          <leafValues>
            -3.3691418170928955e-01 4.4040441513061523e-01</leafValues></_>
        <_>
          <internalNodes>
            0 -1 4 6.7865066230297089e-03</internalNodes>
          <leafValues>
            -3.1224393844604492e-01 4.6400102972984314e-01</leafValues></_>
        <_>
          <internalNodes>
            0 -1 16 -1.1462060734629631e-02</internalNodes>
          <leafValues>
            6.2267768383026123e-01 -1.8189100921154022e-01</leafValues></_>
        <_>
          <internalNodes>
            0 -1 15 -5.7603712193667889e-03</internalNodes>
          <leafValues>
            2.5615462660789490e-01 -4.3086040019989014e-01</leafValues></_>
        <_>
          <internalNodes>
            0 -1 13 -1.0343693196773529e-02</internalNodes>
          <leafValues>
            4.7717660665512085e-01 -2.2037729620933533e-01</leafValues></_>
        <_>
          <internalNodes>
            0 -1 18 3.4096933901309967e-02</internalNodes>
          <leafValues>
            -2.0501464605331421e-01 6.9852256774902344e-01</leafValues></_>
        <_>
          <internalNodes>
            0 -1 70 -1.0577910579741001e-03</internalNodes>
          <leafValues>
            -6.9597995281219482e-01 2.0586396753787994e-01</leafValues></_>
        <_>
          <internalNodes>
            0 -1 71 -5.6544569815741852e-05</internalNodes>
          <leafValues>
            1.6285033524036407e-01 -6.9118869304656982e-01</leafValues></_>
        <_>
          <internalNodes>
            0 -1 29 4.0641278028488159e-03</internalNodes>
          <leafValues>
            -2.7598562836647034e-01 4.2682400345802307e-01</leafValues></_>
        <_>
          <internalNodes>
            0 -1 3 3.7912845611572266e-02</internalNodes>
          <leafValues>
            -2.1250289678573608e-01 6.0506147146224976e-01</leafValues></_>
        <_>
          <internalNodes>
            0 -1 45 -2.8512225253507495e-04</internalNodes>
          <leafValues>
            -6.2242293357849121e-01 1.8153658509254456e-01</leafValues></_>
        <_>
          <internalNodes>
            0 -1 11 1.0170253366231918e-01</internalNodes>
          <leafValues>
            1.1988253891468048e-01 -7.9459685087203979e-01</leafValues></_></weakClassifiers></_></stages>
  <features>
    <_>
      <rects>
        <_>
          0 4 8 13 -1.</_>
        <_>
          4 4 4 13 2.</_></rects>
      <tilted>0</tilted></_>
    <_>
      <rects>
        <_>
          0 5 6 11 -1.</_>
        <_>
          3 5 3 11 2.</_></rects>
      <tilted>0</tilted></_>
    <_>
      <rects>
        <_>
          1 11 14 6 -1.</_>
        <_>
          1 11 7 3 2.</_>
        <_>
          8 14 7 3 2.</_></rects>
      <tilted>0</tilted></_>
    <_>
      <rects>
        <_>
          1 15 12 3 -1.</_>
        <_>
          5 15 4 3 3.</_></rects>
      <tilted>0</tilted></_>
    <_>
      <rects>
        <_>
          2 4 2 13 -1.</_>
        <_>
          3 4 1 13 2.</_></rects>
      <tilted>0</tilted></_>
    <_>
      <rects>
        <_>
          2 8 18 5 -1.</_>
        <_>
          8 8 6 5 3.</_></rects>
      <tilted>0</tilted></_>
    <_>
      <rects>
        <_>
          2 10 18 2 -1.</_>
        <_>
          8 10 6 2 3.</_></rects>
      <tilted>0</tilted></_>
    <_>
      <rects>
        <_>
          2 10 18 3 -1.</_>
        <_>
          8 10 6 3 3.</_></rects>
      <tilted>0</tilted></_>
    <_>
      <rects>
        <_>
          2 12 15 8 -1.</_>
        <_>
          2 16 15 4 2.</_></rects>
      <tilted>0</tilted></_>
    <_>
      <rects>
        <_>
          2 13 12 4 -1.</_>
        <_>
          6 13 4 4 3.</_></rects>
      <tilted>0</tilted></_>
    <_>
      <rects>
        <_>
          2 13 6 6 -1.</_>
        <_>
          2 15 6 2 3.</_></rects>
      <tilted>0</tilted></_>
    <_>
      <rects>
        <_>
          3 4 16 12 -1.</_>
        <_>
          3 4 8 6 2.</_>
        <_>
          11 10 8 6 2.</_></rects>
      <tilted>0</tilted></_>
    <_>
      <rects>
        <_>
          3 8 6 6 -1.</_>
        <_>
          3 10 6 2 3.</_></rects>
      <tilted>0</tilted></_>
    <_>
      <rects>
        <_>
          3 9 6 6 -1.</_>
        <_>
          3 11 6 2 3.</_></rects>
      <tilted>0</tilted></_>
    <_>
      <rects>
        <_>
          4 7 6 6 -1.</_>
        <_>
          4 9 6 2 3.</_></rects>
      <tilted>0</tilted></_>
    <_>
      <rects>
        <_>
          4 16 13 2 -1.</_>
        <_>
          4 17 13 1 2.</_></rects>
      <tilted>0</tilted></_>
    <_>
      <rects>
        <_>
          5 7 5 6 -1.</_>
        <_>
          5 9 5 2 3.</_></rects>
      <tilted>0</tilted></_>
    <_>
      <rects>
        <_>
          5 8 8 5 -1.</_>
        <_>
          9 8 4 5 2.</_></rects>
      <tilted>0</tilted></_>
    <_>
      <rects>
        <_>
          5 11 10 6 -1.</_>
        <_>
          5 11 5 3 2.</_>
        <_>
          10 14 5 3 2.</_></rects>
      <tilted>0</tilted></_>
    <_>
      <rects>
        <_>
          5 15 11 4 -1.</_>
        <_>
          5 17 11 2 2.</_></rects>
      <tilted>0</tilted></_>
    <_>
      <rects>
        <_>
          6 2 6 4 -1.</_>
        <_>
          6 2 3 2 2.</_>
        <_>
          9 4 3 2 2.</_></rects>
      <tilted>0</tilted></_>
    <_>
      <rects>
        <_>
          6 3 11 2 -1.</_>
        <_>
          6 4 11 1 2.</_></rects>
      <tilted>0</tilted></_>
    <_>
      <rects>
        <_>
          6 5 4 4 -1.</_>
        <_>
          8 5 2 4 2.</_></rects>
      <tilted>0</tilted></_>
    <_>
      <rects>
        <_>
          6 5 6 5 -1.</_>
        <_>
          8 5 2 5 3.</_></rects>
      <tilted>0</tilted></_>
    <_>
      <rects>
        <_>
          6 8 4 1 -1.</_>
        <_>
          8 8 2 1 2.</_></rects>
      <tilted>0</tilted></_>
    <_>
      <rects>
        <_>
          6 9 2 3 -1.</_>
        <_>
          7 9 1 3 2.</_></rects>
      <tilted>0</tilted></_>
    <_>
      <rects>
        <_>
          6 10 9 2 -1.</_>
        <_>
          9 10 3 2 3.</_></rects>
      <tilted>0</tilted></_>
    <_>
      <rects>
        <_>
          6 13 9 5 -1.</_>
        <_>
          9 13 3 5 3.</_></rects>
      <tilted>0</tilted></_>
    <_>
      <rects>
        <_>
          6 14 6 3 -1.</_>
        <_>
          8 14 2 3 3.</_></rects>
      <tilted>0</tilted></_>
    <_>
      <rects>
        <_>
          7 2 2 6 -1.</_>
        <_>
          7 4 2 2 3.</_></rects>
      <tilted>0</tilted></_>
    <_>
      <rects>
        <_>
          7 2 6 18 -1.</_>
        <_>
          7 8 6 6 3.</_></rects>
      <tilted>0</tilted></_>
    <_>
      <rects>
        <_>
          7 5 6 2 -1.</_>
        <_>
          9 5 2 2 3.</_></rects>
      <tilted>0</tilted></_>
    <_>
      <rects>
        <_>
          7 7 3 3 -1.</_>
        <_>
          7 8 3 1 3.</_></rects>
      <tilted>0</tilted></_>
    <_>
      <rects>
        <_>
          7 9 6 8 -1.</_>
        <_>
          7 9 3 4 2.</_>
        <_>
          10 13 3 4 2.</_></rects>
      <tilted>0</tilted></_>
    <_>
      <rects>
        <_>
          7 10 3 4 -1.</_>
        <_>
          8 10 1 4 3.</_></rects>
      <tilted>0</tilted></_>
    <_>
      <rects>
        <_>
          7 15 6 2 -1.</_>
        <_>
          9 15 2 2 3.</_></rects>
      <tilted>0</tilted></_>
    <_>
      <rects>
        <_>
          8 2 5 18 -1.</_>
        <_>
          8 8 5 6 3.</_></rects>
      <tilted>0</tilted></_>
    <_>
      <rects>
        <_>
          8 4 6 2 -1.</_>
        <_>
          10 4 2 2 3.</_></rects>
      <tilted>0</tilted></_>
    <_>
      <rects>
        <_>
          8 5 4 1 -1.</_>
        <_>
          10 5 2 1 2.</_></rects>
      <tilted>0</tilted></_>
    <_>
      <rects>
        <_>
          8 5 6 6 -1.</_>
        <_>
          10 5 2 6 3.</_></rects>
      <tilted>0</tilted></_>
    <_>
      <rects>
        <_>
          8 6 3 1 -1.</_>
        <_>
          9 6 1 1 3.</_></rects>
      <tilted>0</tilted></_>
    <_>
      <rects>
        <_>
          8 6 6 13 -1.</_>
        <_>
          10 6 2 13 3.</_></rects>
      <tilted>0</tilted></_>
    <_>
      <rects>
        <_>
          8 8 2 2 -1.</_>
        <_>
          9 8 1 2 2.</_></rects>
      <tilted>0</tilted></_>
    <_>
      <rects>
        <_>
          8 9 8 4 -1.</_>
        <_>
          12 9 4 4 2.</_></rects>
      <tilted>0</tilted></_>
    <_>
      <rects>
        <_>
          8 10 4 1 -1.</_>
        <_>
          10 10 2 1 2.</_></rects>
      <tilted>0</tilted></_>
    <_>
      <rects>
        <_>
          8 11 4 1 -1.</_>
        <_>
          10 11 2 1 2.</_></rects>
      <tilted>0</tilted></_>
    <_>
      <rects>
        <_>
          8 14 6 3 -1.</_>
        <_>
          10 14 2 3 3.</_></rects>
      <tilted>0</tilted></_>
    <_>
      <rects>
        <_>
          8 14 9 3 -1.</_>
        <_>
          11 14 3 3 3.</_></rects>
      <tilted>0</tilted></_>
    <_>
      <rects>
        <_>
          9 5 6 2 -1.</_>
        <_>
          11 5 2 2 3.</_></rects>
      <tilted>0</tilted></_>
    <_>
      <rects>
        <_>
          9 6 2 3 -1.</_>
        <_>
          10 6 1 3 2.</_></rects>
      <tilted>0</tilted></_>
    <_>
      <rects>
        <_>
          9 7 3 2 -1.</_>
        <_>
          9 8 3 1 2.</_></rects>
      <tilted>0</tilted></_>
    <_>
      <rects>
        <_>
          9 8 2 3 -1.</_>
        <_>
          9 9 2 1 3.</_></rects>
      <tilted>0</tilted></_>
    <_>
      <rects>
        <_>
          9 9 1 2 -1.</_>
        <_>
          9 10 1 1 2.</_></rects>
      <tilted>0</tilted></_>
    <_>
      <rects>
        <_>
          9 9 2 2 -1.</_>
        <_>
          10 9 1 2 2.</_></rects>
      <tilted>0</tilted></_>
    <_>
      <rects>
        <_>
          9 9 3 2 -1.</_>
        <_>
          10 9 1 2 3.</_></rects>
      <tilted>0</tilted></_>
    <_>
      <rects>
        <_>
          9 9 4 2 -1.</_>
        <_>
          11 9 2 2 2.</_></rects>
      <tilted>0</tilted></_>
    <_>
      <rects>
        <_>
          9 9 2 6 -1.</_>
        <_>
          9 11 2 2 3.</_></rects>
      <tilted>0</tilted></_>
    <_>
      <rects>
        <_>
          9 9 3 2 -1.</_>
        <_>
          9 10 3 1 2.</_></rects>
      <tilted>0</tilted></_>
    <_>
      <rects>
        <_>
          9 10 4 1 -1.</_>
        <_>
          11 10 2 1 2.</_></rects>
      <tilted>0</tilted></_>
    <_>
      <rects>
        <_>
          9 10 2 2 -1.</_>
        <_>
          9 11 2 1 2.</_></rects>
      <tilted>0</tilted></_>
    <_>
      <rects>
        <_>
          9 10 3 2 -1.</_>
        <_>
          9 11 3 1 2.</_></rects>
      <tilted>0</tilted></_>
    <_>
      <rects>
        <_>
          9 10 3 3 -1.</_>
        <_>
          9 11 3 1 3.</_></rects>
      <tilted>0</tilted></_>
    <_>
      <rects>
        <_>
          9 10 3 6 -1.</_>
        <_>
          9 12 3 2 3.</_></rects>
      <tilted>0</tilted></_>
    <_>
      <rects>
        <_>
          9 11 2 2 -1.</_>
        <_>
          9 12 2 1 2.</_></rects>
      <tilted>0</tilted></_>
    <_>
      <rects>
        <_>
          10 10 2 1 -1.</_>
        <_>
          11 10 1 1 2.</_></rects>
      <tilted>0</tilted></_>
    <_>
      <rects>
        <_>
          10 10 1 2 -1.</_>
        <_>
          10 11 1 1 2.</_></rects>
      <tilted>0</tilted></_>
    <_>
      <rects>
        <_>
          10 10 2 2 -1.</_>
        <_>
          11 10 1 2 2.</_></rects>
      <tilted>0</tilted></_>
    <_>
      <rects>
        <_>
          10 10 1 4 -1.</_>
        <_>
          10 12 1 2 2.</_></rects>
      <tilted>0</tilted></_>
    <_>
      <rects>
        <_>
          10 10 2 2 -1.</_>
        <_>
          10 11 2 1 2.</_></rects>
      <tilted>0</tilted></_>
    <_>
      <rects>
        <_>
          10 10 6 1 -1.</_>
        <_>
          12 10 2 1 3.</_></rects>
      <tilted>0</tilted></_>
    <_>
      <rects>
        <_>
          11 8 2 4 -1.</_>
        <_>
          11 10 2 2 2.</_></rects>
      <tilted>0</tilted></_>
    <_>
      <rects>
        <_>
          11 9 1 4 -1.</_>
        <_>
          11 11 1 2 2.</_></rects>
      <tilted>0</tilted></_>
    <_>
      <rects>
        <_>
          11 9 2 4 -1.</_>
        <_>
          11 11 2 2 2.</_></rects>
      <tilted>0</tilted></_>
    <_>
      <rects>
        <_>
          11 10 3 2 -1.</_>
        <_>
          12 10 1 2 3.</_></rects>
      <tilted>0</tilted></_>
    <_>
      <rects>
        <_>
          11 11 1 3 -1.</_>
        <_>
          11 12 1 1 3.</_></rects>
      <tilted>0</tilted></_>
    <_>
      <rects>
        <_>
          11 11 4 2 -1.</_>
        <_>
          11 11 2 1 2.</_>
        <_>
          13 12 2 1 2.</_></rects>
      <tilted>0</tilted></_>
    <_>
      <rects>
        <_>
          13 8 1 3 -1.</_>
        <_>
          13 9 1 1 3.</_></rects>
      <tilted>0</tilted></_>
    <_>
      <rects>
        <_>
          15 5 2 6 -1.</_>
        <_>
          15 7 2 2 3.</_></rects>
      <tilted>0</tilted></_>
    <_>
      <rects>
        <_>
          15 8 1 3 -1.</_>
        <_>
          15 9 1 1 3.</_></rects>
      <tilted>0</tilted></_>
    <_>
      <rects>
        <_>
          15 9 1 3 -1.</_>
        <_>
          15 10 1 1 3.</_></rects>
      <tilted>0</tilted></_>
    <_>
      <rects>
        <_>
          15 9 3 4 -1.</_>
        <_>
          15 11 3 2 2.</_></rects>
      <tilted>0</tilted></_>
    <_>
      <rects>
        <_>
          16 5 4 12 -1.</_>
        <_>
          18 5 2 12 2.</_></rects>
      <tilted>0</tilted></_>
    <_>
      <rects>
        <_>
          16 7 1 3 -1.</_>
        <_>
          16 8 1 1 3.</_></rects>
      <tilted>0</tilted></_>
    <_>
      <rects>
        <_>
          17 7 2 11 -1.</_>
        <_>
          18 7 1 11 2.</_></rects>
      <tilted>0</tilted></_></features></cascade>
</opencv_storage>
