<?xml version="1.0"?>
<opencv_storage>
<stage5>
  <maxWeakCount>9</maxWeakCount>
  <stageThreshold>-8.9402425289154053e-01</stageThreshold>
  <weakClassifiers>
    <_>
      <internalNodes>
        0 -1 56994 3.9772409945726395e-04</internalNodes>
      <leafValues>
        -4.1530054807662964e-01 6.6187047958374023e-01</leafValues></_>
    <_>
      <internalNodes>
        0 -1 31799 -5.3316010162234306e-03</internalNodes>
      <leafValues>
        6.7364180088043213e-01 -2.4566695094108582e-01</leafValues></_>
    <_>
      <internalNodes>
        0 -1 54222 -5.8973757550120354e-03</internalNodes>
      <leafValues>
        5.3891003131866455e-01 -3.2146415114402771e-01</leafValues></_>
    <_>
      <internalNodes>
        0 -1 53475 1.6758576384745538e-04</internalNodes>
      <leafValues>
        2.1149319410324097e-01 -7.3830020427703857e-01</leafValues></_>
    <_>
      <internalNodes>
        0 -1 44689 -1.0031595826148987e-02</internalNodes>
      <leafValues>
        6.5455079078674316e-01 -2.4398197233676910e-01</leafValues></_>
    <_>
      <internalNodes>
        0 -1 20962 7.0602372288703918e-02</internalNodes>
      <leafValues>
        -2.1642884612083435e-01 8.2290655374526978e-01</leafValues></_>
    <_>
      <internalNodes>
        0 -1 41695 1.9618044607341290e-03</internalNodes>
      <leafValues>
        -2.8380584716796875e-01 5.0643855333328247e-01</leafValues></_>
    <_>
      <internalNodes>
        0 -1 65062 -3.2542640110477805e-04</internalNodes>
      <leafValues>
        -7.1816164255142212e-01 2.0184305310249329e-01</leafValues></_>
    <_>
      <internalNodes>
        0 -1 76026 2.8735643718391657e-04</internalNodes>
      <leafValues>
        -3.7095656991004944e-01 3.2390248775482178e-01</leafValues></_></weakClassifiers></stage5>
</opencv_storage>
