<?xml version="1.0"?>
<opencv_storage>
<stage5>
  <maxWeakCount>9</maxWeakCount>
  <stageThreshold>-1.1770913600921631e+00</stageThreshold>
  <weakClassifiers>
    <_>
      <internalNodes>
        0 -1 70147 2.4762627435848117e-04</internalNodes>
      <leafValues>
        -5.5633801221847534e-01 6.0917031764984131e-01</leafValues></_>
    <_>
      <internalNodes>
        0 -1 74756 -2.5801203446462750e-04</internalNodes>
      <leafValues>
        -7.2726917266845703e-01 3.5645207762718201e-01</leafValues></_>
    <_>
      <internalNodes>
        0 -1 46709 1.9593931734561920e-02</internalNodes>
      <leafValues>
        -4.4378840923309326e-01 4.7725206613540649e-01</leafValues></_>
    <_>
      <internalNodes>
        0 -1 68122 5.3473478183150291e-03</internalNodes>
      <leafValues>
        -2.7881535887718201e-01 5.8502268791198730e-01</leafValues></_>
    <_>
      <internalNodes>
        0 -1 70734 3.8675326853990555e-02</internalNodes>
      <leafValues>
        -2.8225708007812500e-01 7.0633387565612793e-01</leafValues></_>
    <_>
      <internalNodes>
        0 -1 72682 -3.7031015381217003e-04</internalNodes>
      <leafValues>
        -8.7769186496734619e-01 2.4456697702407837e-01</leafValues></_>
    <_>
      <internalNodes>
        0 -1 72539 -1.8015992827713490e-04</internalNodes>
      <leafValues>
        -8.0385553836822510e-01 1.8505464494228363e-01</leafValues></_>
    <_>
      <internalNodes>
        0 -1 63866 -3.9198101148940623e-04</internalNodes>
      <leafValues>
        -7.3680293560028076e-01 1.7874118685722351e-01</leafValues></_>
    <_>
      <internalNodes>
        0 -1 74838 -2.1634637960232794e-04</internalNodes>
      <leafValues>
        -6.6249442100524902e-01 1.9802708923816681e-01</leafValues></_></weakClassifiers></stage5>
</opencv_storage>
