<?xml version="1.0"?>
<opencv_storage>
<cascade>
  <stageType>BOOST</stageType>
  <featureType>HAAR</featureType>
  <height>20</height>
  <width>20</width>
  <stageParams>
    <boostType>GAB</boostType>
    <minHitRate>9.9500000476837158e-01</minHitRate>
    <maxFalseAlarm>5.0000000000000000e-01</maxFalseAlarm>
    <weightTrimRate>9.4999999999999996e-01</weightTrimRate>
    <maxDepth>1</maxDepth>
    <maxWeakCount>100</maxWeakCount></stageParams>
  <featureParams>
    <maxCatCount>0</maxCatCount>
    <featSize>1</featSize>
    <mode>BASIC</mode></featureParams>
  <stageNum>10</stageNum>
  <stages>
    <!-- stage 0 -->
    <_>
      <maxWeakCount>6</maxWeakCount>
      <stageThreshold>-7.3322999477386475e-01</stageThreshold>
      <weakClassifiers>
        <_>
          <internalNodes>
            0 -1 77 1.3459601905196905e-03</internalNodes>
          <leafValues>
            -4.2386034131050110e-01 8.0107849836349487e-01</leafValues></_>
        <_>
          <internalNodes>
            0 -1 87 1.0869099758565426e-02</internalNodes>
          <leafValues>
            -3.8150936365127563e-01 7.6846081018447876e-01</leafValues></_>
        <_>
          <internalNodes>
            0 -1 10 6.7646345123648643e-03</internalNodes>
          <leafValues>
            -4.8506590723991394e-01 6.6244775056838989e-01</leafValues></_>
        <_>
          <internalNodes>
            0 -1 69 3.6343769170343876e-03</internalNodes>
          <leafValues>
            -4.2061337828636169e-01 6.3097518682479858e-01</leafValues></_>
        <_>
          <internalNodes>
            0 -1 15 -5.2440045401453972e-03</internalNodes>
          <leafValues>
            6.5523844957351685e-01 -4.0583118796348572e-01</leafValues></_>
        <_>
          <internalNodes>
            0 -1 55 -2.3155588656663895e-02</internalNodes>
          <leafValues>
            -8.4705817699432373e-01 3.3206161856651306e-01</leafValues></_></weakClassifiers></_>
    <!-- stage 1 -->
    <_>
      <maxWeakCount>8</maxWeakCount>
      <stageThreshold>-8.5741811990737915e-01</stageThreshold>
      <weakClassifiers>
        <_>
          <internalNodes>
            0 -1 76 6.2073017470538616e-03</internalNodes>
          <leafValues>
            -2.6517039537429810e-01 8.1429523229598999e-01</leafValues></_>
        <_>
          <internalNodes>
            0 -1 90 -2.2748582996428013e-03</internalNodes>
          <leafValues>
            6.7804783582687378e-01 -2.8862583637237549e-01</leafValues></_>
        <_>
          <internalNodes>
            0 -1 39 -1.5349823515862226e-03</internalNodes>
          <leafValues>
            6.1478978395462036e-01 -3.9655420184135437e-01</leafValues></_>
        <_>
          <internalNodes>
            0 -1 71 3.5526440478861332e-03</internalNodes>
          <leafValues>
            -4.8267617821693420e-01 4.8366975784301758e-01</leafValues></_>
        <_>
          <internalNodes>
            0 -1 4 5.6939780712127686e-02</internalNodes>
          <leafValues>
            -3.5937032103538513e-01 5.5765032768249512e-01</leafValues></_>
        <_>
          <internalNodes>
            0 -1 41 -9.6544753760099411e-03</internalNodes>
          <leafValues>
            -8.4462225437164307e-01 2.3458682000637054e-01</leafValues></_>
        <_>
          <internalNodes>
            0 -1 74 -1.9421062897890806e-03</internalNodes>
          <leafValues>
            4.9582484364509583e-01 -3.9053353667259216e-01</leafValues></_>
        <_>
          <internalNodes>
            0 -1 29 3.8007766008377075e-02</internalNodes>
          <leafValues>
            2.0456713438034058e-01 -9.3084543943405151e-01</leafValues></_></weakClassifiers></_>
    <!-- stage 2 -->
    <_>
      <maxWeakCount>11</maxWeakCount>
      <stageThreshold>-1.3620018959045410e+00</stageThreshold>
      <weakClassifiers>
        <_>
          <internalNodes>
            0 -1 78 -2.0528454333543777e-03</internalNodes>
          <leafValues>
            6.7679083347320557e-01 -2.9424083232879639e-01</leafValues></_>
        <_>
          <internalNodes>
            0 -1 19 -1.0153760202229023e-02</internalNodes>
          <leafValues>
            5.5280691385269165e-01 -3.7395635247230530e-01</leafValues></_>
        <_>
          <internalNodes>
            0 -1 91 1.7001952975988388e-02</internalNodes>
          <leafValues>
            -2.9109835624694824e-01 6.7396873235702515e-01</leafValues></_>
        <_>
          <internalNodes>
            0 -1 13 -5.3308433853089809e-03</internalNodes>
          <leafValues>
            5.0087034702301025e-01 -3.6316606402397156e-01</leafValues></_>
        <_>
          <internalNodes>
            0 -1 48 1.2120213359594345e-02</internalNodes>
          <leafValues>
            -3.8991418480873108e-01 4.6106553077697754e-01</leafValues></_>
        <_>
          <internalNodes>
            0 -1 100 -2.0498565863817930e-03</internalNodes>
          <leafValues>
            5.1313042640686035e-01 -3.5877996683120728e-01</leafValues></_>
        <_>
          <internalNodes>
            0 -1 36 2.4697260931134224e-02</internalNodes>
          <leafValues>
            1.9490022957324982e-01 -9.2023748159408569e-01</leafValues></_>
        <_>
          <internalNodes>
            0 -1 56 -1.7106719315052032e-02</internalNodes>
          <leafValues>
            -7.3409247398376465e-01 1.9956311583518982e-01</leafValues></_>
        <_>
          <internalNodes>
            0 -1 64 -2.6578065007925034e-03</internalNodes>
          <leafValues>
            3.8852012157440186e-01 -4.1721808910369873e-01</leafValues></_>
        <_>
          <internalNodes>
            0 -1 7 -7.5684776529669762e-03</internalNodes>
          <leafValues>
            4.4766986370086670e-01 -3.2611167430877686e-01</leafValues></_>
        <_>
          <internalNodes>
            0 -1 63 -5.0842687487602234e-03</internalNodes>
          <leafValues>
            -8.3911579847335815e-01 1.9398389756679535e-01</leafValues></_></weakClassifiers></_>
    <!-- stage 3 -->
    <_>
      <maxWeakCount>9</maxWeakCount>
      <stageThreshold>-8.1124103069305420e-01</stageThreshold>
      <weakClassifiers>
        <_>
          <internalNodes>
            0 -1 87 1.1869779787957668e-02</internalNodes>
          <leafValues>
            -2.1134492754936218e-01 7.0379590988159180e-01</leafValues></_>
        <_>
          <internalNodes>
            0 -1 57 5.7421158999204636e-03</internalNodes>
          <leafValues>
            -4.7639393806457520e-01 4.3844896554946899e-01</leafValues></_>
        <_>
          <internalNodes>
            0 -1 9 5.2627641707658768e-03</internalNodes>
          <leafValues>
            -4.3044245243072510e-01 4.2107182741165161e-01</leafValues></_>
        <_>
          <internalNodes>
            0 -1 6 9.1290220618247986e-02</internalNodes>
          <leafValues>
            -2.3214869201183319e-01 6.2263506650924683e-01</leafValues></_>
        <_>
          <internalNodes>
            0 -1 65 -3.1798509880900383e-03</internalNodes>
          <leafValues>
            3.7769261002540588e-01 -4.4626909494400024e-01</leafValues></_>
        <_>
          <internalNodes>
            0 -1 38 7.7764624729752541e-03</internalNodes>
          <leafValues>
            1.9341540336608887e-01 -7.6768881082534790e-01</leafValues></_>
        <_>
          <internalNodes>
            0 -1 80 1.4149738475680351e-02</internalNodes>
          <leafValues>
            1.5251369774341583e-01 -7.4101710319519043e-01</leafValues></_>
        <_>
          <internalNodes>
            0 -1 11 -1.4514099806547165e-02</internalNodes>
          <leafValues>
            4.6016910672187805e-01 -2.9453769326210022e-01</leafValues></_>
        <_>
          <internalNodes>
            0 -1 88 -1.4015223830938339e-02</internalNodes>
          <leafValues>
            -8.3614718914031982e-01 1.5794771909713745e-01</leafValues></_></weakClassifiers></_>
    <!-- stage 4 -->
    <_>
      <maxWeakCount>10</maxWeakCount>
      <stageThreshold>-7.2321921586990356e-01</stageThreshold>
      <weakClassifiers>
        <_>
          <internalNodes>
            0 -1 77 1.3368001673370600e-03</internalNodes>
          <leafValues>
            -3.4579437971115112e-01 6.4859002828598022e-01</leafValues></_>
        <_>
          <internalNodes>
            0 -1 12 -1.0929131880402565e-02</internalNodes>
          <leafValues>
            4.9263402819633484e-01 -3.4430828690528870e-01</leafValues></_>
        <_>
          <internalNodes>
            0 -1 98 3.9510447531938553e-03</internalNodes>
          <leafValues>
            -3.2377555966377258e-01 4.6811649203300476e-01</leafValues></_>
        <_>
          <internalNodes>
            0 -1 70 4.1537862271070480e-03</internalNodes>
          <leafValues>
            -3.2543489336967468e-01 4.5073342323303223e-01</leafValues></_>
        <_>
          <internalNodes>
            0 -1 14 1.7473122570663691e-03</internalNodes>
          <leafValues>
            -3.6065745353698730e-01 3.9536440372467041e-01</leafValues></_>
        <_>
          <internalNodes>
            0 -1 5 1.0232281684875488e-01</internalNodes>
          <leafValues>
            -2.5398191809654236e-01 5.5983483791351318e-01</leafValues></_>
        <_>
          <internalNodes>
            0 -1 51 -6.2153376638889313e-03</internalNodes>
          <leafValues>
            4.5331361889839172e-01 -3.2389655709266663e-01</leafValues></_>
        <_>
          <internalNodes>
            0 -1 102 1.1995516717433929e-02</internalNodes>
          <leafValues>
            -2.2077158093452454e-01 6.7717474699020386e-01</leafValues></_>
        <_>
          <internalNodes>
            0 -1 43 3.3317245543003082e-02</internalNodes>
          <leafValues>
            1.8565993010997772e-01 -8.7594676017761230e-01</leafValues></_>
        <_>
          <internalNodes>
            0 -1 47 -1.2015049345791340e-02</internalNodes>
          <leafValues>
            -8.1703937053680420e-01 1.4756637811660767e-01</leafValues></_></weakClassifiers></_>
    <!-- stage 5 -->
    <_>
      <maxWeakCount>11</maxWeakCount>
      <stageThreshold>-1.0868049860000610e+00</stageThreshold>
      <weakClassifiers>
        <_>
          <internalNodes>
            0 -1 66 2.2302342113107443e-03</internalNodes>
          <leafValues>
            -1.9056974351406097e-01 6.5041619539260864e-01</leafValues></_>
        <_>
          <internalNodes>
            0 -1 75 1.8440478015691042e-03</internalNodes>
          <leafValues>
            -2.4050071835517883e-01 5.4511225223541260e-01</leafValues></_>
        <_>
          <internalNodes>
            0 -1 60 4.8468699678778648e-03</internalNodes>
          <leafValues>
            -3.9206442236900330e-01 3.9751231670379639e-01</leafValues></_>
        <_>
          <internalNodes>
            0 -1 84 1.5611954033374786e-02</internalNodes>
          <leafValues>
            -2.7128294110298157e-01 5.3176897764205933e-01</leafValues></_>
        <_>
          <internalNodes>
            0 -1 20 -1.1326851323246956e-02</internalNodes>
          <leafValues>
            5.3578990697860718e-01 -2.7551776170730591e-01</leafValues></_>
        <_>
          <internalNodes>
            0 -1 40 -1.3434929773211479e-02</internalNodes>
          <leafValues>
            -8.9224773645401001e-01 1.4522418379783630e-01</leafValues></_>
        <_>
          <internalNodes>
            0 -1 46 -1.4457007870078087e-02</internalNodes>
          <leafValues>
            -7.3462677001953125e-01 1.2551821768283844e-01</leafValues></_>
        <_>
          <internalNodes>
            0 -1 26 2.3746168240904808e-02</internalNodes>
          <leafValues>
            1.3484998047351837e-01 -8.5590767860412598e-01</leafValues></_>
        <_>
          <internalNodes>
            0 -1 100 -2.0137606188654900e-03</internalNodes>
          <leafValues>
            3.7520658969879150e-01 -3.2599115371704102e-01</leafValues></_>
        <_>
          <internalNodes>
            0 -1 68 5.9420047327876091e-03</internalNodes>
          <leafValues>
            -2.0407573878765106e-01 5.5155569314956665e-01</leafValues></_>
        <_>
          <internalNodes>
            0 -1 92 1.9728136248886585e-03</internalNodes>
          <leafValues>
            -3.4802621603012085e-01 4.0659949183464050e-01</leafValues></_></weakClassifiers></_>
    <!-- stage 6 -->
    <_>
      <maxWeakCount>15</maxWeakCount>
      <stageThreshold>-9.9646031856536865e-01</stageThreshold>
      <weakClassifiers>
        <_>
          <internalNodes>
            0 -1 52 -2.1787914447486401e-03</internalNodes>
          <leafValues>
            -6.4606744050979614e-01 4.8208191990852356e-01</leafValues></_>
        <_>
          <internalNodes>
            0 -1 81 1.5384650323539972e-03</internalNodes>
          <leafValues>
            -3.7001457810401917e-01 4.1884207725524902e-01</leafValues></_>
        <_>
          <internalNodes>
            0 -1 8 1.4936977997422218e-02</internalNodes>
          <leafValues>
            -3.5523948073387146e-01 4.4445645809173584e-01</leafValues></_>
        <_>
          <internalNodes>
            0 -1 16 -7.7384384348988533e-03</internalNodes>
          <leafValues>
            3.8573828339576721e-01 -3.4198066592216492e-01</leafValues></_>
        <_>
          <internalNodes>
            0 -1 79 1.3675766065716743e-02</internalNodes>
          <leafValues>
            -4.9775138497352600e-01 2.3958425223827362e-01</leafValues></_>
        <_>
          <internalNodes>
            0 -1 85 -1.9836343824863434e-02</internalNodes>
          <leafValues>
            4.3788504600524902e-01 -2.5796619057655334e-01</leafValues></_>
        <_>
          <internalNodes>
            0 -1 35 6.3081355765461922e-03</internalNodes>
          <leafValues>
            1.6587206721305847e-01 -6.8511867523193359e-01</leafValues></_>
        <_>
          <internalNodes>
            0 -1 36 2.6202686131000519e-02</internalNodes>
          <leafValues>
            6.5976001322269440e-02 -9.6521764993667603e-01</leafValues></_>
        <_>
          <internalNodes>
            0 -1 61 -1.2421311810612679e-02</internalNodes>
          <leafValues>
            3.5806459188461304e-01 -2.8725337982177734e-01</leafValues></_>
        <_>
          <internalNodes>
            0 -1 18 1.0304728522896767e-02</internalNodes>
          <leafValues>
            -2.8013935685157776e-01 3.8342127203941345e-01</leafValues></_>
        <_>
          <internalNodes>
            0 -1 2 1.2098960578441620e-02</internalNodes>
          <leafValues>
            -2.4521961808204651e-01 4.6215480566024780e-01</leafValues></_>
        <_>
          <internalNodes>
            0 -1 45 -1.3243000023066998e-02</internalNodes>
          <leafValues>
            -8.6246693134307861e-01 1.4290834963321686e-01</leafValues></_>
        <_>
          <internalNodes>
            0 -1 94 -1.3047443702816963e-02</internalNodes>
          <leafValues>
            3.7033328413963318e-01 -3.0262041091918945e-01</leafValues></_>
        <_>
          <internalNodes>
            0 -1 21 -8.4518216550350189e-02</internalNodes>
          <leafValues>
            -8.5240030288696289e-01 1.3140976428985596e-01</leafValues></_>
        <_>
          <internalNodes>
            0 -1 72 8.2669816911220551e-03</internalNodes>
          <leafValues>
            -2.7709972858428955e-01 4.0124168992042542e-01</leafValues></_></weakClassifiers></_>
    <!-- stage 7 -->
    <_>
      <maxWeakCount>13</maxWeakCount>
      <stageThreshold>-8.2813876867294312e-01</stageThreshold>
      <weakClassifiers>
        <_>
          <internalNodes>
            0 -1 67 1.0602826951071620e-03</internalNodes>
          <leafValues>
            -1.9053255021572113e-01 5.7196766138076782e-01</leafValues></_>
        <_>
          <internalNodes>
            0 -1 89 -2.0511546172201633e-03</internalNodes>
          <leafValues>
            5.6008452177047729e-01 -2.4292664229869843e-01</leafValues></_>
        <_>
          <internalNodes>
            0 -1 22 -5.6786043569445610e-03</internalNodes>
          <leafValues>
            5.1108980178833008e-01 -2.5324863195419312e-01</leafValues></_>
        <_>
          <internalNodes>
            0 -1 86 2.6400564238429070e-03</internalNodes>
          <leafValues>
            -2.8656965494155884e-01 4.5385688543319702e-01</leafValues></_>
        <_>
          <internalNodes>
            0 -1 93 8.2832258194684982e-03</internalNodes>
          <leafValues>
            -2.4760159850120544e-01 4.6371641755104065e-01</leafValues></_>
        <_>
          <internalNodes>
            0 -1 83 -1.0323524475097656e-03</internalNodes>
          <leafValues>
            3.1759271025657654e-01 -3.4076321125030518e-01</leafValues></_>
        <_>
          <internalNodes>
            0 -1 32 -1.6198238357901573e-02</internalNodes>
          <leafValues>
            -8.4408062696456909e-01 1.6656050086021423e-01</leafValues></_>
        <_>
          <internalNodes>
            0 -1 24 1.5790298581123352e-02</internalNodes>
          <leafValues>
            8.6473904550075531e-02 -7.8757268190383911e-01</leafValues></_>
        <_>
          <internalNodes>
            0 -1 0 3.0539624392986298e-02</internalNodes>
          <leafValues>
            -2.0531998574733734e-01 5.4913699626922607e-01</leafValues></_>
        <_>
          <internalNodes>
            0 -1 92 1.7587715992704034e-03</internalNodes>
          <leafValues>
            -3.3313381671905518e-01 3.3895230293273926e-01</leafValues></_>
        <_>
          <internalNodes>
            0 -1 59 7.0023154839873314e-03</internalNodes>
          <leafValues>
            1.3152924180030823e-01 -7.3295718431472778e-01</leafValues></_>
        <_>
          <internalNodes>
            0 -1 58 -1.3721382245421410e-02</internalNodes>
          <leafValues>
            -8.9998465776443481e-01 9.6041910350322723e-02</leafValues></_>
        <_>
          <internalNodes>
            0 -1 95 4.6929223462939262e-03</internalNodes>
          <leafValues>
            -3.1161859631538391e-01 3.1228101253509521e-01</leafValues></_></weakClassifiers></_>
    <!-- stage 8 -->
    <_>
      <maxWeakCount>14</maxWeakCount>
      <stageThreshold>-1.0569121837615967e+00</stageThreshold>
      <weakClassifiers>
        <_>
          <internalNodes>
            0 -1 27 8.2464860752224922e-03</internalNodes>
          <leafValues>
            4.6661102771759033e-01 -7.1710526943206787e-01</leafValues></_>
        <_>
          <internalNodes>
            0 -1 66 3.2563786953687668e-03</internalNodes>
          <leafValues>
            -3.6572265625000000e-01 3.5299396514892578e-01</leafValues></_>
        <_>
          <internalNodes>
            0 -1 42 4.2359856888651848e-03</internalNodes>
          <leafValues>
            2.0100137591362000e-01 -7.8480291366577148e-01</leafValues></_>
        <_>
          <internalNodes>
            0 -1 19 -1.3530632480978966e-02</internalNodes>
          <leafValues>
            3.3473148941993713e-01 -3.5075116157531738e-01</leafValues></_>
        <_>
          <internalNodes>
            0 -1 101 1.9782608374953270e-02</internalNodes>
          <leafValues>
            -1.8620303273200989e-01 5.7841253280639648e-01</leafValues></_>
        <_>
          <internalNodes>
            0 -1 1 6.1295740306377411e-03</internalNodes>
          <leafValues>
            -2.3021420836448669e-01 4.9916237592697144e-01</leafValues></_>
        <_>
          <internalNodes>
            0 -1 30 -1.6152627766132355e-02</internalNodes>
          <leafValues>
            -8.8249874114990234e-01 1.1069199442863464e-01</leafValues></_>
        <_>
          <internalNodes>
            0 -1 37 6.8508768454194069e-03</internalNodes>
          <leafValues>
            9.0369537472724915e-02 -8.5201704502105713e-01</leafValues></_>
        <_>
          <internalNodes>
            0 -1 3 1.2750165164470673e-01</internalNodes>
          <leafValues>
            -1.9777370989322662e-01 5.4210907220840454e-01</leafValues></_>
        <_>
          <internalNodes>
            0 -1 75 2.2292328067123890e-03</internalNodes>
          <leafValues>
            -2.3035834729671478e-01 4.4918838143348694e-01</leafValues></_>
        <_>
          <internalNodes>
            0 -1 49 1.4503879472613335e-02</internalNodes>
          <leafValues>
            -1.4184422791004181e-01 7.3091638088226318e-01</leafValues></_>
        <_>
          <internalNodes>
            0 -1 82 4.6483119949698448e-03</internalNodes>
          <leafValues>
            -2.7922940254211426e-01 4.2379707098007202e-01</leafValues></_>
        <_>
          <internalNodes>
            0 -1 28 3.2533234916627407e-03</internalNodes>
          <leafValues>
            1.3145011663436890e-01 -6.9201213121414185e-01</leafValues></_>
        <_>
          <internalNodes>
            0 -1 62 -1.0336360894143581e-02</internalNodes>
          <leafValues>
            6.2963771820068359e-01 -1.6905075311660767e-01</leafValues></_></weakClassifiers></_>
    <!-- stage 9 -->
    <_>
      <maxWeakCount>16</maxWeakCount>
      <stageThreshold>-9.6116566658020020e-01</stageThreshold>
      <weakClassifiers>
        <_>
          <internalNodes>
            0 -1 48 2.0656529814004898e-02</internalNodes>
          <leafValues>
            1.0893246158957481e-02 6.6893422603607178e-01</leafValues></_>
        <_>
          <internalNodes>
            0 -1 44 -3.3517249394208193e-03</internalNodes>
          <leafValues>
            4.9539971351623535e-01 -2.2198861837387085e-01</leafValues></_>
        <_>
          <internalNodes>
            0 -1 97 -3.0706892721354961e-03</internalNodes>
          <leafValues>
            3.7970012426376343e-01 -3.3159953355789185e-01</leafValues></_>
        <_>
          <internalNodes>
            0 -1 99 1.7919823527336121e-02</internalNodes>
          <leafValues>
            -2.2159901261329651e-01 5.1995950937271118e-01</leafValues></_>
        <_>
          <internalNodes>
            0 -1 53 4.2932434007525444e-03</internalNodes>
          <leafValues>
            1.3226342201232910e-01 -8.0421876907348633e-01</leafValues></_>
        <_>
          <internalNodes>
            0 -1 31 2.7671505231410265e-03</internalNodes>
          <leafValues>
            -2.2764885425567627e-01 4.1916349530220032e-01</leafValues></_>
        <_>
          <internalNodes>
            0 -1 73 -5.5902689695358276e-02</internalNodes>
          <leafValues>
            -6.9633978605270386e-01 1.3841629028320312e-01</leafValues></_>
        <_>
          <internalNodes>
            0 -1 54 -2.0529194734990597e-03</internalNodes>
          <leafValues>
            -5.5526691675186157e-01 1.7613849043846130e-01</leafValues></_>
        <_>
          <internalNodes>
            0 -1 47 1.3276892714202404e-02</internalNodes>
          <leafValues>
            1.0327095538377762e-01 -7.5043231248855591e-01</leafValues></_>
        <_>
          <internalNodes>
            0 -1 96 8.0250371247529984e-03</internalNodes>
          <leafValues>
            -2.1031635999679565e-01 4.7982269525527954e-01</leafValues></_>
        <_>
          <internalNodes>
            0 -1 34 1.0535372421145439e-02</internalNodes>
          <leafValues>
            -1.0943114757537842e-01 7.2757285833358765e-01</leafValues></_>
        <_>
          <internalNodes>
            0 -1 50 -2.0377705805003643e-03</internalNodes>
          <leafValues>
            3.7541803717613220e-01 -2.2628712654113770e-01</leafValues></_>
        <_>
          <internalNodes>
            0 -1 23 -3.6040013656020164e-03</internalNodes>
          <leafValues>
            -6.3494747877120972e-01 1.4927330613136292e-01</leafValues></_>
        <_>
          <internalNodes>
            0 -1 25 -1.6759350895881653e-02</internalNodes>
          <leafValues>
            -6.7805325984954834e-01 9.4385616481304169e-02</leafValues></_>
        <_>
          <internalNodes>
            0 -1 17 4.3246895074844360e-02</internalNodes>
          <leafValues>
            9.6782445907592773e-02 -8.1971544027328491e-01</leafValues></_>
        <_>
          <internalNodes>
            0 -1 33 6.8916641175746918e-03</internalNodes>
          <leafValues>
            -1.7740386724472046e-01 4.9688139557838440e-01</leafValues></_></weakClassifiers></_></stages>
  <features>
    <_>
      <rects>
        <_>
          0 7 12 2 -1.</_>
        <_>
          6 7 6 2 2.</_></rects>
      <tilted>0</tilted></_>
    <_>
      <rects>
        <_>
          0 12 2 6 -1.</_>
        <_>
          1 12 1 6 2.</_></rects>
      <tilted>0</tilted></_>
    <_>
      <rects>
        <_>
          0 12 6 3 -1.</_>
        <_>
          2 12 2 3 3.</_></rects>
      <tilted>0</tilted></_>
    <_>
      <rects>
        <_>
          1 5 18 5 -1.</_>
        <_>
          7 5 6 5 3.</_></rects>
      <tilted>0</tilted></_>
    <_>
      <rects>
        <_>
          2 4 18 4 -1.</_>
        <_>
          8 4 6 4 3.</_></rects>
      <tilted>0</tilted></_>
    <_>
      <rects>
        <_>
          2 4 18 6 -1.</_>
        <_>
          8 4 6 6 3.</_></rects>
      <tilted>0</tilted></_>
    <_>
      <rects>
        <_>
          2 5 18 4 -1.</_>
        <_>
          8 5 6 4 3.</_></rects>
      <tilted>0</tilted></_>
    <_>
      <rects>
        <_>
          2 11 6 4 -1.</_>
        <_>
          4 11 2 4 3.</_></rects>
      <tilted>0</tilted></_>
    <_>
      <rects>
        <_>
          3 7 9 2 -1.</_>
        <_>
          6 7 3 2 3.</_></rects>
      <tilted>0</tilted></_>
    <_>
      <rects>
        <_>
          4 8 6 1 -1.</_>
        <_>
          6 8 2 1 3.</_></rects>
      <tilted>0</tilted></_>
    <_>
      <rects>
        <_>
          4 8 6 2 -1.</_>
        <_>
          6 8 2 2 3.</_></rects>
      <tilted>0</tilted></_>
    <_>
      <rects>
        <_>
          4 18 10 2 -1.</_>
        <_>
          4 19 10 1 2.</_></rects>
      <tilted>0</tilted></_>
    <_>
      <rects>
        <_>
          4 18 13 2 -1.</_>
        <_>
          4 19 13 1 2.</_></rects>
      <tilted>0</tilted></_>
    <_>
      <rects>
        <_>
          5 7 4 4 -1.</_>
        <_>
          5 7 2 2 2.</_>
        <_>
          7 9 2 2 2.</_></rects>
      <tilted>0</tilted></_>
    <_>
      <rects>
        <_>
          5 9 3 1 -1.</_>
        <_>
          6 9 1 1 3.</_></rects>
      <tilted>0</tilted></_>
    <_>
      <rects>
        <_>
          5 9 6 1 -1.</_>
        <_>
          7 9 2 1 3.</_></rects>
      <tilted>0</tilted></_>
    <_>
      <rects>
        <_>
          5 9 6 2 -1.</_>
        <_>
          7 9 2 2 3.</_></rects>
      <tilted>0</tilted></_>
    <_>
      <rects>
        <_>
          5 9 6 9 -1.</_>
        <_>
          5 12 6 3 3.</_></rects>
      <tilted>0</tilted></_>
    <_>
      <rects>
        <_>
          5 15 5 4 -1.</_>
        <_>
          5 17 5 2 2.</_></rects>
      <tilted>0</tilted></_>
    <_>
      <rects>
        <_>
          5 18 11 2 -1.</_>
        <_>
          5 19 11 1 2.</_></rects>
      <tilted>0</tilted></_>
    <_>
      <rects>
        <_>
          6 6 4 4 -1.</_>
        <_>
          6 6 2 2 2.</_>
        <_>
          8 8 2 2 2.</_></rects>
      <tilted>0</tilted></_>
    <_>
      <rects>
        <_>
          6 6 9 12 -1.</_>
        <_>
          6 10 9 4 3.</_></rects>
      <tilted>0</tilted></_>
    <_>
      <rects>
        <_>
          6 7 2 4 -1.</_>
        <_>
          6 7 1 2 2.</_>
        <_>
          7 9 1 2 2.</_></rects>
      <tilted>0</tilted></_>
    <_>
      <rects>
        <_>
          6 7 3 3 -1.</_>
        <_>
          6 8 3 1 3.</_></rects>
      <tilted>0</tilted></_>
    <_>
      <rects>
        <_>
          6 7 6 9 -1.</_>
        <_>
          9 7 3 9 2.</_></rects>
      <tilted>0</tilted></_>
    <_>
      <rects>
        <_>
          6 8 3 9 -1.</_>
        <_>
          6 11 3 3 3.</_></rects>
      <tilted>0</tilted></_>
    <_>
      <rects>
        <_>
          6 8 8 5 -1.</_>
        <_>
          10 8 4 5 2.</_></rects>
      <tilted>0</tilted></_>
    <_>
      <rects>
        <_>
          6 8 8 4 -1.</_>
        <_>
          6 10 8 2 2.</_></rects>
      <tilted>0</tilted></_>
    <_>
      <rects>
        <_>
          6 9 3 3 -1.</_>
        <_>
          6 10 3 1 3.</_></rects>
      <tilted>0</tilted></_>
    <_>
      <rects>
        <_>
          6 9 8 8 -1.</_>
        <_>
          10 9 4 8 2.</_></rects>
      <tilted>0</tilted></_>
    <_>
      <rects>
        <_>
          6 10 8 6 -1.</_>
        <_>
          6 10 4 3 2.</_>
        <_>
          10 13 4 3 2.</_></rects>
      <tilted>0</tilted></_>
    <_>
      <rects>
        <_>
          6 11 3 1 -1.</_>
        <_>
          7 11 1 1 3.</_></rects>
      <tilted>0</tilted></_>
    <_>
      <rects>
        <_>
          6 13 8 4 -1.</_>
        <_>
          10 13 4 4 2.</_></rects>
      <tilted>0</tilted></_>
    <_>
      <rects>
        <_>
          6 15 8 2 -1.</_>
        <_>
          6 15 4 1 2.</_>
        <_>
          10 16 4 1 2.</_></rects>
      <tilted>0</tilted></_>
    <_>
      <rects>
        <_>
          7 6 2 6 -1.</_>
        <_>
          7 6 1 3 2.</_>
        <_>
          8 9 1 3 2.</_></rects>
      <tilted>0</tilted></_>
    <_>
      <rects>
        <_>
          7 6 7 3 -1.</_>
        <_>
          7 7 7 1 3.</_></rects>
      <tilted>0</tilted></_>
    <_>
      <rects>
        <_>
          7 7 4 10 -1.</_>
        <_>
          7 12 4 5 2.</_></rects>
      <tilted>0</tilted></_>
    <_>
      <rects>
        <_>
          7 7 7 2 -1.</_>
        <_>
          7 8 7 1 2.</_></rects>
      <tilted>0</tilted></_>
    <_>
      <rects>
        <_>
          7 7 7 4 -1.</_>
        <_>
          7 9 7 2 2.</_></rects>
      <tilted>0</tilted></_>
    <_>
      <rects>
        <_>
          7 8 2 1 -1.</_>
        <_>
          8 8 1 1 2.</_></rects>
      <tilted>0</tilted></_>
    <_>
      <rects>
        <_>
          7 8 3 8 -1.</_>
        <_>
          7 12 3 4 2.</_></rects>
      <tilted>0</tilted></_>
    <_>
      <rects>
        <_>
          7 8 8 5 -1.</_>
        <_>
          11 8 4 5 2.</_></rects>
      <tilted>0</tilted></_>
    <_>
      <rects>
        <_>
          7 8 7 2 -1.</_>
        <_>
          7 9 7 1 2.</_></rects>
      <tilted>0</tilted></_>
    <_>
      <rects>
        <_>
          7 8 7 10 -1.</_>
        <_>
          7 13 7 5 2.</_></rects>
      <tilted>0</tilted></_>
    <_>
      <rects>
        <_>
          7 9 3 1 -1.</_>
        <_>
          8 9 1 1 3.</_></rects>
      <tilted>0</tilted></_>
    <_>
      <rects>
        <_>
          7 9 3 8 -1.</_>
        <_>
          7 13 3 4 2.</_></rects>
      <tilted>0</tilted></_>
    <_>
      <rects>
        <_>
          7 9 8 8 -1.</_>
        <_>
          11 9 4 8 2.</_></rects>
      <tilted>0</tilted></_>
    <_>
      <rects>
        <_>
          7 13 6 4 -1.</_>
        <_>
          9 13 2 4 3.</_></rects>
      <tilted>0</tilted></_>
    <_>
      <rects>
        <_>
          8 2 5 6 -1.</_>
        <_>
          8 4 5 2 3.</_></rects>
      <tilted>0</tilted></_>
    <_>
      <rects>
        <_>
          8 4 4 4 -1.</_>
        <_>
          8 4 2 2 2.</_>
        <_>
          10 6 2 2 2.</_></rects>
      <tilted>0</tilted></_>
    <_>
      <rects>
        <_>
          8 6 2 2 -1.</_>
        <_>
          8 6 1 1 2.</_>
        <_>
          9 7 1 1 2.</_></rects>
      <tilted>0</tilted></_>
    <_>
      <rects>
        <_>
          8 7 6 1 -1.</_>
        <_>
          10 7 2 1 3.</_></rects>
      <tilted>0</tilted></_>
    <_>
      <rects>
        <_>
          8 7 6 3 -1.</_>
        <_>
          11 7 3 3 2.</_></rects>
      <tilted>0</tilted></_>
    <_>
      <rects>
        <_>
          8 7 5 2 -1.</_>
        <_>
          8 8 5 1 2.</_></rects>
      <tilted>0</tilted></_>
    <_>
      <rects>
        <_>
          8 8 2 10 -1.</_>
        <_>
          8 13 2 5 2.</_></rects>
      <tilted>0</tilted></_>
    <_>
      <rects>
        <_>
          8 8 5 10 -1.</_>
        <_>
          8 13 5 5 2.</_></rects>
      <tilted>0</tilted></_>
    <_>
      <rects>
        <_>
          8 8 6 10 -1.</_>
        <_>
          8 13 6 5 2.</_></rects>
      <tilted>0</tilted></_>
    <_>
      <rects>
        <_>
          8 11 5 6 -1.</_>
        <_>
          8 13 5 2 3.</_></rects>
      <tilted>0</tilted></_>
    <_>
      <rects>
        <_>
          8 13 6 2 -1.</_>
        <_>
          10 13 2 2 3.</_></rects>
      <tilted>0</tilted></_>
    <_>
      <rects>
        <_>
          8 14 4 3 -1.</_>
        <_>
          10 14 2 3 2.</_></rects>
      <tilted>0</tilted></_>
    <_>
      <rects>
        <_>
          8 16 3 3 -1.</_>
        <_>
          8 17 3 1 3.</_></rects>
      <tilted>0</tilted></_>
    <_>
      <rects>
        <_>
          8 16 5 4 -1.</_>
        <_>
          8 18 5 2 2.</_></rects>
      <tilted>0</tilted></_>
    <_>
      <rects>
        <_>
          9 4 4 4 -1.</_>
        <_>
          9 4 2 2 2.</_>
        <_>
          11 6 2 2 2.</_></rects>
      <tilted>0</tilted></_>
    <_>
      <rects>
        <_>
          9 6 2 5 -1.</_>
        <_>
          10 6 1 5 2.</_></rects>
      <tilted>0</tilted></_>
    <_>
      <rects>
        <_>
          9 6 2 2 -1.</_>
        <_>
          9 7 2 1 2.</_></rects>
      <tilted>0</tilted></_>
    <_>
      <rects>
        <_>
          9 6 3 3 -1.</_>
        <_>
          9 7 3 1 3.</_></rects>
      <tilted>0</tilted></_>
    <_>
      <rects>
        <_>
          9 8 3 2 -1.</_>
        <_>
          9 9 3 1 2.</_></rects>
      <tilted>0</tilted></_>
    <_>
      <rects>
        <_>
          9 9 3 1 -1.</_>
        <_>
          10 9 1 1 3.</_></rects>
      <tilted>0</tilted></_>
    <_>
      <rects>
        <_>
          9 9 3 3 -1.</_>
        <_>
          9 10 3 1 3.</_></rects>
      <tilted>0</tilted></_>
    <_>
      <rects>
        <_>
          9 16 2 3 -1.</_>
        <_>
          9 17 2 1 3.</_></rects>
      <tilted>0</tilted></_>
    <_>
      <rects>
        <_>
          9 16 3 2 -1.</_>
        <_>
          9 17 3 1 2.</_></rects>
      <tilted>0</tilted></_>
    <_>
      <rects>
        <_>
          9 16 3 3 -1.</_>
        <_>
          9 17 3 1 3.</_></rects>
      <tilted>0</tilted></_>
    <_>
      <rects>
        <_>
          10 3 1 6 -1.</_>
        <_>
          10 5 1 2 3.</_></rects>
      <tilted>0</tilted></_>
    <_>
      <rects>
        <_>
          10 5 4 15 -1.</_>
        <_>
          10 10 4 5 3.</_></rects>
      <tilted>0</tilted></_>
    <_>
      <rects>
        <_>
          10 6 1 2 -1.</_>
        <_>
          10 7 1 1 2.</_></rects>
      <tilted>0</tilted></_>
    <_>
      <rects>
        <_>
          10 7 1 2 -1.</_>
        <_>
          10 8 1 1 2.</_></rects>
      <tilted>0</tilted></_>
    <_>
      <rects>
        <_>
          10 7 6 1 -1.</_>
        <_>
          12 7 2 1 3.</_></rects>
      <tilted>0</tilted></_>
    <_>
      <rects>
        <_>
          10 8 1 3 -1.</_>
        <_>
          10 9 1 1 3.</_></rects>
      <tilted>0</tilted></_>
    <_>
      <rects>
        <_>
          10 8 4 2 -1.</_>
        <_>
          10 8 2 1 2.</_>
        <_>
          12 9 2 1 2.</_></rects>
      <tilted>0</tilted></_>
    <_>
      <rects>
        <_>
          10 8 9 3 -1.</_>
        <_>
          13 8 3 3 3.</_></rects>
      <tilted>0</tilted></_>
    <_>
      <rects>
        <_>
          10 9 5 8 -1.</_>
        <_>
          10 13 5 4 2.</_></rects>
      <tilted>0</tilted></_>
    <_>
      <rects>
        <_>
          10 10 4 2 -1.</_>
        <_>
          10 10 2 1 2.</_>
        <_>
          12 11 2 1 2.</_></rects>
      <tilted>0</tilted></_>
    <_>
      <rects>
        <_>
          10 16 3 2 -1.</_>
        <_>
          10 17 3 1 2.</_></rects>
      <tilted>0</tilted></_>
    <_>
      <rects>
        <_>
          10 17 1 2 -1.</_>
        <_>
          10 18 1 1 2.</_></rects>
      <tilted>0</tilted></_>
    <_>
      <rects>
        <_>
          11 5 4 6 -1.</_>
        <_>
          11 5 2 3 2.</_>
        <_>
          13 8 2 3 2.</_></rects>
      <tilted>0</tilted></_>
    <_>
      <rects>
        <_>
          11 5 6 4 -1.</_>
        <_>
          14 5 3 4 2.</_></rects>
      <tilted>0</tilted></_>
    <_>
      <rects>
        <_>
          11 8 2 1 -1.</_>
        <_>
          12 8 1 1 2.</_></rects>
      <tilted>0</tilted></_>
    <_>
      <rects>
        <_>
          11 8 6 2 -1.</_>
        <_>
          13 8 2 2 3.</_></rects>
      <tilted>0</tilted></_>
    <_>
      <rects>
        <_>
          11 8 3 8 -1.</_>
        <_>
          11 12 3 4 2.</_></rects>
      <tilted>0</tilted></_>
    <_>
      <rects>
        <_>
          11 9 2 1 -1.</_>
        <_>
          12 9 1 1 2.</_></rects>
      <tilted>0</tilted></_>
    <_>
      <rects>
        <_>
          11 9 3 1 -1.</_>
        <_>
          12 9 1 1 3.</_></rects>
      <tilted>0</tilted></_>
    <_>
      <rects>
        <_>
          12 6 4 6 -1.</_>
        <_>
          12 6 2 3 2.</_>
        <_>
          14 9 2 3 2.</_></rects>
      <tilted>0</tilted></_>
    <_>
      <rects>
        <_>
          12 8 2 1 -1.</_>
        <_>
          13 8 1 1 2.</_></rects>
      <tilted>0</tilted></_>
    <_>
      <rects>
        <_>
          12 10 6 1 -1.</_>
        <_>
          14 10 2 1 3.</_></rects>
      <tilted>0</tilted></_>
    <_>
      <rects>
        <_>
          12 11 6 6 -1.</_>
        <_>
          14 11 2 6 3.</_></rects>
      <tilted>0</tilted></_>
    <_>
      <rects>
        <_>
          12 15 3 4 -1.</_>
        <_>
          12 17 3 2 2.</_></rects>
      <tilted>0</tilted></_>
    <_>
      <rects>
        <_>
          12 17 2 3 -1.</_>
        <_>
          12 18 2 1 3.</_></rects>
      <tilted>0</tilted></_>
    <_>
      <rects>
        <_>
          13 7 2 2 -1.</_>
        <_>
          14 7 1 2 2.</_></rects>
      <tilted>0</tilted></_>
    <_>
      <rects>
        <_>
          13 7 2 4 -1.</_>
        <_>
          13 7 1 2 2.</_>
        <_>
          14 9 1 2 2.</_></rects>
      <tilted>0</tilted></_>
    <_>
      <rects>
        <_>
          13 10 6 2 -1.</_>
        <_>
          15 10 2 2 3.</_></rects>
      <tilted>0</tilted></_>
    <_>
      <rects>
        <_>
          13 11 2 2 -1.</_>
        <_>
          14 11 1 2 2.</_></rects>
      <tilted>0</tilted></_>
    <_>
      <rects>
        <_>
          15 9 4 6 -1.</_>
        <_>
          15 9 2 3 2.</_>
        <_>
          17 12 2 3 2.</_></rects>
      <tilted>0</tilted></_>
    <_>
      <rects>
        <_>
          15 10 4 4 -1.</_>
        <_>
          15 10 2 2 2.</_>
        <_>
          17 12 2 2 2.</_></rects>
      <tilted>0</tilted></_></features></cascade>
</opencv_storage>
