<?xml version="1.0"?>
<opencv_storage>
<cascade>
  <stageType>BOOST</stageType>
  <featureType>HAAR</featureType>
  <height>20</height>
  <width>20</width>
  <stageParams>
    <boostType>GAB</boostType>
    <minHitRate>9.9500000476837158e-01</minHitRate>
    <maxFalseAlarm>5.0000000000000000e-01</maxFalseAlarm>
    <weightTrimRate>9.4999999999999996e-01</weightTrimRate>
    <maxDepth>1</maxDepth>
    <maxWeakCount>100</maxWeakCount></stageParams>
  <featureParams>
    <maxCatCount>0</maxCatCount>
    <featSize>1</featSize>
    <mode>BASIC</mode></featureParams>
  <stageNum>8</stageNum>
  <stages>
    <!-- stage 0 -->
    <_>
      <maxWeakCount>2</maxWeakCount>
      <stageThreshold>-1.2810908257961273e-01</stageThreshold>
      <weakClassifiers>
        <_>
          <internalNodes>
            0 -1 13 -5.3984232246875763e-02</internalNodes>
          <leafValues>
            9.2265796661376953e-01 -9.1898149251937866e-01</leafValues></_>
        <_>
          <internalNodes>
            0 -1 8 -3.0229156836867332e-02</internalNodes>
          <leafValues>
            7.9087239503860474e-01 -8.9163303375244141e-01</leafValues></_></weakClassifiers></_>
    <!-- stage 1 -->
    <_>
      <maxWeakCount>2</maxWeakCount>
      <stageThreshold>-2.3152701556682587e-01</stageThreshold>
      <weakClassifiers>
        <_>
          <internalNodes>
            0 -1 17 2.9043193906545639e-02</internalNodes>
          <leafValues>
            -9.3774318695068359e-01 8.4136855602264404e-01</leafValues></_>
        <_>
          <internalNodes>
            0 -1 10 -8.8355623185634613e-02</internalNodes>
          <leafValues>
            7.0621615648269653e-01 -7.7135455608367920e-01</leafValues></_></weakClassifiers></_>
    <!-- stage 2 -->
    <_>
      <maxWeakCount>3</maxWeakCount>
      <stageThreshold>-1.0544537305831909e+00</stageThreshold>
      <weakClassifiers>
        <_>
          <internalNodes>
            0 -1 3 -1.6084533184766769e-02</internalNodes>
          <leafValues>
            7.6701968908309937e-01 -8.6610877513885498e-01</leafValues></_>
        <_>
          <internalNodes>
            0 -1 2 -1.4364523813128471e-02</internalNodes>
          <leafValues>
            6.0216861963272095e-01 -7.6556128263473511e-01</leafValues></_>
        <_>
          <internalNodes>
            0 -1 19 -3.5758193582296371e-02</internalNodes>
          <leafValues>
            5.7721638679504395e-01 -7.0512294769287109e-01</leafValues></_></weakClassifiers></_>
    <!-- stage 3 -->
    <_>
      <maxWeakCount>3</maxWeakCount>
      <stageThreshold>2.9644899070262909e-02</stageThreshold>
      <weakClassifiers>
        <_>
          <internalNodes>
            0 -1 4 -1.5931393951177597e-02</internalNodes>
          <leafValues>
            6.6650921106338501e-01 -8.7650084495544434e-01</leafValues></_>
        <_>
          <internalNodes>
            0 -1 9 -4.7074981033802032e-02</internalNodes>
          <leafValues>
            5.3375059366226196e-01 -7.9998809099197388e-01</leafValues></_>
        <_>
          <internalNodes>
            0 -1 7 -5.4113408550620079e-03</internalNodes>
          <leafValues>
            -9.5923060178756714e-01 3.7239515781402588e-01</leafValues></_></weakClassifiers></_>
    <!-- stage 4 -->
    <_>
      <maxWeakCount>4</maxWeakCount>
      <stageThreshold>-6.4908969402313232e-01</stageThreshold>
      <weakClassifiers>
        <_>
          <internalNodes>
            0 -1 20 7.7615957707166672e-03</internalNodes>
          <leafValues>
            -6.9209808111190796e-01 7.1617496013641357e-01</leafValues></_>
        <_>
          <internalNodes>
            0 -1 1 -9.7415875643491745e-03</internalNodes>
          <leafValues>
            5.8869063854217529e-01 -6.9187504053115845e-01</leafValues></_>
        <_>
          <internalNodes>
            0 -1 12 -3.2745156204327941e-04</internalNodes>
          <leafValues>
            3.7000244855880737e-01 -9.3797516822814941e-01</leafValues></_>
        <_>
          <internalNodes>
            0 -1 11 -2.3989137262105942e-03</internalNodes>
          <leafValues>
            -9.6650886535644531e-01 3.6488100886344910e-01</leafValues></_></weakClassifiers></_>
    <!-- stage 5 -->
    <_>
      <maxWeakCount>1</maxWeakCount>
      <stageThreshold>6.4151805639266968e-01</stageThreshold>
      <weakClassifiers>
        <_>
          <internalNodes>
            0 -1 5 -8.7829362601041794e-03</internalNodes>
          <leafValues>
            6.4151805639266968e-01 -9.8050683736801147e-01</leafValues></_></weakClassifiers></_>
    <!-- stage 6 -->
    <_>
      <maxWeakCount>3</maxWeakCount>
      <stageThreshold>-1.9403620064258575e-01</stageThreshold>
      <weakClassifiers>
        <_>
          <internalNodes>
            0 -1 14 5.2983192726969719e-03</internalNodes>
          <leafValues>
            6.4624595642089844e-01 -9.5085066556930542e-01</leafValues></_>
        <_>
          <internalNodes>
            0 -1 16 2.5182436729664914e-05</internalNodes>
          <leafValues>
            4.0747416019439697e-01 -9.2427736520767212e-01</leafValues></_>
        <_>
          <internalNodes>
            0 -1 6 -8.8503590086475015e-04</internalNodes>
          <leafValues>
            -9.1555708646774292e-01 3.4934031963348389e-01</leafValues></_></weakClassifiers></_>
    <!-- stage 7 -->
    <_>
      <maxWeakCount>4</maxWeakCount>
      <stageThreshold>-4.6307969093322754e-01</stageThreshold>
      <weakClassifiers>
        <_>
          <internalNodes>
            0 -1 21 1.5193216968327761e-03</internalNodes>
          <leafValues>
            6.0035759210586548e-01 -9.5680344104766846e-01</leafValues></_>
        <_>
          <internalNodes>
            0 -1 15 5.2566877566277981e-03</internalNodes>
          <leafValues>
            4.4751077890396118e-01 -9.3081206083297729e-01</leafValues></_>
        <_>
          <internalNodes>
            0 -1 0 2.5254117324948311e-02</internalNodes>
          <leafValues>
            -5.2973175048828125e-01 7.1720039844512939e-01</leafValues></_>
        <_>
          <internalNodes>
            0 -1 18 -1.3060280121862888e-02</internalNodes>
          <leafValues>
            3.9710646867752075e-01 -8.5865384340286255e-01</leafValues></_></weakClassifiers></_></stages>
  <features>
    <_>
      <rects>
        <_>
          0 7 6 6 -1.</_>
        <_>
          2 7 2 6 3.</_></rects>
      <tilted>0</tilted></_>
    <_>
      <rects>
        <_>
          3 5 6 2 -1.</_>
        <_>
          6 5 3 2 2.</_></rects>
      <tilted>0</tilted></_>
    <_>
      <rects>
        <_>
          3 5 15 1 -1.</_>
        <_>
          8 5 5 1 3.</_></rects>
      <tilted>0</tilted></_>
    <_>
      <rects>
        <_>
          3 13 15 3 -1.</_>
        <_>
          8 13 5 3 3.</_></rects>
      <tilted>0</tilted></_>
    <_>
      <rects>
        <_>
          4 4 6 12 -1.</_>
        <_>
          7 4 3 12 2.</_></rects>
      <tilted>0</tilted></_>
    <_>
      <rects>
        <_>
          4 5 9 10 -1.</_>
        <_>
          7 5 3 10 3.</_></rects>
      <tilted>0</tilted></_>
    <_>
      <rects>
        <_>
          5 7 2 7 -1.</_>
        <_>
          6 7 1 7 2.</_></rects>
      <tilted>0</tilted></_>
    <_>
      <rects>
        <_>
          5 7 4 7 -1.</_>
        <_>
          7 7 2 7 2.</_></rects>
      <tilted>0</tilted></_>
    <_>
      <rects>
        <_>
          6 11 8 6 -1.</_>
        <_>
          6 13 8 2 3.</_></rects>
      <tilted>0</tilted></_>
    <_>
      <rects>
        <_>
          6 11 10 6 -1.</_>
        <_>
          6 13 10 2 3.</_></rects>
      <tilted>0</tilted></_>
    <_>
      <rects>
        <_>
          7 2 7 9 -1.</_>
        <_>
          7 5 7 3 3.</_></rects>
      <tilted>0</tilted></_>
    <_>
      <rects>
        <_>
          7 6 2 9 -1.</_>
        <_>
          8 6 1 9 2.</_></rects>
      <tilted>0</tilted></_>
    <_>
      <rects>
        <_>
          7 7 2 8 -1.</_>
        <_>
          8 7 1 8 2.</_></rects>
      <tilted>0</tilted></_>
    <_>
      <rects>
        <_>
          8 3 5 9 -1.</_>
        <_>
          8 6 5 3 3.</_></rects>
      <tilted>0</tilted></_>
    <_>
      <rects>
        <_>
          8 5 4 10 -1.</_>
        <_>
          10 5 2 10 2.</_></rects>
      <tilted>0</tilted></_>
    <_>
      <rects>
        <_>
          8 8 9 8 -1.</_>
        <_>
          11 8 3 8 3.</_></rects>
      <tilted>0</tilted></_>
    <_>
      <rects>
        <_>
          9 4 6 4 -1.</_>
        <_>
          9 4 3 2 2.</_>
        <_>
          12 6 3 2 2.</_></rects>
      <tilted>0</tilted></_>
    <_>
      <rects>
        <_>
          9 5 3 8 -1.</_>
        <_>
          9 9 3 4 2.</_></rects>
      <tilted>0</tilted></_>
    <_>
      <rects>
        <_>
          10 3 1 9 -1.</_>
        <_>
          10 6 1 3 3.</_></rects>
      <tilted>0</tilted></_>
    <_>
      <rects>
        <_>
          10 10 3 9 -1.</_>
        <_>
          10 13 3 3 3.</_></rects>
      <tilted>0</tilted></_>
    <_>
      <rects>
        <_>
          12 5 6 3 -1.</_>
        <_>
          15 5 3 3 2.</_></rects>
      <tilted>0</tilted></_>
    <_>
      <rects>
        <_>
          12 7 4 7 -1.</_>
        <_>
          14 7 2 7 2.</_></rects>
      <tilted>0</tilted></_></features></cascade>
</opencv_storage>
