<?xml version="1.0"?>
<opencv_storage>
<cascade>
  <stageType>BOOST</stageType>
  <featureType>HAAR</featureType>
  <height>20</height>
  <width>20</width>
  <stageParams>
    <boostType>GAB</boostType>
    <minHitRate>9.9500000476837158e-01</minHitRate>
    <maxFalseAlarm>5.0000000000000000e-01</maxFalseAlarm>
    <weightTrimRate>9.4999999999999996e-01</weightTrimRate>
    <maxDepth>1</maxDepth>
    <maxWeakCount>100</maxWeakCount></stageParams>
  <featureParams>
    <maxCatCount>0</maxCatCount>
    <featSize>1</featSize>
    <mode>BASIC</mode></featureParams>
  <stageNum>10</stageNum>
  <stages>
    <!-- stage 0 -->
    <_>
      <maxWeakCount>6</maxWeakCount>
      <stageThreshold>-9.8141962289810181e-01</stageThreshold>
      <weakClassifiers>
        <_>
          <internalNodes>
            0 -1 55 7.5640267459675670e-04</internalNodes>
          <leafValues>
            -6.6047090291976929e-01 7.5699949264526367e-01</leafValues></_>
        <_>
          <internalNodes>
            0 -1 17 5.6198714300990105e-03</internalNodes>
          <leafValues>
            -8.4774476289749146e-01 5.1717174053192139e-01</leafValues></_>
        <_>
          <internalNodes>
            0 -1 75 -3.2254029065370560e-03</internalNodes>
          <leafValues>
            6.3700139522552490e-01 -5.2257478237152100e-01</leafValues></_>
        <_>
          <internalNodes>
            0 -1 33 -8.1620570272207260e-03</internalNodes>
          <leafValues>
            7.3669672012329102e-01 -3.9438182115554810e-01</leafValues></_>
        <_>
          <internalNodes>
            0 -1 29 -1.4366495888680220e-03</internalNodes>
          <leafValues>
            7.6691490411758423e-01 -4.2940884828567505e-01</leafValues></_>
        <_>
          <internalNodes>
            0 -1 70 1.4152033254504204e-03</internalNodes>
          <leafValues>
            -3.7476134300231934e-01 6.7683768272399902e-01</leafValues></_></weakClassifiers></_>
    <!-- stage 1 -->
    <_>
      <maxWeakCount>6</maxWeakCount>
      <stageThreshold>-6.1413758993148804e-01</stageThreshold>
      <weakClassifiers>
        <_>
          <internalNodes>
            0 -1 52 6.2745353206992149e-03</internalNodes>
          <leafValues>
            -2.3934426903724670e-01 8.0540537834167480e-01</leafValues></_>
        <_>
          <internalNodes>
            0 -1 63 7.8192260116338730e-04</internalNodes>
          <leafValues>
            -6.3823217153549194e-01 5.3626406192779541e-01</leafValues></_>
        <_>
          <internalNodes>
            0 -1 13 3.0556172132492065e-02</internalNodes>
          <leafValues>
            -5.6906408071517944e-01 4.5335656404495239e-01</leafValues></_>
        <_>
          <internalNodes>
            0 -1 45 1.9563557580113411e-03</internalNodes>
          <leafValues>
            -5.6679856777191162e-01 3.9512833952903748e-01</leafValues></_>
        <_>
          <internalNodes>
            0 -1 28 1.5861084684729576e-02</internalNodes>
          <leafValues>
            2.1143767237663269e-01 -9.1932457685470581e-01</leafValues></_>
        <_>
          <internalNodes>
            0 -1 46 -2.0432101562619209e-02</internalNodes>
          <leafValues>
            -9.7455316781997681e-01 1.8220290541648865e-01</leafValues></_></weakClassifiers></_>
    <!-- stage 2 -->
    <_>
      <maxWeakCount>8</maxWeakCount>
      <stageThreshold>-1.0908061265945435e+00</stageThreshold>
      <weakClassifiers>
        <_>
          <internalNodes>
            0 -1 45 1.3688298640772700e-03</internalNodes>
          <leafValues>
            -5.2682256698608398e-01 6.5027874708175659e-01</leafValues></_>
        <_>
          <internalNodes>
            0 -1 68 6.8457210436463356e-03</internalNodes>
          <leafValues>
            -3.7762737274169922e-01 6.3493782281875610e-01</leafValues></_>
        <_>
          <internalNodes>
            0 -1 51 1.2620865600183606e-03</internalNodes>
          <leafValues>
            -3.9505955576896667e-01 5.7338929176330566e-01</leafValues></_>
        <_>
          <internalNodes>
            0 -1 9 -1.1439641937613487e-02</internalNodes>
          <leafValues>
            6.0009306669235229e-01 -3.7487873435020447e-01</leafValues></_>
        <_>
          <internalNodes>
            0 -1 4 -2.7150914072990417e-02</internalNodes>
          <leafValues>
            4.3437188863754272e-01 -4.9099442362785339e-01</leafValues></_>
        <_>
          <internalNodes>
            0 -1 48 5.8683720417320728e-03</internalNodes>
          <leafValues>
            -3.1382840871810913e-01 6.0910409688949585e-01</leafValues></_>
        <_>
          <internalNodes>
            0 -1 6 1.0306366020813584e-03</internalNodes>
          <leafValues>
            -7.2437608242034912e-01 2.2396376729011536e-01</leafValues></_>
        <_>
          <internalNodes>
            0 -1 18 6.4621537923812866e-02</internalNodes>
          <leafValues>
            1.9599233567714691e-01 -8.5590398311614990e-01</leafValues></_></weakClassifiers></_>
    <!-- stage 3 -->
    <_>
      <maxWeakCount>7</maxWeakCount>
      <stageThreshold>-6.8738758563995361e-01</stageThreshold>
      <weakClassifiers>
        <_>
          <internalNodes>
            0 -1 32 5.4513197392225266e-03</internalNodes>
          <leafValues>
            5.2086955308914185e-01 -7.4500000476837158e-01</leafValues></_>
        <_>
          <internalNodes>
            0 -1 44 1.2766693718731403e-02</internalNodes>
          <leafValues>
            -3.9232370257377625e-01 6.0749715566635132e-01</leafValues></_>
        <_>
          <internalNodes>
            0 -1 70 1.9719600677490234e-03</internalNodes>
          <leafValues>
            -3.9217591285705566e-01 6.1222189664840698e-01</leafValues></_>
        <_>
          <internalNodes>
            0 -1 2 1.1580689996480942e-01</internalNodes>
          <leafValues>
            -3.8112318515777588e-01 6.3841569423675537e-01</leafValues></_>
        <_>
          <internalNodes>
            0 -1 22 1.6224406426772475e-03</internalNodes>
          <leafValues>
            -8.6462295055389404e-01 2.2633458673954010e-01</leafValues></_>
        <_>
          <internalNodes>
            0 -1 34 -9.9851284176111221e-03</internalNodes>
          <leafValues>
            4.1882741451263428e-01 -4.4281846284866333e-01</leafValues></_>
        <_>
          <internalNodes>
            0 -1 72 3.7092079874128103e-03</internalNodes>
          <leafValues>
            -4.2174768447875977e-01 4.4595122337341309e-01</leafValues></_></weakClassifiers></_>
    <!-- stage 4 -->
    <_>
      <maxWeakCount>8</maxWeakCount>
      <stageThreshold>-6.5727245807647705e-01</stageThreshold>
      <weakClassifiers>
        <_>
          <internalNodes>
            0 -1 45 2.7043896261602640e-03</internalNodes>
          <leafValues>
            -3.4549599885940552e-01 6.5990126132965088e-01</leafValues></_>
        <_>
          <internalNodes>
            0 -1 5 3.3788904547691345e-03</internalNodes>
          <leafValues>
            -4.4537076354026794e-01 4.2611911892890930e-01</leafValues></_>
        <_>
          <internalNodes>
            0 -1 74 -7.6479837298393250e-03</internalNodes>
          <leafValues>
            3.7945041060447693e-01 -4.4492706656455994e-01</leafValues></_>
        <_>
          <internalNodes>
            0 -1 51 1.1647767387330532e-03</internalNodes>
          <leafValues>
            -4.0703773498535156e-01 4.1292488574981689e-01</leafValues></_>
        <_>
          <internalNodes>
            0 -1 3 -3.6486215889453888e-02</internalNodes>
          <leafValues>
            4.3317279219627380e-01 -3.9059421420097351e-01</leafValues></_>
        <_>
          <internalNodes>
            0 -1 37 3.0314866453409195e-02</internalNodes>
          <leafValues>
            1.7805300652980804e-01 -8.5323810577392578e-01</leafValues></_>
        <_>
          <internalNodes>
            0 -1 77 -2.9271235689520836e-03</internalNodes>
          <leafValues>
            3.5160961747169495e-01 -4.2558392882347107e-01</leafValues></_>
        <_>
          <internalNodes>
            0 -1 30 -1.9431343302130699e-02</internalNodes>
          <leafValues>
            -8.9731085300445557e-01 1.3914534449577332e-01</leafValues></_></weakClassifiers></_>
    <!-- stage 5 -->
    <_>
      <maxWeakCount>11</maxWeakCount>
      <stageThreshold>-9.1543126106262207e-01</stageThreshold>
      <weakClassifiers>
        <_>
          <internalNodes>
            0 -1 47 6.6492706537246704e-04</internalNodes>
          <leafValues>
            -4.1547277569770813e-01 5.9440559148788452e-01</leafValues></_>
        <_>
          <internalNodes>
            0 -1 16 -3.8419258780777454e-03</internalNodes>
          <leafValues>
            5.7642775774002075e-01 -3.1438153982162476e-01</leafValues></_>
        <_>
          <internalNodes>
            0 -1 64 2.5693899951875210e-03</internalNodes>
          <leafValues>
            2.5688952207565308e-01 -7.1464967727661133e-01</leafValues></_>
        <_>
          <internalNodes>
            0 -1 73 4.3666833080351353e-03</internalNodes>
          <leafValues>
            -3.7313055992126465e-01 4.7436022758483887e-01</leafValues></_>
        <_>
          <internalNodes>
            0 -1 15 5.6621171534061432e-03</internalNodes>
          <leafValues>
            1.7987790703773499e-01 -7.3388665914535522e-01</leafValues></_>
        <_>
          <internalNodes>
            0 -1 26 7.1275704540312290e-03</internalNodes>
          <leafValues>
            1.1923563480377197e-01 -9.3293046951293945e-01</leafValues></_>
        <_>
          <internalNodes>
            0 -1 25 1.9657652825117111e-02</internalNodes>
          <leafValues>
            1.1756225675344467e-01 -8.3632969856262207e-01</leafValues></_>
        <_>
          <internalNodes>
            0 -1 38 -6.3594533130526543e-03</internalNodes>
          <leafValues>
            -9.4073569774627686e-01 1.1027372628450394e-01</leafValues></_>
        <_>
          <internalNodes>
            0 -1 82 -5.2618784829974174e-03</internalNodes>
          <leafValues>
            5.3170746564865112e-01 -3.0798801779747009e-01</leafValues></_>
        <_>
          <internalNodes>
            0 -1 67 4.0227626450359821e-03</internalNodes>
          <leafValues>
            -2.6724314689636230e-01 5.2899527549743652e-01</leafValues></_>
        <_>
          <internalNodes>
            0 -1 69 -2.0551560446619987e-03</internalNodes>
          <leafValues>
            -6.8459641933441162e-01 1.8246440589427948e-01</leafValues></_></weakClassifiers></_>
    <!-- stage 6 -->
    <_>
      <maxWeakCount>11</maxWeakCount>
      <stageThreshold>-9.1447162628173828e-01</stageThreshold>
      <weakClassifiers>
        <_>
          <internalNodes>
            0 -1 55 8.9519796893000603e-04</internalNodes>
          <leafValues>
            -4.9259260296821594e-01 5.3981482982635498e-01</leafValues></_>
        <_>
          <internalNodes>
            0 -1 41 1.7230683006346226e-03</internalNodes>
          <leafValues>
            -3.4693494439125061e-01 4.5918524265289307e-01</leafValues></_>
        <_>
          <internalNodes>
            0 -1 48 6.4320843666791916e-03</internalNodes>
          <leafValues>
            -2.9634526371955872e-01 6.1764109134674072e-01</leafValues></_>
        <_>
          <internalNodes>
            0 -1 14 8.5616372525691986e-03</internalNodes>
          <leafValues>
            -2.4369932711124420e-01 6.0361647605895996e-01</leafValues></_>
        <_>
          <internalNodes>
            0 -1 71 7.3274476453661919e-03</internalNodes>
          <leafValues>
            -3.7387287616729736e-01 4.6266248822212219e-01</leafValues></_>
        <_>
          <internalNodes>
            0 -1 42 -1.3690894469618797e-02</internalNodes>
          <leafValues>
            2.7646103501319885e-01 -4.5269238948822021e-01</leafValues></_>
        <_>
          <internalNodes>
            0 -1 51 2.0816707983613014e-03</internalNodes>
          <leafValues>
            -2.7693706750869751e-01 4.5046314597129822e-01</leafValues></_>
        <_>
          <internalNodes>
            0 -1 80 -1.9285578746348619e-03</internalNodes>
          <leafValues>
            3.7296277284622192e-01 -3.4618192911148071e-01</leafValues></_>
        <_>
          <internalNodes>
            0 -1 66 -4.6805655583739281e-03</internalNodes>
          <leafValues>
            5.0837093591690063e-01 -2.3944653570652008e-01</leafValues></_>
        <_>
          <internalNodes>
            0 -1 20 3.9234511554241180e-02</internalNodes>
          <leafValues>
            1.5132313966751099e-01 -9.1758650541305542e-01</leafValues></_>
        <_>
          <internalNodes>
            0 -1 79 1.7483595758676529e-02</internalNodes>
          <leafValues>
            -2.7017423510551453e-01 4.9877622723579407e-01</leafValues></_></weakClassifiers></_>
    <!-- stage 7 -->
    <_>
      <maxWeakCount>13</maxWeakCount>
      <stageThreshold>-1.0952981710433960e+00</stageThreshold>
      <weakClassifiers>
        <_>
          <internalNodes>
            0 -1 19 -2.3476826027035713e-03</internalNodes>
          <leafValues>
            -6.2467867136001587e-01 4.9459108710289001e-01</leafValues></_>
        <_>
          <internalNodes>
            0 -1 57 2.0487187430262566e-03</internalNodes>
          <leafValues>
            -4.8233449459075928e-01 3.2447472214698792e-01</leafValues></_>
        <_>
          <internalNodes>
            0 -1 61 1.2656699866056442e-02</internalNodes>
          <leafValues>
            -2.4796369671821594e-01 5.8732330799102783e-01</leafValues></_>
        <_>
          <internalNodes>
            0 -1 59 2.1262010559439659e-03</internalNodes>
          <leafValues>
            -3.6242699623107910e-01 4.3494009971618652e-01</leafValues></_>
        <_>
          <internalNodes>
            0 -1 53 -5.4674632847309113e-03</internalNodes>
          <leafValues>
            5.6659471988677979e-01 -2.8033509850502014e-01</leafValues></_>
        <_>
          <internalNodes>
            0 -1 1 8.2310706377029419e-02</internalNodes>
          <leafValues>
            -2.4949288368225098e-01 5.8185052871704102e-01</leafValues></_>
        <_>
          <internalNodes>
            0 -1 56 -1.8816750496625900e-02</internalNodes>
          <leafValues>
            -8.1174272298812866e-01 1.5510503947734833e-01</leafValues></_>
        <_>
          <internalNodes>
            0 -1 31 1.9943648949265480e-03</internalNodes>
          <leafValues>
            -6.8507868051528931e-01 1.5628811717033386e-01</leafValues></_>
        <_>
          <internalNodes>
            0 -1 54 -2.8021046891808510e-03</internalNodes>
          <leafValues>
            4.4344264268875122e-01 -2.9215383529663086e-01</leafValues></_>
        <_>
          <internalNodes>
            0 -1 62 -2.1293801255524158e-03</internalNodes>
          <leafValues>
            5.3518366813659668e-01 -2.6401937007904053e-01</leafValues></_>
        <_>
          <internalNodes>
            0 -1 76 -1.1942191049456596e-03</internalNodes>
          <leafValues>
            4.4245904684066772e-01 -2.8455871343612671e-01</leafValues></_>
        <_>
          <internalNodes>
            0 -1 12 4.4230312108993530e-02</internalNodes>
          <leafValues>
            1.4773865044116974e-01 -8.2741832733154297e-01</leafValues></_>
        <_>
          <internalNodes>
            0 -1 29 -1.9078063778579235e-03</internalNodes>
          <leafValues>
            4.0079802274703979e-01 -3.1275370717048645e-01</leafValues></_></weakClassifiers></_>
    <!-- stage 8 -->
    <_>
      <maxWeakCount>13</maxWeakCount>
      <stageThreshold>-9.9380552768707275e-01</stageThreshold>
      <weakClassifiers>
        <_>
          <internalNodes>
            0 -1 23 2.7937257662415504e-02</internalNodes>
          <leafValues>
            4.5387148857116699e-01 -7.4264705181121826e-01</leafValues></_>
        <_>
          <internalNodes>
            0 -1 40 2.0614936947822571e-03</internalNodes>
          <leafValues>
            2.4800685048103333e-01 -7.3154711723327637e-01</leafValues></_>
        <_>
          <internalNodes>
            0 -1 27 -5.6118601933121681e-03</internalNodes>
          <leafValues>
            -7.8116494417190552e-01 1.4419326186180115e-01</leafValues></_>
        <_>
          <internalNodes>
            0 -1 8 -1.0746518149971962e-02</internalNodes>
          <leafValues>
            3.7846460938453674e-01 -3.9455148577690125e-01</leafValues></_>
        <_>
          <internalNodes>
            0 -1 35 1.4577710069715977e-02</internalNodes>
          <leafValues>
            -3.2754951715469360e-01 3.9743399620056152e-01</leafValues></_>
        <_>
          <internalNodes>
            0 -1 0 3.9870128035545349e-02</internalNodes>
          <leafValues>
            -2.6221591234207153e-01 5.0230151414871216e-01</leafValues></_>
        <_>
          <internalNodes>
            0 -1 49 3.3304709941148758e-03</internalNodes>
          <leafValues>
            -4.9273854494094849e-01 2.5046172738075256e-01</leafValues></_>
        <_>
          <internalNodes>
            0 -1 60 7.1630482561886311e-03</internalNodes>
          <leafValues>
            -2.0308265089988708e-01 5.3048008680343628e-01</leafValues></_>
        <_>
          <internalNodes>
            0 -1 11 -2.8674420900642872e-03</internalNodes>
          <leafValues>
            2.9972365498542786e-01 -3.9401009678840637e-01</leafValues></_>
        <_>
          <internalNodes>
            0 -1 24 3.2015610486268997e-03</internalNodes>
          <leafValues>
            -2.0896457135677338e-01 5.1030796766281128e-01</leafValues></_>
        <_>
          <internalNodes>
            0 -1 81 2.4064674973487854e-02</internalNodes>
          <leafValues>
            -2.2012664377689362e-01 4.8424944281578064e-01</leafValues></_>
        <_>
          <internalNodes>
            0 -1 7 6.3329641707241535e-03</internalNodes>
          <leafValues>
            -6.0503417253494263e-01 1.9288104772567749e-01</leafValues></_>
        <_>
          <internalNodes>
            0 -1 21 5.6788206100463867e-02</internalNodes>
          <leafValues>
            1.2816357612609863e-01 -8.0561196804046631e-01</leafValues></_></weakClassifiers></_>
    <!-- stage 9 -->
    <_>
      <maxWeakCount>10</maxWeakCount>
      <stageThreshold>-9.1360211372375488e-01</stageThreshold>
      <weakClassifiers>
        <_>
          <internalNodes>
            0 -1 58 -7.1056693559512496e-04</internalNodes>
          <leafValues>
            -4.0769231319427490e-01 5.1009172201156616e-01</leafValues></_>
        <_>
          <internalNodes>
            0 -1 65 -1.7248804215341806e-04</internalNodes>
          <leafValues>
            -4.5505237579345703e-01 3.0356115102767944e-01</leafValues></_>
        <_>
          <internalNodes>
            0 -1 10 -3.2411208376288414e-03</internalNodes>
          <leafValues>
            6.1315661668777466e-01 -2.0019206404685974e-01</leafValues></_>
        <_>
          <internalNodes>
            0 -1 39 6.3955008983612061e-02</internalNodes>
          <leafValues>
            -3.9051771163940430e-01 3.2130399346351624e-01</leafValues></_>
        <_>
          <internalNodes>
            0 -1 78 -1.5717960894107819e-02</internalNodes>
          <leafValues>
            3.5747843980789185e-01 -4.0381458401679993e-01</leafValues></_>
        <_>
          <internalNodes>
            0 -1 43 -2.1149879321455956e-03</internalNodes>
          <leafValues>
            2.8522425889968872e-01 -4.7076058387756348e-01</leafValues></_>
        <_>
          <internalNodes>
            0 -1 50 3.1945491209626198e-03</internalNodes>
          <leafValues>
            1.9241736829280853e-01 -6.9274306297302246e-01</leafValues></_>
        <_>
          <internalNodes>
            0 -1 38 -4.2881621047854424e-03</internalNodes>
          <leafValues>
            -8.9675742387771606e-01 1.0897500813007355e-01</leafValues></_>
        <_>
          <internalNodes>
            0 -1 36 -1.0556617751717567e-02</internalNodes>
          <leafValues>
            -7.6871412992477417e-01 1.3255552947521210e-01</leafValues></_>
        <_>
          <internalNodes>
            0 -1 25 1.9278962165117264e-02</internalNodes>
          <leafValues>
            6.2695577740669250e-02 -8.1070375442504883e-01</leafValues></_></weakClassifiers></_></stages>
  <features>
    <_>
      <rects>
        <_>
          0 7 10 5 -1.</_>
        <_>
          5 7 5 5 2.</_></rects>
      <tilted>0</tilted></_>
    <_>
      <rects>
        <_>
          1 5 18 4 -1.</_>
        <_>
          7 5 6 4 3.</_></rects>
      <tilted>0</tilted></_>
    <_>
      <rects>
        <_>
          2 4 18 6 -1.</_>
        <_>
          8 4 6 6 3.</_></rects>
      <tilted>0</tilted></_>
    <_>
      <rects>
        <_>
          2 16 14 4 -1.</_>
        <_>
          2 18 14 2 2.</_></rects>
      <tilted>0</tilted></_>
    <_>
      <rects>
        <_>
          3 16 12 4 -1.</_>
        <_>
          3 18 12 2 2.</_></rects>
      <tilted>0</tilted></_>
    <_>
      <rects>
        <_>
          4 7 6 3 -1.</_>
        <_>
          6 7 2 3 3.</_></rects>
      <tilted>0</tilted></_>
    <_>
      <rects>
        <_>
          4 10 10 4 -1.</_>
        <_>
          9 10 5 4 2.</_></rects>
      <tilted>0</tilted></_>
    <_>
      <rects>
        <_>
          4 10 10 5 -1.</_>
        <_>
          9 10 5 5 2.</_></rects>
      <tilted>0</tilted></_>
    <_>
      <rects>
        <_>
          4 17 9 2 -1.</_>
        <_>
          4 18 9 1 2.</_></rects>
      <tilted>0</tilted></_>
    <_>
      <rects>
        <_>
          5 5 4 8 -1.</_>
        <_>
          5 5 2 4 2.</_>
        <_>
          7 9 2 4 2.</_></rects>
      <tilted>0</tilted></_>
    <_>
      <rects>
        <_>
          5 9 2 2 -1.</_>
        <_>
          5 9 1 1 2.</_>
        <_>
          6 10 1 1 2.</_></rects>
      <tilted>0</tilted></_>
    <_>
      <rects>
        <_>
          5 9 4 3 -1.</_>
        <_>
          7 9 2 3 2.</_></rects>
      <tilted>0</tilted></_>
    <_>
      <rects>
        <_>
          5 10 10 8 -1.</_>
        <_>
          5 14 10 4 2.</_></rects>
      <tilted>0</tilted></_>
    <_>
      <rects>
        <_>
          5 13 15 4 -1.</_>
        <_>
          10 13 5 4 3.</_></rects>
      <tilted>0</tilted></_>
    <_>
      <rects>
        <_>
          6 3 1 10 -1.</_>
        <_>
          6 8 1 5 2.</_></rects>
      <tilted>0</tilted></_>
    <_>
      <rects>
        <_>
          6 6 8 3 -1.</_>
        <_>
          6 7 8 1 3.</_></rects>
      <tilted>0</tilted></_>
    <_>
      <rects>
        <_>
          6 7 2 4 -1.</_>
        <_>
          6 7 1 2 2.</_>
        <_>
          7 9 1 2 2.</_></rects>
      <tilted>0</tilted></_>
    <_>
      <rects>
        <_>
          6 8 8 6 -1.</_>
        <_>
          10 8 4 6 2.</_></rects>
      <tilted>0</tilted></_>
    <_>
      <rects>
        <_>
          6 8 8 9 -1.</_>
        <_>
          10 8 4 9 2.</_></rects>
      <tilted>0</tilted></_>
    <_>
      <rects>
        <_>
          6 8 9 3 -1.</_>
        <_>
          6 9 9 1 3.</_></rects>
      <tilted>0</tilted></_>
    <_>
      <rects>
        <_>
          6 8 9 8 -1.</_>
        <_>
          6 12 9 4 2.</_></rects>
      <tilted>0</tilted></_>
    <_>
      <rects>
        <_>
          6 9 10 6 -1.</_>
        <_>
          11 9 5 6 2.</_></rects>
      <tilted>0</tilted></_>
    <_>
      <rects>
        <_>
          6 10 8 4 -1.</_>
        <_>
          10 10 4 4 2.</_></rects>
      <tilted>0</tilted></_>
    <_>
      <rects>
        <_>
          7 5 7 12 -1.</_>
        <_>
          7 9 7 4 3.</_></rects>
      <tilted>0</tilted></_>
    <_>
      <rects>
        <_>
          7 7 3 1 -1.</_>
        <_>
          8 7 1 1 3.</_></rects>
      <tilted>0</tilted></_>
    <_>
      <rects>
        <_>
          7 7 6 4 -1.</_>
        <_>
          10 7 3 4 2.</_></rects>
      <tilted>0</tilted></_>
    <_>
      <rects>
        <_>
          7 7 7 2 -1.</_>
        <_>
          7 8 7 1 2.</_></rects>
      <tilted>0</tilted></_>
    <_>
      <rects>
        <_>
          7 7 7 3 -1.</_>
        <_>
          7 8 7 1 3.</_></rects>
      <tilted>0</tilted></_>
    <_>
      <rects>
        <_>
          7 7 8 6 -1.</_>
        <_>
          7 10 8 3 2.</_></rects>
      <tilted>0</tilted></_>
    <_>
      <rects>
        <_>
          7 8 2 1 -1.</_>
        <_>
          8 8 1 1 2.</_></rects>
      <tilted>0</tilted></_>
    <_>
      <rects>
        <_>
          7 8 3 10 -1.</_>
        <_>
          7 13 3 5 2.</_></rects>
      <tilted>0</tilted></_>
    <_>
      <rects>
        <_>
          7 8 8 5 -1.</_>
        <_>
          11 8 4 5 2.</_></rects>
      <tilted>0</tilted></_>
    <_>
      <rects>
        <_>
          7 8 7 2 -1.</_>
        <_>
          7 9 7 1 2.</_></rects>
      <tilted>0</tilted></_>
    <_>
      <rects>
        <_>
          7 17 7 2 -1.</_>
        <_>
          7 18 7 1 2.</_></rects>
      <tilted>0</tilted></_>
    <_>
      <rects>
        <_>
          7 17 9 2 -1.</_>
        <_>
          7 18 9 1 2.</_></rects>
      <tilted>0</tilted></_>
    <_>
      <rects>
        <_>
          8 2 5 6 -1.</_>
        <_>
          8 4 5 2 3.</_></rects>
      <tilted>0</tilted></_>
    <_>
      <rects>
        <_>
          8 6 6 3 -1.</_>
        <_>
          8 7 6 1 3.</_></rects>
      <tilted>0</tilted></_>
    <_>
      <rects>
        <_>
          8 6 7 10 -1.</_>
        <_>
          8 11 7 5 2.</_></rects>
      <tilted>0</tilted></_>
    <_>
      <rects>
        <_>
          8 7 6 3 -1.</_>
        <_>
          11 7 3 3 2.</_></rects>
      <tilted>0</tilted></_>
    <_>
      <rects>
        <_>
          8 7 12 11 -1.</_>
        <_>
          12 7 4 11 3.</_></rects>
      <tilted>0</tilted></_>
    <_>
      <rects>
        <_>
          8 7 5 3 -1.</_>
        <_>
          8 8 5 1 3.</_></rects>
      <tilted>0</tilted></_>
    <_>
      <rects>
        <_>
          8 9 2 1 -1.</_>
        <_>
          9 9 1 1 2.</_></rects>
      <tilted>0</tilted></_>
    <_>
      <rects>
        <_>
          8 16 7 4 -1.</_>
        <_>
          8 18 7 2 2.</_></rects>
      <tilted>0</tilted></_>
    <_>
      <rects>
        <_>
          9 6 3 3 -1.</_>
        <_>
          9 7 3 1 3.</_></rects>
      <tilted>0</tilted></_>
    <_>
      <rects>
        <_>
          9 7 2 6 -1.</_>
        <_>
          9 9 2 2 3.</_></rects>
      <tilted>0</tilted></_>
    <_>
      <rects>
        <_>
          9 8 3 2 -1.</_>
        <_>
          9 9 3 1 2.</_></rects>
      <tilted>0</tilted></_>
    <_>
      <rects>
        <_>
          9 8 5 8 -1.</_>
        <_>
          9 12 5 4 2.</_></rects>
      <tilted>0</tilted></_>
    <_>
      <rects>
        <_>
          9 9 3 1 -1.</_>
        <_>
          10 9 1 1 3.</_></rects>
      <tilted>0</tilted></_>
    <_>
      <rects>
        <_>
          9 9 3 3 -1.</_>
        <_>
          9 10 3 1 3.</_></rects>
      <tilted>0</tilted></_>
    <_>
      <rects>
        <_>
          9 12 4 3 -1.</_>
        <_>
          9 13 4 1 3.</_></rects>
      <tilted>0</tilted></_>
    <_>
      <rects>
        <_>
          10 6 2 5 -1.</_>
        <_>
          11 6 1 5 2.</_></rects>
      <tilted>0</tilted></_>
    <_>
      <rects>
        <_>
          10 7 1 2 -1.</_>
        <_>
          10 8 1 1 2.</_></rects>
      <tilted>0</tilted></_>
    <_>
      <rects>
        <_>
          10 7 6 1 -1.</_>
        <_>
          12 7 2 1 3.</_></rects>
      <tilted>0</tilted></_>
    <_>
      <rects>
        <_>
          10 7 4 2 -1.</_>
        <_>
          10 7 2 1 2.</_>
        <_>
          12 8 2 1 2.</_></rects>
      <tilted>0</tilted></_>
    <_>
      <rects>
        <_>
          10 8 3 1 -1.</_>
        <_>
          11 8 1 1 3.</_></rects>
      <tilted>0</tilted></_>
    <_>
      <rects>
        <_>
          10 8 1 3 -1.</_>
        <_>
          10 9 1 1 3.</_></rects>
      <tilted>0</tilted></_>
    <_>
      <rects>
        <_>
          10 8 5 8 -1.</_>
        <_>
          10 12 5 4 2.</_></rects>
      <tilted>0</tilted></_>
    <_>
      <rects>
        <_>
          10 12 2 3 -1.</_>
        <_>
          10 13 2 1 3.</_></rects>
      <tilted>0</tilted></_>
    <_>
      <rects>
        <_>
          10 13 3 3 -1.</_>
        <_>
          11 13 1 3 3.</_></rects>
      <tilted>0</tilted></_>
    <_>
      <rects>
        <_>
          10 13 2 3 -1.</_>
        <_>
          10 14 2 1 3.</_></rects>
      <tilted>0</tilted></_>
    <_>
      <rects>
        <_>
          11 4 1 6 -1.</_>
        <_>
          11 6 1 2 3.</_></rects>
      <tilted>0</tilted></_>
    <_>
      <rects>
        <_>
          11 6 4 4 -1.</_>
        <_>
          11 6 2 2 2.</_>
        <_>
          13 8 2 2 2.</_></rects>
      <tilted>0</tilted></_>
    <_>
      <rects>
        <_>
          11 9 2 1 -1.</_>
        <_>
          12 9 1 1 2.</_></rects>
      <tilted>0</tilted></_>
    <_>
      <rects>
        <_>
          11 12 1 3 -1.</_>
        <_>
          11 13 1 1 3.</_></rects>
      <tilted>0</tilted></_>
    <_>
      <rects>
        <_>
          11 12 3 6 -1.</_>
        <_>
          11 15 3 3 2.</_></rects>
      <tilted>0</tilted></_>
    <_>
      <rects>
        <_>
          11 13 3 3 -1.</_>
        <_>
          12 13 1 3 3.</_></rects>
      <tilted>0</tilted></_>
    <_>
      <rects>
        <_>
          11 15 3 3 -1.</_>
        <_>
          11 16 3 1 3.</_></rects>
      <tilted>0</tilted></_>
    <_>
      <rects>
        <_>
          11 16 2 3 -1.</_>
        <_>
          11 17 2 1 3.</_></rects>
      <tilted>0</tilted></_>
    <_>
      <rects>
        <_>
          12 7 4 4 -1.</_>
        <_>
          12 7 2 2 2.</_>
        <_>
          14 9 2 2 2.</_></rects>
      <tilted>0</tilted></_>
    <_>
      <rects>
        <_>
          12 7 3 3 -1.</_>
        <_>
          12 8 3 1 3.</_></rects>
      <tilted>0</tilted></_>
    <_>
      <rects>
        <_>
          12 8 2 1 -1.</_>
        <_>
          13 8 1 1 2.</_></rects>
      <tilted>0</tilted></_>
    <_>
      <rects>
        <_>
          12 9 6 1 -1.</_>
        <_>
          14 9 2 1 3.</_></rects>
      <tilted>0</tilted></_>
    <_>
      <rects>
        <_>
          12 9 4 2 -1.</_>
        <_>
          14 9 2 2 2.</_></rects>
      <tilted>0</tilted></_>
    <_>
      <rects>
        <_>
          13 7 2 4 -1.</_>
        <_>
          13 7 1 2 2.</_>
        <_>
          14 9 1 2 2.</_></rects>
      <tilted>0</tilted></_>
    <_>
      <rects>
        <_>
          13 7 4 3 -1.</_>
        <_>
          15 7 2 3 2.</_></rects>
      <tilted>0</tilted></_>
    <_>
      <rects>
        <_>
          13 8 4 1 -1.</_>
        <_>
          15 8 2 1 2.</_></rects>
      <tilted>0</tilted></_>
    <_>
      <rects>
        <_>
          13 11 2 1 -1.</_>
        <_>
          14 11 1 1 2.</_></rects>
      <tilted>0</tilted></_>
    <_>
      <rects>
        <_>
          13 12 2 5 -1.</_>
        <_>
          14 12 1 5 2.</_></rects>
      <tilted>0</tilted></_>
    <_>
      <rects>
        <_>
          13 12 6 5 -1.</_>
        <_>
          15 12 2 5 3.</_></rects>
      <tilted>0</tilted></_>
    <_>
      <rects>
        <_>
          14 4 2 10 -1.</_>
        <_>
          14 9 2 5 2.</_></rects>
      <tilted>0</tilted></_>
    <_>
      <rects>
        <_>
          14 12 2 3 -1.</_>
        <_>
          15 12 1 3 2.</_></rects>
      <tilted>0</tilted></_>
    <_>
      <rects>
        <_>
          15 7 3 9 -1.</_>
        <_>
          15 10 3 3 3.</_></rects>
      <tilted>0</tilted></_>
    <_>
      <rects>
        <_>
          18 11 2 4 -1.</_>
        <_>
          19 11 1 4 2.</_></rects>
      <tilted>0</tilted></_></features></cascade>
</opencv_storage>
