<?xml version="1.0"?>
<opencv_storage>
<cascade>
  <stageType>BOOST</stageType>
  <featureType>HAAR</featureType>
  <height>20</height>
  <width>20</width>
  <stageParams>
    <boostType>GAB</boostType>
    <minHitRate>9.9500000476837158e-01</minHitRate>
    <maxFalseAlarm>5.0000000000000000e-01</maxFalseAlarm>
    <weightTrimRate>9.4999999999999996e-01</weightTrimRate>
    <maxDepth>1</maxDepth>
    <maxWeakCount>100</maxWeakCount></stageParams>
  <featureParams>
    <maxCatCount>0</maxCatCount>
    <featSize>1</featSize>
    <mode>BASIC</mode></featureParams>
  <stageNum>8</stageNum>
  <stages>
    <!-- stage 0 -->
    <_>
      <maxWeakCount>2</maxWeakCount>
      <stageThreshold>-1.6456867754459381e-01</stageThreshold>
      <weakClassifiers>
        <_>
          <internalNodes>
            0 -1 10 -1.3181683421134949e-01</internalNodes>
          <leafValues>
            8.6463797092437744e-01 -9.4206547737121582e-01</leafValues></_>
        <_>
          <internalNodes>
            0 -1 19 3.0309567227959633e-02</internalNodes>
          <leafValues>
            -9.4639772176742554e-01 7.7749681472778320e-01</leafValues></_></weakClassifiers></_>
    <!-- stage 1 -->
    <_>
      <maxWeakCount>2</maxWeakCount>
      <stageThreshold>-1.4089111983776093e-01</stageThreshold>
      <weakClassifiers>
        <_>
          <internalNodes>
            0 -1 1 -1.8335841596126556e-02</internalNodes>
          <leafValues>
            8.5236322879791260e-01 -8.6291307210922241e-01</leafValues></_>
        <_>
          <internalNodes>
            0 -1 8 -1.5812914818525314e-02</internalNodes>
          <leafValues>
            7.2202199697494507e-01 -9.1077166795730591e-01</leafValues></_></weakClassifiers></_>
    <!-- stage 2 -->
    <_>
      <maxWeakCount>3</maxWeakCount>
      <stageThreshold>-9.6040999889373779e-01</stageThreshold>
      <weakClassifiers>
        <_>
          <internalNodes>
            0 -1 9 -5.2255082875490189e-02</internalNodes>
          <leafValues>
            8.0115729570388794e-01 -7.7972465753555298e-01</leafValues></_>
        <_>
          <internalNodes>
            0 -1 22 7.3601803742349148e-03</internalNodes>
          <leafValues>
            -7.8555446863174438e-01 7.0403319597244263e-01</leafValues></_>
        <_>
          <internalNodes>
            0 -1 11 1.1003827676177025e-02</internalNodes>
          <leafValues>
            -9.0675878524780273e-01 6.0486912727355957e-01</leafValues></_></weakClassifiers></_>
    <!-- stage 3 -->
    <_>
      <maxWeakCount>4</maxWeakCount>
      <stageThreshold>-4.1690593957901001e-01</stageThreshold>
      <weakClassifiers>
        <_>
          <internalNodes>
            0 -1 20 -1.1987891979515553e-02</internalNodes>
          <leafValues>
            8.0754917860031128e-01 -7.5579977035522461e-01</leafValues></_>
        <_>
          <internalNodes>
            0 -1 0 3.1475212424993515e-02</internalNodes>
          <leafValues>
            -7.1842908859252930e-01 6.8907260894775391e-01</leafValues></_>
        <_>
          <internalNodes>
            0 -1 17 1.8525552004575729e-02</internalNodes>
          <leafValues>
            -8.6951911449432373e-01 5.9769433736801147e-01</leafValues></_>
        <_>
          <internalNodes>
            0 -1 4 -4.1058678179979324e-03</internalNodes>
          <leafValues>
            5.1934027671813965e-01 -8.9261472225189209e-01</leafValues></_></weakClassifiers></_>
    <!-- stage 4 -->
    <_>
      <maxWeakCount>3</maxWeakCount>
      <stageThreshold>-7.4648416042327881e-01</stageThreshold>
      <weakClassifiers>
        <_>
          <internalNodes>
            0 -1 16 7.0864884182810783e-03</internalNodes>
          <leafValues>
            -8.7500000000000000e-01 6.8451243638992310e-01</leafValues></_>
        <_>
          <internalNodes>
            0 -1 15 3.0145380645990372e-02</internalNodes>
          <leafValues>
            -7.3671120405197144e-01 6.8629187345504761e-01</leafValues></_>
        <_>
          <internalNodes>
            0 -1 3 -6.5145678818225861e-03</internalNodes>
          <leafValues>
            6.1256057024002075e-01 -6.9428539276123047e-01</leafValues></_></weakClassifiers></_>
    <!-- stage 5 -->
    <_>
      <maxWeakCount>3</maxWeakCount>
      <stageThreshold>-9.6306031942367554e-01</stageThreshold>
      <weakClassifiers>
        <_>
          <internalNodes>
            0 -1 18 2.2749537602066994e-03</internalNodes>
          <leafValues>
            -8.3828383684158325e-01 6.7239731550216675e-01</leafValues></_>
        <_>
          <internalNodes>
            0 -1 2 -4.3409198522567749e-02</internalNodes>
          <leafValues>
            5.5909788608551025e-01 -7.5986737012863159e-01</leafValues></_>
        <_>
          <internalNodes>
            0 -1 14 -2.3422965314239264e-03</internalNodes>
          <leafValues>
            4.0869736671447754e-01 -8.7559026479721069e-01</leafValues></_></weakClassifiers></_>
    <!-- stage 6 -->
    <_>
      <maxWeakCount>3</maxWeakCount>
      <stageThreshold>9.1403201222419739e-02</stageThreshold>
      <weakClassifiers>
        <_>
          <internalNodes>
            0 -1 5 -2.2814606782048941e-03</internalNodes>
          <leafValues>
            6.4335340261459351e-01 -9.0388172864913940e-01</leafValues></_>
        <_>
          <internalNodes>
            0 -1 21 4.1698828339576721e-02</internalNodes>
          <leafValues>
            -6.8561881780624390e-01 6.2765216827392578e-01</leafValues></_>
        <_>
          <internalNodes>
            0 -1 7 1.3620274141430855e-02</internalNodes>
          <leafValues>
            -9.4033473730087280e-01 3.6763274669647217e-01</leafValues></_></weakClassifiers></_>
    <!-- stage 7 -->
    <_>
      <maxWeakCount>4</maxWeakCount>
      <stageThreshold>-5.9203106164932251e-01</stageThreshold>
      <weakClassifiers>
        <_>
          <internalNodes>
            0 -1 13 -1.1813032440841198e-02</internalNodes>
          <leafValues>
            7.6849240064620972e-01 -4.9623250961303711e-01</leafValues></_>
        <_>
          <internalNodes>
            0 -1 12 -1.5568363014608622e-03</internalNodes>
          <leafValues>
            5.0389266014099121e-01 -8.4250843524932861e-01</leafValues></_>
        <_>
          <internalNodes>
            0 -1 6 -1.9142568344250321e-03</internalNodes>
          <leafValues>
            3.1035888195037842e-01 -9.4737738370895386e-01</leafValues></_>
        <_>
          <internalNodes>
            0 -1 22 7.1548423729836941e-03</internalNodes>
          <leafValues>
            -8.4759002923965454e-01 3.4768611192703247e-01</leafValues></_></weakClassifiers></_></stages>
  <features>
    <_>
      <rects>
        <_>
          1 13 12 6 -1.</_>
        <_>
          1 13 6 3 2.</_>
        <_>
          7 16 6 3 2.</_></rects>
      <tilted>0</tilted></_>
    <_>
      <rects>
        <_>
          3 5 4 9 -1.</_>
        <_>
          5 5 2 9 2.</_></rects>
      <tilted>0</tilted></_>
    <_>
      <rects>
        <_>
          3 5 6 11 -1.</_>
        <_>
          6 5 3 11 2.</_></rects>
      <tilted>0</tilted></_>
    <_>
      <rects>
        <_>
          3 7 2 6 -1.</_>
        <_>
          4 7 1 6 2.</_></rects>
      <tilted>0</tilted></_>
    <_>
      <rects>
        <_>
          4 6 2 4 -1.</_>
        <_>
          4 8 2 2 2.</_></rects>
      <tilted>0</tilted></_>
    <_>
      <rects>
        <_>
          4 7 3 7 -1.</_>
        <_>
          5 7 1 7 3.</_></rects>
      <tilted>0</tilted></_>
    <_>
      <rects>
        <_>
          4 7 2 4 -1.</_>
        <_>
          4 9 2 2 2.</_></rects>
      <tilted>0</tilted></_>
    <_>
      <rects>
        <_>
          4 13 12 4 -1.</_>
        <_>
          4 15 12 2 2.</_></rects>
      <tilted>0</tilted></_>
    <_>
      <rects>
        <_>
          4 14 12 2 -1.</_>
        <_>
          8 14 4 2 3.</_></rects>
      <tilted>0</tilted></_>
    <_>
      <rects>
        <_>
          5 3 10 6 -1.</_>
        <_>
          5 6 10 3 2.</_></rects>
      <tilted>0</tilted></_>
    <_>
      <rects>
        <_>
          5 3 11 15 -1.</_>
        <_>
          5 8 11 5 3.</_></rects>
      <tilted>0</tilted></_>
    <_>
      <rects>
        <_>
          5 11 3 6 -1.</_>
        <_>
          5 14 3 3 2.</_></rects>
      <tilted>0</tilted></_>
    <_>
      <rects>
        <_>
          5 15 4 1 -1.</_>
        <_>
          7 15 2 1 2.</_></rects>
      <tilted>0</tilted></_>
    <_>
      <rects>
        <_>
          6 4 10 2 -1.</_>
        <_>
          6 5 10 1 2.</_></rects>
      <tilted>0</tilted></_>
    <_>
      <rects>
        <_>
          7 14 6 3 -1.</_>
        <_>
          7 15 6 1 3.</_></rects>
      <tilted>0</tilted></_>
    <_>
      <rects>
        <_>
          10 2 8 6 -1.</_>
        <_>
          10 2 4 3 2.</_>
        <_>
          14 5 4 3 2.</_></rects>
      <tilted>0</tilted></_>
    <_>
      <rects>
        <_>
          10 10 6 6 -1.</_>
        <_>
          10 10 3 3 2.</_>
        <_>
          13 13 3 3 2.</_></rects>
      <tilted>0</tilted></_>
    <_>
      <rects>
        <_>
          11 5 6 5 -1.</_>
        <_>
          14 5 3 5 2.</_></rects>
      <tilted>0</tilted></_>
    <_>
      <rects>
        <_>
          12 6 4 1 -1.</_>
        <_>
          14 6 2 1 2.</_></rects>
      <tilted>0</tilted></_>
    <_>
      <rects>
        <_>
          12 6 6 10 -1.</_>
        <_>
          15 6 3 10 2.</_></rects>
      <tilted>0</tilted></_>
    <_>
      <rects>
        <_>
          12 9 6 4 -1.</_>
        <_>
          14 9 2 4 3.</_></rects>
      <tilted>0</tilted></_>
    <_>
      <rects>
        <_>
          13 2 6 12 -1.</_>
        <_>
          13 2 3 6 2.</_>
        <_>
          16 8 3 6 2.</_></rects>
      <tilted>0</tilted></_>
    <_>
      <rects>
        <_>
          15 5 2 9 -1.</_>
        <_>
          16 5 1 9 2.</_></rects>
      <tilted>0</tilted></_></features></cascade>
</opencv_storage>
