<?xml version="1.0"?>
<opencv_storage>
<stage0>
  <maxWeakCount>8</maxWeakCount>
  <stageThreshold>-1.4696207046508789e+00</stageThreshold>
  <weakClassifiers>
    <_>
      <internalNodes>
        0 -1 48554 1.0719418525695801e-02</internalNodes>
      <leafValues>
        -6.6075950860977173e-01 8.2111799716949463e-01</leafValues></_>
    <_>
      <internalNodes>
        0 -1 57160 5.2182632498443127e-04</internalNodes>
      <leafValues>
        -5.8335381746292114e-01 5.4978454113006592e-01</leafValues></_>
    <_>
      <internalNodes>
        0 -1 57465 -6.1020902649033815e-05</internalNodes>
      <leafValues>
        3.3242848515510559e-01 -7.1489405632019043e-01</leafValues></_>
    <_>
      <internalNodes>
        0 -1 49609 -2.6643458753824234e-02</internalNodes>
      <leafValues>
        7.0038789510726929e-01 -3.3371058106422424e-01</leafValues></_>
    <_>
      <internalNodes>
        0 -1 25950 1.6037490963935852e-01</internalNodes>
      <leafValues>
        -1.9122219085693359e-01 8.9215391874313354e-01</leafValues></_>
    <_>
      <internalNodes>
        0 -1 10778 5.9324065223336220e-03</internalNodes>
      <leafValues>
        -2.0617564022541046e-01 6.1181527376174927e-01</leafValues></_>
    <_>
      <internalNodes>
        0 -1 52008 6.9451425224542618e-04</internalNodes>
      <leafValues>
        -4.4225120544433594e-01 3.0723232030868530e-01</leafValues></_>
    <_>
      <internalNodes>
        0 -1 12958 -9.2289922758936882e-04</internalNodes>
      <leafValues>
        6.6791993379592896e-01 -2.0256721973419189e-01</leafValues></_></weakClassifiers></stage0>
</opencv_storage>
