<?xml version="1.0"?>
<opencv_storage>
<stage2>
  <maxWeakCount>10</maxWeakCount>
  <stageThreshold>-1.0909199714660645e+00</stageThreshold>
  <weakClassifiers>
    <_>
      <internalNodes>
        0 -1 43010 5.6686818599700928e-02</internalNodes>
      <leafValues>
        -3.5849055647850037e-01 8.8059699535369873e-01</leafValues></_>
    <_>
      <internalNodes>
        0 -1 57391 7.4329393100924790e-05</internalNodes>
      <leafValues>
        -6.6788643598556519e-01 3.9221516251564026e-01</leafValues></_>
    <_>
      <internalNodes>
        0 -1 43317 5.7767778635025024e-02</internalNodes>
      <leafValues>
        -2.1162429451942444e-01 8.2127571105957031e-01</leafValues></_>
    <_>
      <internalNodes>
        0 -1 61248 -8.2575192209333181e-04</internalNodes>
      <leafValues>
        -6.6330748796463013e-01 2.8149300813674927e-01</leafValues></_>
    <_>
      <internalNodes>
        0 -1 57819 -4.9410397186875343e-03</internalNodes>
      <leafValues>
        4.7019022703170776e-01 -3.4597209095954895e-01</leafValues></_>
    <_>
      <internalNodes>
        0 -1 57465 3.3732005394995213e-03</internalNodes>
      <leafValues>
        1.3806249201297760e-01 -9.4454658031463623e-01</leafValues></_>
    <_>
      <internalNodes>
        0 -1 52940 5.7448633015155792e-04</internalNodes>
      <leafValues>
        -5.8900564908981323e-01 1.8918052315711975e-01</leafValues></_>
    <_>
      <internalNodes>
        0 -1 52164 1.8421992659568787e-02</internalNodes>
      <leafValues>
        -4.1823557019233704e-01 2.8777253627777100e-01</leafValues></_>
    <_>
      <internalNodes>
        0 -1 48409 6.0852197930216789e-03</internalNodes>
      <leafValues>
        1.4649346470832825e-01 -7.3622149229049683e-01</leafValues></_>
    <_>
      <internalNodes>
        0 -1 52741 -1.6839895397424698e-02</internalNodes>
      <leafValues>
        -7.3946326971054077e-01 1.1808325350284576e-01</leafValues></_></weakClassifiers></stage2>
</opencv_storage>
