<?xml version="1.0"?>
<opencv_storage>
<stage9>
  <maxWeakCount>27</maxWeakCount>
  <stageThreshold>-7.9832655191421509e-01</stageThreshold>
  <weakClassifiers>
    <_>
      <internalNodes>
        0 -1 34355 2.8294064104557037e-02</internalNodes>
      <leafValues>
        -1.1002445220947266e-01 5.6257903575897217e-01</leafValues></_>
    <_>
      <internalNodes>
        0 -1 64573 1.0698263067752123e-03</internalNodes>
      <leafValues>
        -2.9634428024291992e-01 2.9686817526817322e-01</leafValues></_>
    <_>
      <internalNodes>
        0 -1 39619 -1.8740047235041857e-03</internalNodes>
      <leafValues>
        4.5662757754325867e-01 -1.5853266417980194e-01</leafValues></_>
    <_>
      <internalNodes>
        0 -1 52930 5.7706568622961640e-04</internalNodes>
      <leafValues>
        -3.5076943039894104e-01 1.9621695578098297e-01</leafValues></_>
    <_>
      <internalNodes>
        0 -1 27660 -1.0339723667129874e-03</internalNodes>
      <leafValues>
        3.6938637495040894e-01 -2.0142672955989838e-01</leafValues></_>
    <_>
      <internalNodes>
        0 -1 61024 8.8172574760392308e-04</internalNodes>
      <leafValues>
        1.8503119051456451e-01 -3.6910435557365417e-01</leafValues></_>
    <_>
      <internalNodes>
        0 -1 61024 -1.6187022265512496e-04</internalNodes>
      <leafValues>
        -4.5844382047653198e-01 1.5314219892024994e-01</leafValues></_>
    <_>
      <internalNodes>
        0 -1 57160 1.0726902633905411e-02</internalNodes>
      <leafValues>
        4.2314656078815460e-02 -8.8038539886474609e-01</leafValues></_>
    <_>
      <internalNodes>
        0 -1 27698 -3.7726022303104401e-02</internalNodes>
      <leafValues>
        -6.3296288251876831e-01 8.2212142646312714e-02</leafValues></_>
    <_>
      <internalNodes>
        0 -1 67487 -1.1141464114189148e-02</internalNodes>
      <leafValues>
        4.2703825235366821e-01 -1.2428187578916550e-01</leafValues></_>
    <_>
      <internalNodes>
        0 -1 34054 4.4545736163854599e-03</internalNodes>
      <leafValues>
        -1.1708098649978638e-01 5.0742357969284058e-01</leafValues></_>
    <_>
      <internalNodes>
        0 -1 53222 9.1230701655149460e-03</internalNodes>
      <leafValues>
        8.4558054804801941e-02 -6.9189411401748657e-01</leafValues></_>
    <_>
      <internalNodes>
        0 -1 32031 -6.7090275697410107e-03</internalNodes>
      <leafValues>
        1.6622790694236755e-01 -3.2134181261062622e-01</leafValues></_>
    <_>
      <internalNodes>
        0 -1 61027 -8.3672557957470417e-04</internalNodes>
      <leafValues>
        -3.3530277013778687e-01 1.6683480143547058e-01</leafValues></_>
    <_>
      <internalNodes>
        0 -1 57795 -6.4208013936877251e-03</internalNodes>
      <leafValues>
        8.0303198099136353e-01 -9.5512591302394867e-02</leafValues></_>
    <_>
      <internalNodes>
        0 -1 58149 -7.3212496936321259e-03</internalNodes>
      <leafValues>
        -6.4294624328613281e-01 1.0647813230752945e-01</leafValues></_>
    <_>
      <internalNodes>
        0 -1 3350 -3.6776646971702576e-02</internalNodes>
      <leafValues>
        7.3168718814849854e-01 -8.0677568912506104e-02</leafValues></_>
    <_>
      <internalNodes>
        0 -1 64328 6.4707295678090304e-05</internalNodes>
      <leafValues>
        -3.1675386428833008e-01 1.7413556575775146e-01</leafValues></_>
    <_>
      <internalNodes>
        0 -1 54331 1.1672580149024725e-03</internalNodes>
      <leafValues>
        -1.7778658866882324e-01 3.7741169333457947e-01</leafValues></_>
    <_>
      <internalNodes>
        0 -1 13180 -8.9154895395040512e-03</internalNodes>
      <leafValues>
        5.6893646717071533e-01 -1.0316781699657440e-01</leafValues></_>
    <_>
      <internalNodes>
        0 -1 61476 2.5297142565250397e-03</internalNodes>
      <leafValues>
        1.2895826995372772e-01 -4.5898428559303284e-01</leafValues></_>
    <_>
      <internalNodes>
        0 -1 59326 -4.0680523961782455e-03</internalNodes>
      <leafValues>
        4.5329782366752625e-01 -1.1649225652217865e-01</leafValues></_>
    <_>
      <internalNodes>
        0 -1 56648 -5.9852260164916515e-04</internalNodes>
      <leafValues>
        3.0676522850990295e-01 -2.0238272845745087e-01</leafValues></_>
    <_>
      <internalNodes>
        0 -1 1471 3.3189249224960804e-03</internalNodes>
      <leafValues>
        -1.6749459505081177e-01 3.2864573597908020e-01</leafValues></_>
    <_>
      <internalNodes>
        0 -1 61443 -4.2457875679247081e-05</internalNodes>
      <leafValues>
        -3.6013767123222351e-01 1.6271533071994781e-01</leafValues></_>
    <_>
      <internalNodes>
        0 -1 61248 3.3505744067952037e-04</internalNodes>
      <leafValues>
        1.1521207541227341e-01 -4.6884790062904358e-01</leafValues></_>
    <_>
      <internalNodes>
        0 -1 53250 1.5270087169483304e-03</internalNodes>
      <leafValues>
        -1.7804142832756042e-01 3.2446771860122681e-01</leafValues></_></weakClassifiers></stage9>
</opencv_storage>
