<?xml version="1.0"?>
<opencv_storage>
<cascade>
  <stageType>BOOST</stageType>
  <featureType>HAAR</featureType>
  <height>20</height>
  <width>20</width>
  <stageParams>
    <boostType>GAB</boostType>
    <minHitRate>9.9500000476837158e-01</minHitRate>
    <maxFalseAlarm>5.0000000000000000e-01</maxFalseAlarm>
    <weightTrimRate>9.4999999999999996e-01</weightTrimRate>
    <maxDepth>1</maxDepth>
    <maxWeakCount>100</maxWeakCount></stageParams>
  <featureParams>
    <maxCatCount>0</maxCatCount>
    <featSize>1</featSize>
    <mode>BASIC</mode></featureParams>
  <stageNum>8</stageNum>
  <stages>
    <!-- stage 0 -->
    <_>
      <maxWeakCount>2</maxWeakCount>
      <stageThreshold>-6.8973109126091003e-02</stageThreshold>
      <weakClassifiers>
        <_>
          <internalNodes>
            0 -1 13 5.7795584201812744e-02</internalNodes>
          <leafValues>
            -9.3010753393173218e-01 9.0096616744995117e-01</leafValues></_>
        <_>
          <internalNodes>
            0 -1 0 2.5257162749767303e-02</internalNodes>
          <leafValues>
            -9.1921806335449219e-01 8.6113440990447998e-01</leafValues></_></weakClassifiers></_>
    <!-- stage 1 -->
    <_>
      <maxWeakCount>3</maxWeakCount>
      <stageThreshold>-9.2403638362884521e-01</stageThreshold>
      <weakClassifiers>
        <_>
          <internalNodes>
            0 -1 18 2.2395845502614975e-02</internalNodes>
          <leafValues>
            -9.1501414775848389e-01 8.5360091924667358e-01</leafValues></_>
        <_>
          <internalNodes>
            0 -1 19 1.1794490739703178e-02</internalNodes>
          <leafValues>
            -7.8851842880249023e-01 8.5004699230194092e-01</leafValues></_>
        <_>
          <internalNodes>
            0 -1 5 -2.0012792199850082e-02</internalNodes>
          <leafValues>
            7.7949619293212891e-01 -8.0846369266510010e-01</leafValues></_></weakClassifiers></_>
    <!-- stage 2 -->
    <_>
      <maxWeakCount>2</maxWeakCount>
      <stageThreshold>-1.2409103661775589e-01</stageThreshold>
      <weakClassifiers>
        <_>
          <internalNodes>
            0 -1 11 7.7411127276718616e-03</internalNodes>
          <leafValues>
            -8.6470586061477661e-01 8.0697673559188843e-01</leafValues></_>
        <_>
          <internalNodes>
            0 -1 6 -6.9151520729064941e-02</internalNodes>
          <leafValues>
            7.4061483144760132e-01 -8.7663525342941284e-01</leafValues></_></weakClassifiers></_>
    <!-- stage 3 -->
    <_>
      <maxWeakCount>2</maxWeakCount>
      <stageThreshold>-9.0165570378303528e-02</stageThreshold>
      <weakClassifiers>
        <_>
          <internalNodes>
            0 -1 15 3.0569467693567276e-02</internalNodes>
          <leafValues>
            -8.1250000000000000e-01 8.0896228551864624e-01</leafValues></_>
        <_>
          <internalNodes>
            0 -1 4 6.5586514770984650e-02</internalNodes>
          <leafValues>
            -8.5377496480941772e-01 7.2233444452285767e-01</leafValues></_></weakClassifiers></_>
    <!-- stage 4 -->
    <_>
      <maxWeakCount>4</maxWeakCount>
      <stageThreshold>-4.3904769420623779e-01</stageThreshold>
      <weakClassifiers>
        <_>
          <internalNodes>
            0 -1 16 1.5819979831576347e-02</internalNodes>
          <leafValues>
            -8.7540984153747559e-01 7.4525141716003418e-01</leafValues></_>
        <_>
          <internalNodes>
            0 -1 3 9.0103402733802795e-02</internalNodes>
          <leafValues>
            -9.1887778043746948e-01 6.3858729600906372e-01</leafValues></_>
        <_>
          <internalNodes>
            0 -1 7 3.4541428089141846e-02</internalNodes>
          <leafValues>
            -7.0936930179595947e-01 7.2592109441757202e-01</leafValues></_>
        <_>
          <internalNodes>
            0 -1 9 6.6673336550593376e-03</internalNodes>
          <leafValues>
            -9.4681519269943237e-01 5.0714415311813354e-01</leafValues></_></weakClassifiers></_>
    <!-- stage 5 -->
    <_>
      <maxWeakCount>4</maxWeakCount>
      <stageThreshold>-4.2915862798690796e-01</stageThreshold>
      <weakClassifiers>
        <_>
          <internalNodes>
            0 -1 2 1.6420189291238785e-02</internalNodes>
          <leafValues>
            -7.8507465124130249e-01 7.6647400856018066e-01</leafValues></_>
        <_>
          <internalNodes>
            0 -1 7 2.2659994661808014e-02</internalNodes>
          <leafValues>
            -7.1918207406997681e-01 6.8677294254302979e-01</leafValues></_>
        <_>
          <internalNodes>
            0 -1 19 1.2634437531232834e-02</internalNodes>
          <leafValues>
            -8.0871677398681641e-01 5.5803835391998291e-01</leafValues></_>
        <_>
          <internalNodes>
            0 -1 12 2.1473858505487442e-02</internalNodes>
          <leafValues>
            -8.2889401912689209e-01 5.1705974340438843e-01</leafValues></_></weakClassifiers></_>
    <!-- stage 6 -->
    <_>
      <maxWeakCount>4</maxWeakCount>
      <stageThreshold>-5.8534657955169678e-01</stageThreshold>
      <weakClassifiers>
        <_>
          <internalNodes>
            0 -1 1 1.6250237822532654e-02</internalNodes>
          <leafValues>
            -6.1154854297637939e-01 7.7289378643035889e-01</leafValues></_>
        <_>
          <internalNodes>
            0 -1 10 -1.2801762670278549e-02</internalNodes>
          <leafValues>
            5.2267694473266602e-01 -9.4346463680267334e-01</leafValues></_>
        <_>
          <internalNodes>
            0 -1 17 1.9007831811904907e-02</internalNodes>
          <leafValues>
            -8.6438733339309692e-01 4.4678583741188049e-01</leafValues></_>
        <_>
          <internalNodes>
            0 -1 8 5.1645878702402115e-03</internalNodes>
          <leafValues>
            -8.1226027011871338e-01 4.4961166381835938e-01</leafValues></_></weakClassifiers></_>
    <!-- stage 7 -->
    <_>
      <maxWeakCount>1</maxWeakCount>
      <stageThreshold>6.2360119819641113e-01</stageThreshold>
      <weakClassifiers>
        <_>
          <internalNodes>
            0 -1 14 4.1863598744384944e-04</internalNodes>
          <leafValues>
            6.2360119819641113e-01 -9.8156684637069702e-01</leafValues></_></weakClassifiers></_></stages>
  <features>
    <_>
      <rects>
        <_>
          0 6 9 3 -1.</_>
        <_>
          3 6 3 3 3.</_></rects>
      <tilted>0</tilted></_>
    <_>
      <rects>
        <_>
          0 8 4 4 -1.</_>
        <_>
          2 8 2 4 2.</_></rects>
      <tilted>0</tilted></_>
    <_>
      <rects>
        <_>
          1 5 9 2 -1.</_>
        <_>
          4 5 3 2 3.</_></rects>
      <tilted>0</tilted></_>
    <_>
      <rects>
        <_>
          1 9 18 9 -1.</_>
        <_>
          7 9 6 9 3.</_></rects>
      <tilted>0</tilted></_>
    <_>
      <rects>
        <_>
          2 0 3 18 -1.</_>
        <_>
          2 6 3 6 3.</_></rects>
      <tilted>0</tilted></_>
    <_>
      <rects>
        <_>
          2 3 6 8 -1.</_>
        <_>
          2 3 3 4 2.</_>
        <_>
          5 7 3 4 2.</_></rects>
      <tilted>0</tilted></_>
    <_>
      <rects>
        <_>
          2 12 17 6 -1.</_>
        <_>
          2 15 17 3 2.</_></rects>
      <tilted>0</tilted></_>
    <_>
      <rects>
        <_>
          5 0 9 4 -1.</_>
        <_>
          5 2 9 2 2.</_></rects>
      <tilted>0</tilted></_>
    <_>
      <rects>
        <_>
          6 2 1 9 -1.</_>
        <_>
          6 5 1 3 3.</_></rects>
      <tilted>0</tilted></_>
    <_>
      <rects>
        <_>
          6 8 6 3 -1.</_>
        <_>
          9 8 3 3 2.</_></rects>
      <tilted>0</tilted></_>
    <_>
      <rects>
        <_>
          7 4 7 6 -1.</_>
        <_>
          7 6 7 2 3.</_></rects>
      <tilted>0</tilted></_>
    <_>
      <rects>
        <_>
          7 8 6 2 -1.</_>
        <_>
          9 8 2 2 3.</_></rects>
      <tilted>0</tilted></_>
    <_>
      <rects>
        <_>
          9 5 1 15 -1.</_>
        <_>
          9 10 1 5 3.</_></rects>
      <tilted>0</tilted></_>
    <_>
      <rects>
        <_>
          9 5 3 15 -1.</_>
        <_>
          9 10 3 5 3.</_></rects>
      <tilted>0</tilted></_>
    <_>
      <rects>
        <_>
          9 10 2 3 -1.</_>
        <_>
          9 11 2 1 3.</_></rects>
      <tilted>0</tilted></_>
    <_>
      <rects>
        <_>
          11 5 9 4 -1.</_>
        <_>
          14 5 3 4 3.</_></rects>
      <tilted>0</tilted></_>
    <_>
      <rects>
        <_>
          12 2 6 8 -1.</_>
        <_>
          12 2 3 4 2.</_>
        <_>
          15 6 3 4 2.</_></rects>
      <tilted>0</tilted></_>
    <_>
      <rects>
        <_>
          13 0 2 12 -1.</_>
        <_>
          13 4 2 4 3.</_></rects>
      <tilted>0</tilted></_>
    <_>
      <rects>
        <_>
          13 0 3 12 -1.</_>
        <_>
          13 4 3 4 3.</_></rects>
      <tilted>0</tilted></_>
    <_>
      <rects>
        <_>
          14 9 6 2 -1.</_>
        <_>
          16 9 2 2 3.</_></rects>
      <tilted>0</tilted></_></features></cascade>
</opencv_storage>
