<?xml version="1.0"?>
<opencv_storage>
<stage7>
  <maxWeakCount>34</maxWeakCount>
  <stageThreshold>-6.7361825704574585e-01</stageThreshold>
  <weakClassifiers>
    <_>
      <internalNodes>
        0 -1 57592 2.1804436109960079e-03</internalNodes>
      <leafValues>
        4.3771043419837952e-02 6.1716169118881226e-01</leafValues></_>
    <_>
      <internalNodes>
        0 -1 42652 7.8617624938488007e-02</internalNodes>
      <leafValues>
        -7.0440158247947693e-02 5.4384714365005493e-01</leafValues></_>
    <_>
      <internalNodes>
        0 -1 54137 -1.1615922674536705e-02</internalNodes>
      <leafValues>
        3.1710821390151978e-01 -1.4620374143123627e-01</leafValues></_>
    <_>
      <internalNodes>
        0 -1 54430 7.4679648969322443e-04</internalNodes>
      <leafValues>
        -1.5922452509403229e-01 2.7926468849182129e-01</leafValues></_>
    <_>
      <internalNodes>
        0 -1 15427 -3.3405184745788574e-01</internalNodes>
      <leafValues>
        2.8021284937858582e-01 -1.7049318552017212e-01</leafValues></_>
    <_>
      <internalNodes>
        0 -1 51519 2.4038867559283972e-03</internalNodes>
      <leafValues>
        -2.2359327971935272e-01 2.0331300795078278e-01</leafValues></_>
    <_>
      <internalNodes>
        0 -1 71329 -4.2775734327733517e-03</internalNodes>
      <leafValues>
        -4.2672005295753479e-01 9.3669943511486053e-02</leafValues></_>
    <_>
      <internalNodes>
        0 -1 54829 -1.4754632487893105e-02</internalNodes>
      <leafValues>
        4.0423870086669922e-01 -1.0657564550638199e-01</leafValues></_>
    <_>
      <internalNodes>
        0 -1 58393 9.7966017201542854e-03</internalNodes>
      <leafValues>
        -8.4508113563060760e-02 4.3163752555847168e-01</leafValues></_>
    <_>
      <internalNodes>
        0 -1 37509 -4.9108210951089859e-03</internalNodes>
      <leafValues>
        -2.2263950109481812e-01 1.6844119131565094e-01</leafValues></_>
    <_>
      <internalNodes>
        0 -1 61655 -1.6992278397083282e-03</internalNodes>
      <leafValues>
        2.4057322740554810e-01 -1.6891999542713165e-01</leafValues></_>
    <_>
      <internalNodes>
        0 -1 56406 3.0165973585098982e-03</internalNodes>
      <leafValues>
        8.6273111402988434e-02 -5.2531105279922485e-01</leafValues></_>
    <_>
      <internalNodes>
        0 -1 52046 3.0461800633929670e-04</internalNodes>
      <leafValues>
        -2.3304328322410583e-01 1.8695589900016785e-01</leafValues></_>
    <_>
      <internalNodes>
        0 -1 52937 -1.5289571601897478e-03</internalNodes>
      <leafValues>
        2.8488180041313171e-01 -1.6563981771469116e-01</leafValues></_>
    <_>
      <internalNodes>
        0 -1 2114 -2.8777099214494228e-04</internalNodes>
      <leafValues>
        -2.5634798407554626e-01 1.5209878981113434e-01</leafValues></_>
    <_>
      <internalNodes>
        0 -1 44814 1.0699977865442634e-03</internalNodes>
      <leafValues>
        -1.1849687993526459e-01 3.4953379631042480e-01</leafValues></_>
    <_>
      <internalNodes>
        0 -1 60437 7.9692173749208450e-03</internalNodes>
      <leafValues>
        6.4173229038715363e-02 -7.2947597503662109e-01</leafValues></_>
    <_>
      <internalNodes>
        0 -1 51270 -6.9435527548193932e-03</internalNodes>
      <leafValues>
        -6.4853101968765259e-01 5.1268193870782852e-02</leafValues></_>
    <_>
      <internalNodes>
        0 -1 55076 8.6690615862607956e-03</internalNodes>
      <leafValues>
        -1.0727430135011673e-01 4.2503860592842102e-01</leafValues></_>
    <_>
      <internalNodes>
        0 -1 65968 1.6938002780079842e-02</internalNodes>
      <leafValues>
        7.6062329113483429e-02 -5.3000336885452271e-01</leafValues></_>
    <_>
      <internalNodes>
        0 -1 45753 -1.4809843152761459e-02</internalNodes>
      <leafValues>
        3.9830896258354187e-01 -9.8114199936389923e-02</leafValues></_>
    <_>
      <internalNodes>
        0 -1 60258 -8.2145168562419713e-05</internalNodes>
      <leafValues>
        -2.7778089046478271e-01 1.5334530174732208e-01</leafValues></_>
    <_>
      <internalNodes>
        0 -1 45815 1.0681221261620522e-02</internalNodes>
      <leafValues>
        -1.2688826024532318e-01 3.5399815440177917e-01</leafValues></_>
    <_>
      <internalNodes>
        0 -1 51637 1.0002233088016510e-02</internalNodes>
      <leafValues>
        6.7201361060142517e-02 -6.3931590318679810e-01</leafValues></_>
    <_>
      <internalNodes>
        0 -1 51637 3.9621302857995033e-04</internalNodes>
      <leafValues>
        -1.9620239734649658e-01 2.0637290179729462e-01</leafValues></_>
    <_>
      <internalNodes>
        0 -1 76943 4.3036779388785362e-03</internalNodes>
      <leafValues>
        9.1334730386734009e-02 -4.1166877746582031e-01</leafValues></_>
    <_>
      <internalNodes>
        0 -1 52392 4.3175611644983292e-03</internalNodes>
      <leafValues>
        -1.0909663140773773e-01 3.7627533078193665e-01</leafValues></_>
    <_>
      <internalNodes>
        0 -1 58365 -2.2926393430680037e-03</internalNodes>
      <leafValues>
        2.8352516889572144e-01 -1.4532804489135742e-01</leafValues></_>
    <_>
      <internalNodes>
        0 -1 40122 -1.1284808628261089e-02</internalNodes>
      <leafValues>
        -7.0166194438934326e-01 6.0745872557163239e-02</leafValues></_>
    <_>
      <internalNodes>
        0 -1 74481 -4.1474197059869766e-03</internalNodes>
      <leafValues>
        3.9392879605293274e-01 -1.0577932745218277e-01</leafValues></_>
    <_>
      <internalNodes>
        0 -1 56781 -6.1370329931378365e-03</internalNodes>
      <leafValues>
        -5.4043549299240112e-01 7.3286890983581543e-02</leafValues></_>
    <_>
      <internalNodes>
        0 -1 61444 5.3631397895514965e-04</internalNodes>
      <leafValues>
        -1.9126285612583160e-01 2.1805001795291901e-01</leafValues></_>
    <_>
      <internalNodes>
        0 -1 40703 1.8569812178611755e-02</internalNodes>
      <leafValues>
        8.4930479526519775e-02 -4.7727626562118530e-01</leafValues></_>
    <_>
      <internalNodes>
        0 -1 66914 -1.3460589572787285e-02</internalNodes>
      <leafValues>
        5.4345637559890747e-01 -8.0727748572826385e-02</leafValues></_></weakClassifiers></stage7>
</opencv_storage>
